<?xml version="1.0" encoding="UTF-8" standalone="yes"?>
<PMML xmlns="http://www.dmg.org/PMML-4_4" xmlns:data="http://jpmml.org/jpmml-model/InlineTable" version="4.4">
	<Header>
		<Application name="JPMML-SkLearn" version="1.6.13"/>
		<Timestamp>2021-03-10T07:38:20Z</Timestamp>
	</Header>
	<DataDictionary>
		<DataField name="Species" optype="categorical" dataType="string">
			<Value value="setosa"/>
			<Value value="versicolor"/>
			<Value value="virginica"/>
		</DataField>
		<DataField name="Sepal.Length" optype="continuous" dataType="double">
			<Interval closure="closedClosed" leftMargin="4.3" rightMargin="7.9"/>
		</DataField>
		<DataField name="Sepal.Width" optype="continuous" dataType="double">
			<Interval closure="closedClosed" leftMargin="2.0" rightMargin="4.4"/>
		</DataField>
		<DataField name="Petal.Length" optype="continuous" dataType="double">
			<Interval closure="closedClosed" leftMargin="1.0" rightMargin="6.9"/>
		</DataField>
		<DataField name="Petal.Width" optype="continuous" dataType="double">
			<Interval closure="closedClosed" leftMargin="0.1" rightMargin="2.5"/>
		</DataField>
	</DataDictionary>
	<TransformationDictionary/>
	<MiningModel functionName="classification">
		<MiningSchema>
			<MiningField name="Species" usageType="target"/>
			<MiningField name="Petal.Width" missingValueTreatment="asIs"/>
			<MiningField name="Petal.Length" missingValueTreatment="asIs"/>
			<MiningField name="Sepal.Length" missingValueTreatment="asIs"/>
			<MiningField name="Sepal.Width" missingValueTreatment="asIs"/>
		</MiningSchema>
		<ModelStats>
			<UnivariateStats field="Petal.Width">
				<Counts totalFreq="150" missingFreq="0" invalidFreq="0"/>
				<NumericInfo minimum="0.1" maximum="2.5" mean="1.1993333333333336" standardDeviation="0.7596926279021594" median="1.3" interQuartileRange="1.5"/>
			</UnivariateStats>
			<UnivariateStats field="Petal.Length">
				<Counts totalFreq="150" missingFreq="0" invalidFreq="0"/>
				<NumericInfo minimum="1.0" maximum="6.9" mean="3.7580000000000005" standardDeviation="1.759404065775303" median="4.35" interQuartileRange="3.4999999999999996"/>
			</UnivariateStats>
			<UnivariateStats field="Sepal.Length">
				<Counts totalFreq="150" missingFreq="0" invalidFreq="0"/>
				<NumericInfo minimum="4.3" maximum="7.9" mean="5.843333333333334" standardDeviation="0.8253012917851409" median="5.8" interQuartileRange="1.3000000000000007"/>
			</UnivariateStats>
			<UnivariateStats field="Sepal.Width">
				<Counts totalFreq="150" missingFreq="0" invalidFreq="0"/>
				<NumericInfo minimum="2.0" maximum="4.4" mean="3.0573333333333337" standardDeviation="0.4344109677354946" median="3.0" interQuartileRange="0.5"/>
			</UnivariateStats>
		</ModelStats>
		<LocalTransformations>
			<DerivedField name="float(Sepal.Length)" optype="continuous" dataType="float">
				<FieldRef field="Sepal.Length"/>
			</DerivedField>
			<DerivedField name="float(Sepal.Width)" optype="continuous" dataType="float">
				<FieldRef field="Sepal.Width"/>
			</DerivedField>
			<DerivedField name="float(Petal.Length)" optype="continuous" dataType="float">
				<FieldRef field="Petal.Length"/>
			</DerivedField>
			<DerivedField name="float(Petal.Width)" optype="continuous" dataType="float">
				<FieldRef field="Petal.Width"/>
			</DerivedField>
			<DerivedField name="double(float(Petal.Width))" optype="continuous" dataType="double">
				<FieldRef field="float(Petal.Width)"/>
			</DerivedField>
			<DerivedField name="double(float(Petal.Length))" optype="continuous" dataType="double">
				<FieldRef field="float(Petal.Length)"/>
			</DerivedField>
			<DerivedField name="double(float(Sepal.Length))" optype="continuous" dataType="double">
				<FieldRef field="float(Sepal.Length)"/>
			</DerivedField>
			<DerivedField name="double(float(Sepal.Width))" optype="continuous" dataType="double">
				<FieldRef field="float(Sepal.Width)"/>
			</DerivedField>
		</LocalTransformations>
		<Segmentation multipleModelMethod="modelChain" missingPredictionTreatment="returnMissing">
			<Segment id="1">
				<True/>
				<MiningModel functionName="regression">
					<MiningSchema>
						<MiningField name="double(float(Petal.Width))"/>
						<MiningField name="double(float(Petal.Length))"/>
						<MiningField name="double(float(Sepal.Length))"/>
						<MiningField name="double(float(Sepal.Width))"/>
					</MiningSchema>
					<Output>
						<OutputField name="decisionFunction(setosa)" optype="continuous" dataType="double" isFinalResult="false"/>
						<OutputField name="expDecisionFunction(setosa)" optype="continuous" dataType="double" feature="transformedValue" isFinalResult="false">
							<Apply function="exp">
								<FieldRef field="decisionFunction(setosa)"/>
							</Apply>
						</OutputField>
					</Output>
					<Targets>
						<Target rescaleConstant="-1.0986122886681098" rescaleFactor="0.1"/>
					</Targets>
					<Segmentation multipleModelMethod="sum">
						<Segment id="1">
							<True/>
							<TreeModel functionName="regression" missingValueStrategy="nullPrediction" noTrueChildStrategy="returnLastPrediction">
								<MiningSchema>
									<MiningField name="double(float(Petal.Width))"/>
									<MiningField name="double(float(Petal.Length))"/>
								</MiningSchema>
								<Node score="-0.9999999999999999">
									<True/>
									<Node score="2.0">
										<SimplePredicate field="double(float(Petal.Width))" operator="lessOrEqual" value="0.800000011920929"/>
									</Node>
									<Node score="-0.9999999999999997">
										<SimplePredicate field="double(float(Petal.Width))" operator="lessOrEqual" value="1.550000011920929"/>
									</Node>
									<Node score="-0.9999999999999997">
										<SimplePredicate field="double(float(Petal.Length))" operator="lessOrEqual" value="6.5"/>
									</Node>
								</Node>
							</TreeModel>
						</Segment>
						<Segment id="2">
							<True/>
							<TreeModel functionName="regression" missingValueStrategy="nullPrediction" noTrueChildStrategy="returnLastPrediction">
								<MiningSchema>
									<MiningField name="double(float(Petal.Length))"/>
									<MiningField name="double(float(Sepal.Length))"/>
									<MiningField name="double(float(Sepal.Width))"/>
								</MiningSchema>
								<Node score="-0.9518605817710228">
									<True/>
									<Node score="1.6544242942422902">
										<SimplePredicate field="double(float(Petal.Length))" operator="lessOrEqual" value="2.449999988079071"/>
									</Node>
									<Node score="-0.9143777566951282">
										<SimplePredicate field="double(float(Sepal.Length))" operator="lessOrEqual" value="4.950000047683716"/>
										<Node score="-0.9513907025680941">
											<SimplePredicate field="double(float(Sepal.Width))" operator="lessOrEqual" value="2.450000047683716"/>
										</Node>
									</Node>
									<Node score="-0.9502831742004956">
										<SimplePredicate field="double(float(Sepal.Width))" operator="lessOrEqual" value="2.850000023841858"/>
									</Node>
								</Node>
							</TreeModel>
						</Segment>
						<Segment id="3">
							<True/>
							<TreeModel functionName="regression" missingValueStrategy="nullPrediction" noTrueChildStrategy="returnLastPrediction">
								<MiningSchema>
									<MiningField name="double(float(Petal.Length))"/>
									<MiningField name="double(float(Sepal.Length))"/>
									<MiningField name="double(float(Sepal.Width))"/>
								</MiningSchema>
								<Node score="-0.9120076993614801">
									<True/>
									<Node score="1.4278947666851596">
										<SimplePredicate field="double(float(Petal.Length))" operator="lessOrEqual" value="2.449999988079071"/>
									</Node>
									<Node score="-0.8570932442572088">
										<SimplePredicate field="double(float(Sepal.Length))" operator="lessOrEqual" value="4.950000047683716"/>
										<Node score="-0.9106465690541399">
											<SimplePredicate field="double(float(Petal.Length))" operator="lessOrEqual" value="3.899999976158142"/>
										</Node>
									</Node>
									<Node score="-0.909306117390313">
										<SimplePredicate field="double(float(Sepal.Width))" operator="lessOrEqual" value="2.950000047683716"/>
									</Node>
								</Node>
							</TreeModel>
						</Segment>
						<Segment id="4">
							<True/>
							<TreeModel functionName="regression" missingValueStrategy="nullPrediction" noTrueChildStrategy="returnLastPrediction">
								<MiningSchema>
									<MiningField name="double(float(Petal.Length))"/>
									<MiningField name="double(float(Sepal.Length))"/>
									<MiningField name="double(float(Sepal.Width))"/>
								</MiningSchema>
								<Node score="-0.8784869277483348">
									<True/>
									<Node score="1.2692383115262686">
										<SimplePredicate field="double(float(Petal.Length))" operator="lessOrEqual" value="2.449999988079071"/>
									</Node>
									<Node score="-0.8164783361414721">
										<SimplePredicate field="double(float(Sepal.Length))" operator="lessOrEqual" value="4.950000047683716"/>
										<Node score="-0.8763157432232711">
											<SimplePredicate field="double(float(Petal.Length))" operator="lessOrEqual" value="3.899999976158142"/>
										</Node>
									</Node>
									<Node score="-0.8749149359641504">
										<SimplePredicate field="double(float(Sepal.Width))" operator="lessOrEqual" value="2.950000047683716"/>
									</Node>
								</Node>
							</TreeModel>
						</Segment>
						<Segment id="5">
							<True/>
							<TreeModel functionName="regression" missingValueStrategy="nullPrediction" noTrueChildStrategy="returnLastPrediction">
								<MiningSchema>
									<MiningField name="double(float(Petal.Length))"/>
									<MiningField name="double(float(Sepal.Length))"/>
									<MiningField name="double(float(Sepal.Width))"/>
								</MiningSchema>
								<Node score="-0.8465087974436662">
									<True/>
									<Node score="1.1529600385223322">
										<SimplePredicate field="double(float(Petal.Length))" operator="lessOrEqual" value="2.449999988079071"/>
										<Node score="1.152960038522332">
											<SimplePredicate field="double(float(Sepal.Length))" operator="lessOrEqual" value="5.25"/>
										</Node>
										<Node score="1.1529600385223324">
											<SimplePredicate field="double(float(Sepal.Width))" operator="lessOrEqual" value="4.099999904632568"/>
										</Node>
									</Node>
									<Node score="-0.786785349302941">
										<SimplePredicate field="double(float(Sepal.Length))" operator="lessOrEqual" value="4.950000047683716"/>
										<Node score="-0.8479082619019593">
											<SimplePredicate field="double(float(Sepal.Width))" operator="lessOrEqual" value="2.450000047683716"/>
										</Node>
									</Node>
									<Node score="-0.8509529799735204">
										<SimplePredicate field="double(float(Sepal.Length))" operator="lessOrEqual" value="5.950000047683716"/>
									</Node>
								</Node>
							</TreeModel>
						</Segment>
						<Segment id="6">
							<True/>
							<TreeModel functionName="regression" missingValueStrategy="nullPrediction" noTrueChildStrategy="returnLastPrediction">
								<MiningSchema>
									<MiningField name="double(float(Petal.Width))"/>
									<MiningField name="double(float(Petal.Length))"/>
									<MiningField name="double(float(Sepal.Length))"/>
									<MiningField name="double(float(Sepal.Width))"/>
								</MiningSchema>
								<Node score="-0.819876275105281">
									<True/>
									<Node score="1.064897897404199">
										<SimplePredicate field="double(float(Petal.Length))" operator="lessOrEqual" value="2.449999988079071"/>
										<Node score="1.064897897404199">
											<SimplePredicate field="double(float(Sepal.Length))" operator="lessOrEqual" value="4.6499998569488525"/>
										</Node>
										<Node score="1.064897897404199">
											<SimplePredicate field="double(float(Sepal.Width))" operator="lessOrEqual" value="3.350000023841858"/>
										</Node>
									</Node>
									<Node score="-0.7641905268237198">
										<SimplePredicate field="double(float(Sepal.Length))" operator="lessOrEqual" value="4.950000047683716"/>
										<Node score="-0.8237485002124765">
											<SimplePredicate field="double(float(Sepal.Width))" operator="lessOrEqual" value="2.450000047683716"/>
										</Node>
									</Node>
									<Node score="-0.8254422057139855">
										<SimplePredicate field="double(float(Petal.Width))" operator="lessOrEqual" value="1.8499999642372131"/>
									</Node>
								</Node>
							</TreeModel>
						</Segment>
						<Segment id="7">
							<True/>
							<TreeModel functionName="regression" missingValueStrategy="nullPrediction" noTrueChildStrategy="returnLastPrediction">
								<MiningSchema>
									<MiningField name="double(float(Petal.Width))"/>
									<MiningField name="double(float(Petal.Length))"/>
									<MiningField name="double(float(Sepal.Length))"/>
									<MiningField name="double(float(Sepal.Width))"/>
								</MiningSchema>
								<Node score="-0.7985799407246771">
									<True/>
									<Node score="0.9964857032788873">
										<SimplePredicate field="double(float(Petal.Length))" operator="lessOrEqual" value="2.449999988079071"/>
										<Node score="0.9964857032788873">
											<SimplePredicate field="double(float(Sepal.Width))" operator="lessOrEqual" value="4.299999952316284"/>
											<Node score="0.9964857032788874">
												<SimplePredicate field="double(float(Sepal.Width))" operator="lessOrEqual" value="4.1499998569488525"/>
											</Node>
										</Node>
									</Node>
									<Node score="-0.7495261995920656">
										<SimplePredicate field="double(float(Sepal.Length))" operator="lessOrEqual" value="4.950000047683716"/>
										<Node score="-0.8020736432273602">
											<SimplePredicate field="double(float(Sepal.Width))" operator="lessOrEqual" value="2.450000047683716"/>
										</Node>
									</Node>
									<Node score="-0.804837260801055">
										<SimplePredicate field="double(float(Petal.Width))" operator="lessOrEqual" value="1.8499999642372131"/>
									</Node>
								</Node>
							</TreeModel>
						</Segment>
						<Segment id="8">
							<True/>
							<TreeModel functionName="regression" missingValueStrategy="nullPrediction" noTrueChildStrategy="returnLastPrediction">
								<MiningSchema>
									<MiningField name="double(float(Petal.Width))"/>
									<MiningField name="double(float(Petal.Length))"/>
									<MiningField name="double(float(Sepal.Length))"/>
								</MiningSchema>
								<Node score="-0.7804681920031484">
									<True/>
									<Node score="0.9422825735348582">
										<SimplePredicate field="double(float(Petal.Length))" operator="lessOrEqual" value="2.449999988079071"/>
									</Node>
									<Node score="-0.7373606474236731">
										<SimplePredicate field="double(float(Sepal.Length))" operator="lessOrEqual" value="4.950000047683716"/>
										<Node score="-0.7836012081712677">
											<SimplePredicate field="double(float(Petal.Length))" operator="lessOrEqual" value="3.899999976158142"/>
										</Node>
									</Node>
									<Node score="-0.7873262947296122">
										<SimplePredicate field="double(float(Petal.Width))" operator="lessOrEqual" value="1.8499999642372131"/>
									</Node>
								</Node>
							</TreeModel>
						</Segment>
						<Segment id="9">
							<True/>
							<TreeModel functionName="regression" missingValueStrategy="nullPrediction" noTrueChildStrategy="returnLastPrediction">
								<MiningSchema>
									<MiningField name="double(float(Petal.Width))"/>
									<MiningField name="double(float(Sepal.Length))"/>
								</MiningSchema>
								<Node score="-0.765072070176039">
									<True/>
									<Node score="0.8986564214437076">
										<SimplePredicate field="double(float(Petal.Width))" operator="lessOrEqual" value="0.800000011920929"/>
									</Node>
									<Node score="-0.7279939781533423">
										<SimplePredicate field="double(float(Sepal.Length))" operator="lessOrEqual" value="4.950000047683716"/>
										<Node score="-0.7678114948321875">
											<SimplePredicate field="double(float(Petal.Width))" operator="lessOrEqual" value="1.350000023841858"/>
										</Node>
									</Node>
									<Node score="-0.7724354496615837">
										<SimplePredicate field="double(float(Petal.Width))" operator="lessOrEqual" value="1.8499999642372131"/>
									</Node>
								</Node>
							</TreeModel>
						</Segment>
						<Segment id="10">
							<True/>
							<TreeModel functionName="regression" missingValueStrategy="nullPrediction" noTrueChildStrategy="returnLastPrediction">
								<MiningSchema>
									<MiningField name="double(float(Petal.Width))"/>
									<MiningField name="double(float(Petal.Length))"/>
									<MiningField name="double(float(Sepal.Length))"/>
									<MiningField name="double(float(Sepal.Width))"/>
								</MiningSchema>
								<Node score="-0.7519459059497899">
									<True/>
									<Node score="0.8630916360866473">
										<SimplePredicate field="double(float(Petal.Width))" operator="lessOrEqual" value="0.800000011920929"/>
										<Node score="0.8630916360866473">
											<SimplePredicate field="double(float(Sepal.Width))" operator="lessOrEqual" value="3.25"/>
										</Node>
										<Node score="0.8630916360866474">
											<SimplePredicate field="double(float(Sepal.Length))" operator="lessOrEqual" value="5.1499998569488525"/>
										</Node>
									</Node>
									<Node score="-0.7180893968876636">
										<SimplePredicate field="double(float(Sepal.Length))" operator="lessOrEqual" value="4.950000047683716"/>
										<Node score="-0.7549384549897005">
											<SimplePredicate field="double(float(Petal.Length))" operator="lessOrEqual" value="3.899999976158142"/>
										</Node>
									</Node>
									<Node score="-0.7594426776205832">
										<SimplePredicate field="double(float(Petal.Width))" operator="lessOrEqual" value="1.8499999642372131"/>
									</Node>
								</Node>
							</TreeModel>
						</Segment>
						<Segment id="11">
							<True/>
							<TreeModel functionName="regression" missingValueStrategy="nullPrediction" noTrueChildStrategy="returnLastPrediction">
								<MiningSchema>
									<MiningField name="double(float(Petal.Width))"/>
									<MiningField name="double(float(Petal.Length))"/>
									<MiningField name="double(float(Sepal.Length))"/>
								</MiningSchema>
								<Node score="-0.7408057670769976">
									<True/>
									<Node score="0.8337920816536496">
										<SimplePredicate field="double(float(Petal.Length))" operator="lessOrEqual" value="2.449999988079071"/>
									</Node>
									<Node score="-0.7126321302647113">
										<SimplePredicate field="double(float(Sepal.Length))" operator="lessOrEqual" value="4.950000047683716"/>
										<Node score="-0.743219769554895">
											<SimplePredicate field="double(float(Petal.Length))" operator="lessOrEqual" value="3.899999976158142"/>
										</Node>
									</Node>
									<Node score="-0.7485719750433284">
										<SimplePredicate field="double(float(Petal.Width))" operator="lessOrEqual" value="1.8499999642372131"/>
									</Node>
								</Node>
							</TreeModel>
						</Segment>
					</Segmentation>
				</MiningModel>
			</Segment>
			<Segment id="2">
				<True/>
				<MiningModel functionName="regression">
					<MiningSchema>
						<MiningField name="double(float(Petal.Width))"/>
						<MiningField name="double(float(Petal.Length))"/>
						<MiningField name="double(float(Sepal.Length))"/>
						<MiningField name="double(float(Sepal.Width))"/>
					</MiningSchema>
					<Output>
						<OutputField name="decisionFunction(versicolor)" optype="continuous" dataType="double" isFinalResult="false"/>
						<OutputField name="expDecisionFunction(versicolor)" optype="continuous" dataType="double" feature="transformedValue" isFinalResult="false">
							<Apply function="exp">
								<FieldRef field="decisionFunction(versicolor)"/>
							</Apply>
						</OutputField>
					</Output>
					<Targets>
						<Target rescaleConstant="-1.0986122886681098" rescaleFactor="0.1"/>
					</Targets>
					<Segmentation multipleModelMethod="sum">
						<Segment id="1">
							<True/>
							<TreeModel functionName="regression" missingValueStrategy="nullPrediction" noTrueChildStrategy="returnLastPrediction">
								<MiningSchema>
									<MiningField name="double(float(Petal.Width))"/>
									<MiningField name="double(float(Petal.Length))"/>
								</MiningSchema>
								<Node score="-1.0000000000000002">
									<True/>
									<Node score="-0.9999999999999999">
										<SimplePredicate field="double(float(Petal.Length))" operator="lessOrEqual" value="2.449999988079071"/>
									</Node>
									<Node score="1.6653345369377346E-16">
										<SimplePredicate field="double(float(Petal.Width))" operator="lessOrEqual" value="1.75"/>
										<Node score="1.9375000000000002">
											<SimplePredicate field="double(float(Petal.Length))" operator="lessOrEqual" value="4.950000047683716"/>
										</Node>
									</Node>
									<Node score="1.1102230246251565E-16">
										<SimplePredicate field="double(float(Petal.Length))" operator="lessOrEqual" value="4.8500001430511475"/>
									</Node>
								</Node>
							</TreeModel>
						</Segment>
						<Segment id="2">
							<True/>
							<TreeModel functionName="regression" missingValueStrategy="nullPrediction" noTrueChildStrategy="returnLastPrediction">
								<MiningSchema>
									<MiningField name="double(float(Petal.Width))"/>
									<MiningField name="double(float(Petal.Length))"/>
								</MiningSchema>
								<Node score="-0.9503716554588936">
									<True/>
									<Node score="-0.9503716554588938">
										<SimplePredicate field="double(float(Petal.Width))" operator="lessOrEqual" value="0.800000011920929"/>
									</Node>
									<Node score="0.0038202575627447745">
										<SimplePredicate field="double(float(Petal.Width))" operator="lessOrEqual" value="1.75"/>
										<Node score="1.6062616988237863">
											<SimplePredicate field="double(float(Petal.Length))" operator="lessOrEqual" value="4.950000047683716"/>
										</Node>
									</Node>
									<Node score="0.004355969283885231">
										<SimplePredicate field="double(float(Petal.Length))" operator="lessOrEqual" value="4.8500001430511475"/>
									</Node>
								</Node>
							</TreeModel>
						</Segment>
						<Segment id="3">
							<True/>
							<TreeModel functionName="regression" missingValueStrategy="nullPrediction" noTrueChildStrategy="returnLastPrediction">
								<MiningSchema>
									<MiningField name="double(float(Petal.Width))"/>
									<MiningField name="double(float(Petal.Length))"/>
								</MiningSchema>
								<Node score="-0.9089662539014763">
									<True/>
									<Node score="-0.9089620164762351">
										<SimplePredicate field="double(float(Petal.Length))" operator="lessOrEqual" value="2.449999988079071"/>
									</Node>
									<Node score="0.009297598404632356">
										<SimplePredicate field="double(float(Petal.Width))" operator="lessOrEqual" value="1.75"/>
										<Node score="1.3864298765992484">
											<SimplePredicate field="double(float(Petal.Length))" operator="lessOrEqual" value="4.950000047683716"/>
										</Node>
									</Node>
									<Node score="0.010068163749362102">
										<SimplePredicate field="double(float(Petal.Length))" operator="lessOrEqual" value="4.8500001430511475"/>
									</Node>
								</Node>
							</TreeModel>
						</Segment>
						<Segment id="4">
							<True/>
							<TreeModel functionName="regression" missingValueStrategy="nullPrediction" noTrueChildStrategy="returnLastPrediction">
								<MiningSchema>
									<MiningField name="double(float(Petal.Width))"/>
									<MiningField name="double(float(Petal.Length))"/>
								</MiningSchema>
								<Node score="-0.8742029898323506">
									<True/>
									<Node score="-0.8741917995402393">
										<SimplePredicate field="double(float(Petal.Width))" operator="lessOrEqual" value="0.800000011920929"/>
									</Node>
									<Node score="-0.9984818449893911">
										<SimplePredicate field="double(float(Petal.Width))" operator="lessOrEqual" value="1.75"/>
										<Node score="1.1824665976358442">
											<SimplePredicate field="double(float(Petal.Length))" operator="lessOrEqual" value="5.349999904632568"/>
										</Node>
									</Node>
									<Node score="0.016461848287834348">
										<SimplePredicate field="double(float(Petal.Length))" operator="lessOrEqual" value="4.8500001430511475"/>
									</Node>
								</Node>
							</TreeModel>
						</Segment>
						<Segment id="5">
							<True/>
							<TreeModel functionName="regression" missingValueStrategy="nullPrediction" noTrueChildStrategy="returnLastPrediction">
								<MiningSchema>
									<MiningField name="double(float(Petal.Width))"/>
									<MiningField name="double(float(Petal.Length))"/>
									<MiningField name="double(float(Sepal.Width))"/>
								</MiningSchema>
								<Node score="-0.8448770276331063">
									<True/>
									<Node score="-0.8448590640762468">
										<SimplePredicate field="double(float(Petal.Length))" operator="lessOrEqual" value="2.449999988079071"/>
										<Node score="-0.8448590640762464">
											<SimplePredicate field="double(float(Sepal.Width))" operator="lessOrEqual" value="3.350000023841858"/>
											<Node score="-0.8448590640762464">
												<SimplePredicate field="double(float(Petal.Width))" operator="lessOrEqual" value="0.2500000074505806"/>
											</Node>
										</Node>
										<Node score="-0.8448590640762464">
											<SimplePredicate field="double(float(Sepal.Width))" operator="lessOrEqual" value="3.649999976158142"/>
										</Node>
									</Node>
									<Node score="-0.9583083668656762">
										<SimplePredicate field="double(float(Petal.Width))" operator="lessOrEqual" value="1.75"/>
										<Node score="1.0686238088788256">
											<SimplePredicate field="double(float(Petal.Length))" operator="lessOrEqual" value="5.349999904632568"/>
										</Node>
									</Node>
									<Node score="0.02305622872278263">
										<SimplePredicate field="double(float(Petal.Length))" operator="lessOrEqual" value="4.8500001430511475"/>
									</Node>
								</Node>
							</TreeModel>
						</Segment>
						<Segment id="6">
							<True/>
							<TreeModel functionName="regression" missingValueStrategy="nullPrediction" noTrueChildStrategy="returnLastPrediction">
								<MiningSchema>
									<MiningField name="double(float(Petal.Width))"/>
									<MiningField name="double(float(Petal.Length))"/>
									<MiningField name="double(float(Sepal.Length))"/>
								</MiningSchema>
								<Node score="-0.7441600459575414">
									<True/>
									<Node score="-0.8200105456408748">
										<SimplePredicate field="double(float(Petal.Width))" operator="lessOrEqual" value="0.800000011920929"/>
										<Node score="-0.8200105456408746">
											<SimplePredicate field="double(float(Sepal.Length))" operator="lessOrEqual" value="4.950000047683716"/>
										</Node>
										<Node score="-0.8200105456408746">
											<SimplePredicate field="double(float(Sepal.Length))" operator="lessOrEqual" value="5.3500001430511475"/>
										</Node>
									</Node>
									<Node score="-0.37107566266010605">
										<SimplePredicate field="double(float(Petal.Width))" operator="lessOrEqual" value="1.6500000357627869"/>
										<Node score="1.0777597104895256">
											<SimplePredicate field="double(float(Petal.Length))" operator="lessOrEqual" value="4.950000047683716"/>
										</Node>
									</Node>
									<Node score="0.17588225687188797">
										<SimplePredicate field="double(float(Petal.Width))" operator="lessOrEqual" value="1.75"/>
									</Node>
								</Node>
							</TreeModel>
						</Segment>
						<Segment id="7">
							<True/>
							<TreeModel functionName="regression" missingValueStrategy="nullPrediction" noTrueChildStrategy="returnLastPrediction">
								<MiningSchema>
									<MiningField name="double(float(Petal.Width))"/>
									<MiningField name="double(float(Petal.Length))"/>
								</MiningSchema>
								<Node score="-0.7162183158985663">
									<True/>
									<Node score="-0.7988908225699728">
										<SimplePredicate field="double(float(Petal.Length))" operator="lessOrEqual" value="2.449999988079071"/>
									</Node>
									<Node score="-0.33289694615264276">
										<SimplePredicate field="double(float(Petal.Width))" operator="lessOrEqual" value="1.6500000357627869"/>
										<Node score="1.006543593691033">
											<SimplePredicate field="double(float(Petal.Length))" operator="lessOrEqual" value="4.950000047683716"/>
										</Node>
									</Node>
									<Node score="0.16715716076301407">
										<SimplePredicate field="double(float(Petal.Width))" operator="lessOrEqual" value="1.75"/>
									</Node>
								</Node>
							</TreeModel>
						</Segment>
						<Segment id="8">
							<True/>
							<TreeModel functionName="regression" missingValueStrategy="nullPrediction" noTrueChildStrategy="returnLastPrediction">
								<MiningSchema>
									<MiningField name="double(float(Petal.Width))"/>
									<MiningField name="double(float(Petal.Length))"/>
								</MiningSchema>
								<Node score="-0.7827149409043324">
									<True/>
									<Node score="-0.7808826384592991">
										<SimplePredicate field="double(float(Petal.Length))" operator="lessOrEqual" value="2.449999988079071"/>
									</Node>
									<Node score="-0.29722203645290995">
										<SimplePredicate field="double(float(Petal.Width))" operator="lessOrEqual" value="1.6500000357627869"/>
										<Node score="0.9502722582420857">
											<SimplePredicate field="double(float(Petal.Length))" operator="lessOrEqual" value="4.950000047683716"/>
										</Node>
									</Node>
									<Node score="-0.19200172380546227">
										<SimplePredicate field="double(float(Petal.Length))" operator="lessOrEqual" value="5.049999952316284"/>
									</Node>
								</Node>
							</TreeModel>
						</Segment>
						<Segment id="9">
							<True/>
							<TreeModel functionName="regression" missingValueStrategy="nullPrediction" noTrueChildStrategy="returnLastPrediction">
								<MiningSchema>
									<MiningField name="double(float(Petal.Width))"/>
									<MiningField name="double(float(Petal.Length))"/>
									<MiningField name="double(float(Sepal.Length))"/>
									<MiningField name="double(float(Sepal.Width))"/>
								</MiningSchema>
								<Node score="-0.7677691272316547">
									<True/>
									<Node score="-0.7654828041872669">
										<SimplePredicate field="double(float(Petal.Width))" operator="lessOrEqual" value="0.800000011920929"/>
										<Node score="-0.7654828041872672">
											<SimplePredicate field="double(float(Sepal.Length))" operator="lessOrEqual" value="4.8500001430511475"/>
										</Node>
										<Node score="-0.7654828041872672">
											<SimplePredicate field="double(float(Sepal.Width))" operator="lessOrEqual" value="3.450000047683716"/>
										</Node>
									</Node>
									<Node score="-0.861076514180723">
										<SimplePredicate field="double(float(Petal.Width))" operator="lessOrEqual" value="1.75"/>
										<Node score="0.8186627140513825">
											<SimplePredicate field="double(float(Petal.Length))" operator="lessOrEqual" value="5.349999904632568"/>
										</Node>
									</Node>
									<Node score="0.1671977916159106">
										<SimplePredicate field="double(float(Petal.Length))" operator="lessOrEqual" value="4.8500001430511475"/>
									</Node>
								</Node>
							</TreeModel>
						</Segment>
						<Segment id="10">
							<True/>
							<TreeModel functionName="regression" missingValueStrategy="nullPrediction" noTrueChildStrategy="returnLastPrediction">
								<MiningSchema>
									<MiningField name="double(float(Petal.Width))"/>
									<MiningField name="double(float(Petal.Length))"/>
								</MiningSchema>
								<Node score="-0.5618393780884495">
									<True/>
									<Node score="-0.7522788144147148">
										<SimplePredicate field="double(float(Petal.Length))" operator="lessOrEqual" value="2.449999988079071"/>
									</Node>
									<Node score="-0.2630599537039135">
										<SimplePredicate field="double(float(Petal.Width))" operator="lessOrEqual" value="1.6500000357627869"/>
										<Node score="0.8700591308574736">
											<SimplePredicate field="double(float(Petal.Length))" operator="lessOrEqual" value="4.950000047683716"/>
										</Node>
									</Node>
									<Node score="-1.006368696880885">
										<SimplePredicate field="double(float(Petal.Length))" operator="lessOrEqual" value="4.650000095367432"/>
									</Node>
								</Node>
							</TreeModel>
						</Segment>
						<Segment id="11">
							<True/>
							<TreeModel functionName="regression" missingValueStrategy="nullPrediction" noTrueChildStrategy="returnLastPrediction">
								<MiningSchema>
									<MiningField name="double(float(Petal.Width))"/>
									<MiningField name="double(float(Petal.Length))"/>
									<MiningField name="double(float(Sepal.Length))"/>
									<MiningField name="double(float(Sepal.Width))"/>
								</MiningSchema>
								<Node score="-0.7443875422449486">
									<True/>
									<Node score="-0.7409307214202508">
										<SimplePredicate field="double(float(Petal.Length))" operator="lessOrEqual" value="2.449999988079071"/>
										<Node score="-0.7409307214202511">
											<SimplePredicate field="double(float(Sepal.Width))" operator="lessOrEqual" value="3.350000023841858"/>
										</Node>
										<Node score="-0.7409307214202511">
											<SimplePredicate field="double(float(Sepal.Length))" operator="lessOrEqual" value="5.25"/>
										</Node>
									</Node>
									<Node score="-0.8290865382411563">
										<SimplePredicate field="double(float(Petal.Width))" operator="lessOrEqual" value="1.75"/>
										<Node score="0.749292944993573">
											<SimplePredicate field="double(float(Petal.Length))" operator="lessOrEqual" value="5.349999904632568"/>
										</Node>
									</Node>
									<Node score="0.23728094521021217">
										<SimplePredicate field="double(float(Petal.Length))" operator="lessOrEqual" value="4.8500001430511475"/>
									</Node>
								</Node>
							</TreeModel>
						</Segment>
					</Segmentation>
				</MiningModel>
			</Segment>
			<Segment id="3">
				<True/>
				<MiningModel functionName="regression">
					<MiningSchema>
						<MiningField name="double(float(Petal.Width))"/>
						<MiningField name="double(float(Petal.Length))"/>
						<MiningField name="double(float(Sepal.Length))"/>
						<MiningField name="double(float(Sepal.Width))"/>
					</MiningSchema>
					<Output>
						<OutputField name="decisionFunction(virginica)" optype="continuous" dataType="double" isFinalResult="false"/>
						<OutputField name="expDecisionFunction(virginica)" optype="continuous" dataType="double" feature="transformedValue" isFinalResult="false">
							<Apply function="exp">
								<FieldRef field="decisionFunction(virginica)"/>
							</Apply>
						</OutputField>
					</Output>
					<Targets>
						<Target rescaleConstant="-1.0986122886681098" rescaleFactor="0.1"/>
					</Targets>
					<Segmentation multipleModelMethod="sum">
						<Segment id="1">
							<True/>
							<TreeModel functionName="regression" missingValueStrategy="nullPrediction" noTrueChildStrategy="returnLastPrediction">
								<MiningSchema>
									<MiningField name="double(float(Petal.Width))"/>
									<MiningField name="double(float(Petal.Length))"/>
									<MiningField name="double(float(Sepal.Length))"/>
								</MiningSchema>
								<Node score="2.000000000000001">
									<True/>
									<Node score="1.1102230246251564E-16">
										<SimplePredicate field="double(float(Petal.Width))" operator="lessOrEqual" value="1.75"/>
										<Node score="2.0000000000000004">
											<SimplePredicate field="double(float(Petal.Length))" operator="lessOrEqual" value="4.950000047683716"/>
											<Node score="-0.9999999999999999">
												<SimplePredicate field="double(float(Petal.Width))" operator="lessOrEqual" value="1.6500000357627869"/>
											</Node>
										</Node>
										<Node score="2.0">
											<SimplePredicate field="double(float(Petal.Width))" operator="lessOrEqual" value="1.550000011920929"/>
										</Node>
									</Node>
									<Node score="2.0000000000000004">
										<SimplePredicate field="double(float(Petal.Length))" operator="lessOrEqual" value="4.8500001430511475"/>
										<Node score="-0.9999999999999999">
											<SimplePredicate field="double(float(Sepal.Length))" operator="lessOrEqual" value="5.950000047683716"/>
										</Node>
									</Node>
								</Node>
							</TreeModel>
						</Segment>
						<Segment id="2">
							<True/>
							<TreeModel functionName="regression" missingValueStrategy="nullPrediction" noTrueChildStrategy="returnLastPrediction">
								<MiningSchema>
									<MiningField name="double(float(Petal.Width))"/>
									<MiningField name="double(float(Petal.Length))"/>
									<MiningField name="double(float(Sepal.Length))"/>
								</MiningSchema>
								<Node score="1.6544242942422906">
									<True/>
									<Node score="-0.0322491015382044">
										<SimplePredicate field="double(float(Petal.Width))" operator="lessOrEqual" value="1.75"/>
										<Node score="1.8230584742034082">
											<SimplePredicate field="double(float(Petal.Length))" operator="lessOrEqual" value="4.950000047683716"/>
											<Node score="-0.950865787605581">
												<SimplePredicate field="double(float(Petal.Width))" operator="lessOrEqual" value="1.6500000357627869"/>
											</Node>
										</Node>
										<Node score="1.706365982506466">
											<SimplePredicate field="double(float(Petal.Width))" operator="lessOrEqual" value="1.550000011920929"/>
										</Node>
									</Node>
									<Node score="1.7063659825064665">
										<SimplePredicate field="double(float(Petal.Length))" operator="lessOrEqual" value="4.8500001430511475"/>
										<Node score="-0.9833472083473732">
											<SimplePredicate field="double(float(Sepal.Length))" operator="lessOrEqual" value="5.950000047683716"/>
										</Node>
									</Node>
								</Node>
							</TreeModel>
						</Segment>
						<Segment id="3">
							<True/>
							<TreeModel functionName="regression" missingValueStrategy="nullPrediction" noTrueChildStrategy="returnLastPrediction">
								<MiningSchema>
									<MiningField name="double(float(Petal.Width))"/>
									<MiningField name="double(float(Petal.Length))"/>
									<MiningField name="double(float(Sepal.Length))"/>
									<MiningField name="double(float(Sepal.Width))"/>
								</MiningSchema>
								<Node score="1.427856906240208">
									<True/>
									<Node score="-0.05877787854284587">
										<SimplePredicate field="double(float(Petal.Width))" operator="lessOrEqual" value="1.75"/>
										<Node score="1.6905793549713883">
											<SimplePredicate field="double(float(Petal.Length))" operator="lessOrEqual" value="4.950000047683716"/>
											<Node score="-0.9097780716913533">
												<SimplePredicate field="double(float(Petal.Width))" operator="lessOrEqual" value="1.6500000357627869"/>
											</Node>
										</Node>
										<Node score="1.505693914571601">
											<SimplePredicate field="double(float(Petal.Width))" operator="lessOrEqual" value="1.550000011920929"/>
										</Node>
									</Node>
									<Node score="1.5056887154959047">
										<SimplePredicate field="double(float(Petal.Length))" operator="lessOrEqual" value="4.8500001430511475"/>
										<Node score="-0.9665542340231645">
											<SimplePredicate field="double(float(Sepal.Length))" operator="lessOrEqual" value="5.950000047683716"/>
										</Node>
									</Node>
									<Node score="1.4279169418680298">
										<SimplePredicate field="double(float(Sepal.Width))" operator="lessOrEqual" value="2.850000023841858"/>
									</Node>
								</Node>
							</TreeModel>
						</Segment>
						<Segment id="4">
							<True/>
							<TreeModel functionName="regression" missingValueStrategy="nullPrediction" noTrueChildStrategy="returnLastPrediction">
								<MiningSchema>
									<MiningField name="double(float(Petal.Width))"/>
									<MiningField name="double(float(Petal.Length))"/>
									<MiningField name="double(float(Sepal.Length))"/>
									<MiningField name="double(float(Sepal.Width))"/>
								</MiningSchema>
								<Node score="1.2691433396145648">
									<True/>
									<Node score="-1.0436748857192535">
										<SimplePredicate field="double(float(Petal.Width))" operator="lessOrEqual" value="1.75"/>
										<Node score="1.586682597449597">
											<SimplePredicate field="double(float(Petal.Length))" operator="lessOrEqual" value="4.950000047683716"/>
											<Node score="-0.8752213383923924">
												<SimplePredicate field="double(float(Petal.Width))" operator="lessOrEqual" value="1.6500000357627869"/>
											</Node>
										</Node>
										<Node score="0.9948998024543872">
											<SimplePredicate field="double(float(Petal.Width))" operator="lessOrEqual" value="1.6500000357627869"/>
										</Node>
									</Node>
									<Node score="1.3604582010983688">
										<SimplePredicate field="double(float(Petal.Length))" operator="lessOrEqual" value="4.8500001430511475"/>
										<Node score="-0.9499095841601943">
											<SimplePredicate field="double(float(Sepal.Length))" operator="lessOrEqual" value="5.950000047683716"/>
										</Node>
									</Node>
									<Node score="1.2692631316075937">
										<SimplePredicate field="double(float(Sepal.Width))" operator="lessOrEqual" value="2.950000047683716"/>
									</Node>
								</Node>
							</TreeModel>
						</Segment>
						<Segment id="5">
							<True/>
							<TreeModel functionName="regression" missingValueStrategy="nullPrediction" noTrueChildStrategy="returnLastPrediction">
								<MiningSchema>
									<MiningField name="double(float(Petal.Width))"/>
									<MiningField name="double(float(Petal.Length))"/>
									<MiningField name="double(float(Sepal.Length))"/>
									<MiningField name="double(float(Sepal.Width))"/>
								</MiningSchema>
								<Node score="1.1528744930147963">
									<True/>
									<Node score="1.3951415496874529">
										<SimplePredicate field="double(float(Petal.Width))" operator="lessOrEqual" value="1.6500000357627869"/>
										<Node score="-0.8479597377391185">
											<SimplePredicate field="double(float(Petal.Length))" operator="lessOrEqual" value="4.950000047683716"/>
											<Node score="-0.8448062375836101">
												<SimplePredicate field="double(float(Petal.Length))" operator="lessOrEqual" value="2.449999988079071"/>
											</Node>
										</Node>
										<Node score="0.16196661171953008">
											<SimplePredicate field="double(float(Sepal.Length))" operator="lessOrEqual" value="6.049999952316284"/>
										</Node>
									</Node>
									<Node score="-0.9946087431711985">
										<SimplePredicate field="double(float(Petal.Width))" operator="lessOrEqual" value="1.75"/>
										<Node score="1.499577055365054">
											<SimplePredicate field="double(float(Sepal.Width))" operator="lessOrEqual" value="2.75"/>
										</Node>
									</Node>
									<Node score="0.6156207643379425">
										<SimplePredicate field="double(float(Petal.Length))" operator="lessOrEqual" value="4.8500001430511475"/>
									</Node>
								</Node>
							</TreeModel>
						</Segment>
						<Segment id="6">
							<True/>
							<TreeModel functionName="regression" missingValueStrategy="nullPrediction" noTrueChildStrategy="returnLastPrediction">
								<MiningSchema>
									<MiningField name="double(float(Petal.Width))"/>
									<MiningField name="double(float(Petal.Length))"/>
									<MiningField name="double(float(Sepal.Length))"/>
								</MiningSchema>
								<Node score="1.0647846686176332">
									<True/>
									<Node score="1.2725058617256486">
										<SimplePredicate field="double(float(Petal.Width))" operator="lessOrEqual" value="1.6500000357627869"/>
										<Node score="-0.8237947085998412">
											<SimplePredicate field="double(float(Petal.Length))" operator="lessOrEqual" value="4.950000047683716"/>
											<Node score="-0.8199674183912021">
												<SimplePredicate field="double(float(Petal.Width))" operator="lessOrEqual" value="0.800000011920929"/>
											</Node>
										</Node>
										<Node score="0.17727759675693544">
											<SimplePredicate field="double(float(Sepal.Length))" operator="lessOrEqual" value="6.049999952316284"/>
										</Node>
									</Node>
									<Node score="-0.9523411585446241">
										<SimplePredicate field="double(float(Petal.Width))" operator="lessOrEqual" value="1.75"/>
										<Node score="1.427310274471599">
											<SimplePredicate field="double(float(Sepal.Length))" operator="lessOrEqual" value="5.799999952316284"/>
										</Node>
									</Node>
									<Node score="0.5498980454463845">
										<SimplePredicate field="double(float(Petal.Length))" operator="lessOrEqual" value="4.8500001430511475"/>
									</Node>
								</Node>
							</TreeModel>
						</Segment>
						<Segment id="7">
							<True/>
							<TreeModel functionName="regression" missingValueStrategy="nullPrediction" noTrueChildStrategy="returnLastPrediction">
								<MiningSchema>
									<MiningField name="double(float(Petal.Width))"/>
									<MiningField name="double(float(Petal.Length))"/>
									<MiningField name="double(float(Sepal.Length))"/>
								</MiningSchema>
								<Node score="0.9976337424348312">
									<True/>
									<Node score="1.1736034732572331">
										<SimplePredicate field="double(float(Petal.Width))" operator="lessOrEqual" value="1.6500000357627869"/>
										<Node score="-0.8021163391356638">
											<SimplePredicate field="double(float(Petal.Length))" operator="lessOrEqual" value="4.950000047683716"/>
											<Node score="-0.7988552757902094">
												<SimplePredicate field="double(float(Petal.Length))" operator="lessOrEqual" value="2.449999988079071"/>
											</Node>
										</Node>
										<Node score="0.12955540219860082">
											<SimplePredicate field="double(float(Sepal.Length))" operator="lessOrEqual" value="6.049999952316284"/>
										</Node>
									</Node>
									<Node score="-0.9302787093127194">
										<SimplePredicate field="double(float(Petal.Width))" operator="lessOrEqual" value="1.75"/>
										<Node score="1.3234157295396036">
											<SimplePredicate field="double(float(Sepal.Length))" operator="lessOrEqual" value="5.799999952316284"/>
										</Node>
									</Node>
									<Node score="0.4607749593951336">
										<SimplePredicate field="double(float(Petal.Length))" operator="lessOrEqual" value="4.8500001430511475"/>
									</Node>
								</Node>
							</TreeModel>
						</Segment>
						<Segment id="8">
							<True/>
							<TreeModel functionName="regression" missingValueStrategy="nullPrediction" noTrueChildStrategy="returnLastPrediction">
								<MiningSchema>
									<MiningField name="double(float(Petal.Width))"/>
									<MiningField name="double(float(Petal.Length))"/>
								</MiningSchema>
								<Node score="0.9443487138522753">
									<True/>
									<Node score="0.06280363208318236">
										<SimplePredicate field="double(float(Petal.Width))" operator="lessOrEqual" value="1.6500000357627869"/>
										<Node score="-0.7836418239588167">
											<SimplePredicate field="double(float(Petal.Length))" operator="lessOrEqual" value="4.950000047683716"/>
											<Node score="-0.780853100332832">
												<SimplePredicate field="double(float(Petal.Length))" operator="lessOrEqual" value="2.449999988079071"/>
											</Node>
										</Node>
										<Node score="1.111691153994471">
											<SimplePredicate field="double(float(Petal.Width))" operator="lessOrEqual" value="1.550000011920929"/>
										</Node>
									</Node>
									<Node score="-0.9099360161895768">
										<SimplePredicate field="double(float(Petal.Width))" operator="lessOrEqual" value="1.75"/>
										<Node score="1.2402885922879405">
											<SimplePredicate field="double(float(Petal.Length))" operator="lessOrEqual" value="4.75"/>
										</Node>
									</Node>
									<Node score="0.38215619694238573">
										<SimplePredicate field="double(float(Petal.Length))" operator="lessOrEqual" value="4.8500001430511475"/>
									</Node>
								</Node>
							</TreeModel>
						</Segment>
						<Segment id="9">
							<True/>
							<TreeModel functionName="regression" missingValueStrategy="nullPrediction" noTrueChildStrategy="returnLastPrediction">
								<MiningSchema>
									<MiningField name="double(float(Petal.Width))"/>
									<MiningField name="double(float(Petal.Length))"/>
									<MiningField name="double(float(Sepal.Length))"/>
								</MiningSchema>
								<Node score="0.9011576231084493">
									<True/>
									<Node score="1.0534077641602837">
										<SimplePredicate field="double(float(Petal.Width))" operator="lessOrEqual" value="1.6500000357627869"/>
										<Node score="-0.7678502093605845">
											<SimplePredicate field="double(float(Petal.Length))" operator="lessOrEqual" value="4.950000047683716"/>
											<Node score="-0.7654580876176449">
												<SimplePredicate field="double(float(Petal.Width))" operator="lessOrEqual" value="0.800000011920929"/>
											</Node>
										</Node>
										<Node score="0.018813909068202194">
											<SimplePredicate field="double(float(Sepal.Length))" operator="lessOrEqual" value="6.049999952316284"/>
										</Node>
									</Node>
									<Node score="-0.896978254073365">
										<SimplePredicate field="double(float(Petal.Width))" operator="lessOrEqual" value="1.75"/>
										<Node score="1.1582728493492949">
											<SimplePredicate field="double(float(Sepal.Length))" operator="lessOrEqual" value="5.799999952316284"/>
										</Node>
									</Node>
									<Node score="0.3313606810188554">
										<SimplePredicate field="double(float(Petal.Length))" operator="lessOrEqual" value="4.8500001430511475"/>
									</Node>
								</Node>
							</TreeModel>
						</Segment>
						<Segment id="10">
							<True/>
							<TreeModel functionName="regression" missingValueStrategy="nullPrediction" noTrueChildStrategy="returnLastPrediction">
								<MiningSchema>
									<MiningField name="double(float(Petal.Width))"/>
									<MiningField name="double(float(Petal.Length))"/>
								</MiningSchema>
								<Node score="0.8177788000789895">
									<True/>
									<Node score="-0.02421940998565274">
										<SimplePredicate field="double(float(Petal.Width))" operator="lessOrEqual" value="1.6500000357627869"/>
										<Node score="-0.7549754334947824">
											<SimplePredicate field="double(float(Petal.Length))" operator="lessOrEqual" value="4.950000047683716"/>
											<Node score="-0.7522580085126318">
												<SimplePredicate field="double(float(Petal.Width))" operator="lessOrEqual" value="0.800000011920929"/>
											</Node>
										</Node>
										<Node score="1.0371165686580004">
											<SimplePredicate field="double(float(Petal.Width))" operator="lessOrEqual" value="1.550000011920929"/>
										</Node>
									</Node>
									<Node score="1.1283423038251252">
										<SimplePredicate field="double(float(Petal.Length))" operator="lessOrEqual" value="4.650000095367432"/>
									</Node>
									<Node score="-0.8690167663829272">
										<SimplePredicate field="double(float(Petal.Width))" operator="lessOrEqual" value="1.75"/>
									</Node>
								</Node>
							</TreeModel>
						</Segment>
						<Segment id="11">
							<True/>
							<TreeModel functionName="regression" missingValueStrategy="nullPrediction" noTrueChildStrategy="returnLastPrediction">
								<MiningSchema>
									<MiningField name="double(float(Petal.Width))"/>
									<MiningField name="double(float(Petal.Length))"/>
									<MiningField name="double(float(Sepal.Width))"/>
								</MiningSchema>
								<Node score="0.8373624268996007">
									<True/>
									<Node score="-0.05115095894286619">
										<SimplePredicate field="double(float(Petal.Width))" operator="lessOrEqual" value="1.6500000357627869"/>
										<Node score="-0.7432534426239331">
											<SimplePredicate field="double(float(Petal.Length))" operator="lessOrEqual" value="4.950000047683716"/>
											<Node score="-0.7409131172585712">
												<SimplePredicate field="double(float(Petal.Length))" operator="lessOrEqual" value="2.449999988079071"/>
											</Node>
										</Node>
										<Node score="0.9896470132698986">
											<SimplePredicate field="double(float(Petal.Width))" operator="lessOrEqual" value="1.550000011920929"/>
										</Node>
									</Node>
									<Node score="-1.163881866997431">
										<SimplePredicate field="double(float(Petal.Length))" operator="lessOrEqual" value="5.049999952316284"/>
										<Node score="0.7257606563741403">
											<SimplePredicate field="double(float(Sepal.Width))" operator="lessOrEqual" value="3.100000023841858"/>
										</Node>
									</Node>
									<Node score="0.8370851303277381">
										<SimplePredicate field="double(float(Petal.Width))" operator="lessOrEqual" value="1.8499999642372131"/>
									</Node>
								</Node>
							</TreeModel>
						</Segment>
					</Segmentation>
				</MiningModel>
			</Segment>
			<Segment id="4">
				<True/>
				<RegressionModel functionName="classification" normalizationMethod="simplemax">
					<MiningSchema>
						<MiningField name="Species" usageType="target"/>
						<MiningField name="expDecisionFunction(setosa)"/>
						<MiningField name="expDecisionFunction(versicolor)"/>
						<MiningField name="expDecisionFunction(virginica)"/>
					</MiningSchema>
					<Output>
						<OutputField name="probability(setosa)" optype="continuous" dataType="double" feature="probability" value="setosa"/>
						<OutputField name="probability(versicolor)" optype="continuous" dataType="double" feature="probability" value="versicolor"/>
						<OutputField name="probability(virginica)" optype="continuous" dataType="double" feature="probability" value="virginica"/>
					</Output>
					<RegressionTable intercept="0.0" targetCategory="setosa">
						<NumericPredictor name="expDecisionFunction(setosa)" coefficient="1.0"/>
					</RegressionTable>
					<RegressionTable intercept="0.0" targetCategory="versicolor">
						<NumericPredictor name="expDecisionFunction(versicolor)" coefficient="1.0"/>
					</RegressionTable>
					<RegressionTable intercept="0.0" targetCategory="virginica">
						<NumericPredictor name="expDecisionFunction(virginica)" coefficient="1.0"/>
					</RegressionTable>
				</RegressionModel>
			</Segment>
		</Segmentation>
		<ModelVerification recordCount="3">
			<VerificationFields>
				<VerificationField field="Sepal.Length" column="data:Sepal.Length"/>
				<VerificationField field="Sepal.Width" column="data:Sepal.Width"/>
				<VerificationField field="Petal.Length" column="data:Petal.Length"/>
				<VerificationField field="Petal.Width" column="data:Petal.Width"/>
				<VerificationField field="probability(setosa)" column="data:probability_setosa" precision="1.0E-13" zeroThreshold="1.0E-13"/>
				<VerificationField field="probability(versicolor)" column="data:probability_versicolor" precision="1.0E-13" zeroThreshold="1.0E-13"/>
				<VerificationField field="probability(virginica)" column="data:probability_virginica" precision="1.0E-13" zeroThreshold="1.0E-13"/>
			</VerificationFields>
			<InlineTable>
				<row>
					<data:Sepal.Length>5.7</data:Sepal.Length>
					<data:Sepal.Width>2.8</data:Sepal.Width>
					<data:Petal.Length>4.5</data:Petal.Length>
					<data:Petal.Width>1.3</data:Petal.Width>
					<data:probability_setosa>0.0911486560516097</data:probability_setosa>
					<data:probability_versicolor>0.8174831551126884</data:probability_versicolor>
					<data:probability_virginica>0.09136818883570193</data:probability_virginica>
				</row>
				<row>
					<data:Sepal.Length>5.6</data:Sepal.Length>
					<data:Sepal.Width>2.9</data:Sepal.Width>
					<data:Petal.Length>3.6</data:Petal.Length>
					<data:Petal.Width>1.3</data:Petal.Width>
					<data:probability_setosa>0.09113558955875242</data:probability_setosa>
					<data:probability_versicolor>0.8174949080114198</data:probability_versicolor>
					<data:probability_virginica>0.0913695024298279</data:probability_virginica>
				</row>
				<row>
					<data:Sepal.Length>5.1</data:Sepal.Length>
					<data:Sepal.Width>3.7</data:Sepal.Width>
					<data:Petal.Length>1.5</data:Petal.Length>
					<data:Petal.Width>0.4</data:Petal.Width>
					<data:probability_setosa>0.8236125260956297</data:probability_setosa>
					<data:probability_versicolor>0.0882030659133676</data:probability_versicolor>
					<data:probability_virginica>0.08818440799100255</data:probability_virginica>
				</row>
			</InlineTable>
		</ModelVerification>
	</MiningModel>
</PMML>
