<?xml version="1.0" encoding="UTF-8" standalone="yes"?>
<PMML xmlns="http://www.dmg.org/PMML-4_4" xmlns:data="http://jpmml.org/jpmml-model/InlineTable" version="4.4">
	<Header>
		<Application name="JPMML-SkLearn" version="1.6.20"/>
		<Timestamp>2021-06-23T20:09:26Z</Timestamp>
	</Header>
	<DataDictionary>
		<DataField name="Species" optype="categorical" dataType="string">
			<Value value="setosa"/>
			<Value value="versicolor"/>
			<Value value="virginica"/>
		</DataField>
		<DataField name="Sepal.Length" optype="continuous" dataType="double">
			<Interval closure="closedClosed" leftMargin="4.3" rightMargin="7.9"/>
		</DataField>
		<DataField name="Sepal.Width" optype="continuous" dataType="double">
			<Interval closure="closedClosed" leftMargin="2.0" rightMargin="4.4"/>
		</DataField>
		<DataField name="Petal.Length" optype="continuous" dataType="double">
			<Interval closure="closedClosed" leftMargin="1.0" rightMargin="6.9"/>
		</DataField>
		<DataField name="Petal.Width" optype="continuous" dataType="double">
			<Interval closure="closedClosed" leftMargin="0.1" rightMargin="2.5"/>
		</DataField>
	</DataDictionary>
	<MiningModel functionName="classification" algorithmName="LightGBM">
		<MiningSchema>
			<Extension name="X-FeatureImportances">
				<InlineTable>
					<row>
						<data:name>Sepal.Length</data:name>
						<data:importance>10.0</data:importance>
					</row>
					<row>
						<data:name>Sepal.Width</data:name>
						<data:importance>16.0</data:importance>
					</row>
					<row>
						<data:name>Petal.Length</data:name>
						<data:importance>88.0</data:importance>
					</row>
					<row>
						<data:name>Petal.Width</data:name>
						<data:importance>38.0</data:importance>
					</row>
				</InlineTable>
			</Extension>
			<MiningField name="Species" usageType="target"/>
			<MiningField name="Sepal.Length" importance="10.0" missingValueTreatment="asIs"/>
			<MiningField name="Sepal.Width" importance="16.0" missingValueTreatment="asIs"/>
			<MiningField name="Petal.Length" importance="88.0" missingValueTreatment="asIs"/>
			<MiningField name="Petal.Width" importance="38.0" missingValueTreatment="asIs"/>
		</MiningSchema>
		<ModelStats>
			<UnivariateStats field="Sepal.Length">
				<Counts totalFreq="150" missingFreq="0" invalidFreq="0"/>
				<NumericInfo minimum="4.3" maximum="7.9" mean="5.843333333333334" standardDeviation="0.8253012917851409" median="5.8" interQuartileRange="1.3000000000000007"/>
			</UnivariateStats>
			<UnivariateStats field="Sepal.Width">
				<Counts totalFreq="150" missingFreq="0" invalidFreq="0"/>
				<NumericInfo minimum="2.0" maximum="4.4" mean="3.0573333333333337" standardDeviation="0.4344109677354946" median="3.0" interQuartileRange="0.5"/>
			</UnivariateStats>
			<UnivariateStats field="Petal.Length">
				<Counts totalFreq="150" missingFreq="0" invalidFreq="0"/>
				<NumericInfo minimum="1.0" maximum="6.9" mean="3.7580000000000005" standardDeviation="1.759404065775303" median="4.35" interQuartileRange="3.4999999999999996"/>
			</UnivariateStats>
			<UnivariateStats field="Petal.Width">
				<Counts totalFreq="150" missingFreq="0" invalidFreq="0"/>
				<NumericInfo minimum="0.1" maximum="2.5" mean="1.1993333333333336" standardDeviation="0.7596926279021594" median="1.3" interQuartileRange="1.5"/>
			</UnivariateStats>
		</ModelStats>
		<Segmentation multipleModelMethod="modelChain" missingPredictionTreatment="returnMissing">
			<Segment id="1">
				<True/>
				<MiningModel functionName="regression">
					<MiningSchema>
						<MiningField name="Sepal.Length"/>
						<MiningField name="Sepal.Width"/>
						<MiningField name="Petal.Length"/>
						<MiningField name="Petal.Width"/>
					</MiningSchema>
					<Output>
						<OutputField name="lgbmValue(setosa)" optype="continuous" dataType="double" isFinalResult="false"/>
					</Output>
					<Segmentation multipleModelMethod="sum">
						<Segment id="1">
							<True/>
							<TreeModel functionName="regression" noTrueChildStrategy="returnLastPrediction">
								<MiningSchema>
									<MiningField name="Sepal.Width"/>
									<MiningField name="Petal.Length"/>
								</MiningSchema>
								<Node score="-0.9136122886681098">
									<True/>
									<Node score="-1.1986122886681099">
										<SimplePredicate field="Petal.Length" operator="greaterThan" value="3.1500000000000004"/>
									</Node>
									<Node score="-0.8986122886681098">
										<SimplePredicate field="Sepal.Width" operator="greaterThan" value="3.35"/>
									</Node>
								</Node>
							</TreeModel>
						</Segment>
						<Segment id="2">
							<True/>
							<TreeModel functionName="regression" noTrueChildStrategy="returnLastPrediction">
								<MiningSchema>
									<MiningField name="Sepal.Width"/>
									<MiningField name="Petal.Length"/>
									<MiningField name="Petal.Width"/>
								</MiningSchema>
								<Node score="0.15379966955369148">
									<True/>
									<Node score="-0.09535304019732865">
										<SimplePredicate field="Petal.Length" operator="greaterThan" value="3.1500000000000004"/>
										<Node score="-0.09515159592657407">
											<SimplePredicate field="Petal.Width" operator="greaterThan" value="1.6500000000000001"/>
											<Node score="-0.09503717359251747">
												<SimplePredicate field="Petal.Length" operator="greaterThan" value="5.3500000000000005"/>
											</Node>
										</Node>
										<Node score="-0.09522019313719812">
											<SimplePredicate field="Petal.Length" operator="greaterThan" value="4.450000000000001"/>
										</Node>
									</Node>
									<Node score="0.16644192631211902">
										<SimplePredicate field="Sepal.Width" operator="greaterThan" value="3.35"/>
									</Node>
								</Node>
							</TreeModel>
						</Segment>
						<Segment id="3">
							<True/>
							<TreeModel functionName="regression" noTrueChildStrategy="returnLastPrediction">
								<MiningSchema>
									<MiningField name="Sepal.Length"/>
									<MiningField name="Petal.Length"/>
								</MiningSchema>
								<Node score="0.14489907195229085">
									<True/>
									<Node score="-0.09129661206592343">
										<SimplePredicate field="Petal.Length" operator="greaterThan" value="3.1500000000000004"/>
										<Node score="-0.09074199578644458">
											<SimplePredicate field="Petal.Length" operator="greaterThan" value="5.150000000000001"/>
										</Node>
										<Node score="-0.09126070805480603">
											<SimplePredicate field="Petal.Length" operator="greaterThan" value="4.750000000000001"/>
										</Node>
										<Node score="-0.09183108193053906">
											<SimplePredicate field="Petal.Length" operator="greaterThan" value="4.250000000000001"/>
										</Node>
									</Node>
									<Node score="0.13335015608732378">
										<SimplePredicate field="Sepal.Length" operator="greaterThan" value="5.050000000000001"/>
									</Node>
								</Node>
							</TreeModel>
						</Segment>
						<Segment id="4">
							<True/>
							<TreeModel functionName="regression" noTrueChildStrategy="returnLastPrediction">
								<MiningSchema>
									<MiningField name="Sepal.Length"/>
									<MiningField name="Petal.Length"/>
									<MiningField name="Petal.Width"/>
								</MiningSchema>
								<Node score="0.12909551738556">
									<True/>
									<Node score="-0.08805600183296688">
										<SimplePredicate field="Petal.Length" operator="greaterThan" value="3.1500000000000004"/>
										<Node score="-0.08726828082990445">
											<SimplePredicate field="Petal.Length" operator="greaterThan" value="5.150000000000001"/>
										</Node>
										<Node score="-0.08842019445925664">
											<SimplePredicate field="Petal.Width" operator="greaterThan" value="1.4500000000000002"/>
										</Node>
									</Node>
									<Node score="0.11860341918776458">
										<SimplePredicate field="Sepal.Length" operator="greaterThan" value="5.050000000000001"/>
									</Node>
								</Node>
							</TreeModel>
						</Segment>
						<Segment id="5">
							<True/>
							<TreeModel functionName="regression" noTrueChildStrategy="returnLastPrediction">
								<MiningSchema>
									<MiningField name="Sepal.Width"/>
									<MiningField name="Petal.Length"/>
									<MiningField name="Petal.Width"/>
								</MiningSchema>
								<Node score="0.10591662155927967">
									<True/>
									<Node score="-0.08519215640517763">
										<SimplePredicate field="Petal.Length" operator="greaterThan" value="3.1500000000000004"/>
										<Node score="-0.08442119404323269">
											<SimplePredicate field="Petal.Length" operator="greaterThan" value="5.150000000000001"/>
										</Node>
										<Node score="-0.08560593209342053">
											<SimplePredicate field="Petal.Width" operator="greaterThan" value="1.4500000000000002"/>
										</Node>
									</Node>
									<Node score="0.117272494280323">
										<SimplePredicate field="Sepal.Width" operator="greaterThan" value="3.35"/>
									</Node>
								</Node>
							</TreeModel>
						</Segment>
						<Segment id="6">
							<True/>
							<TreeModel functionName="regression" noTrueChildStrategy="returnLastPrediction">
								<MiningSchema>
									<MiningField name="Sepal.Width"/>
									<MiningField name="Petal.Length"/>
									<MiningField name="Petal.Width"/>
								</MiningSchema>
								<Node score="0.09748675403747141">
									<True/>
									<Node score="-0.08286077151075708">
										<SimplePredicate field="Petal.Length" operator="greaterThan" value="3.1500000000000004"/>
										<Node score="-0.0819426963324825">
											<SimplePredicate field="Petal.Length" operator="greaterThan" value="5.150000000000001"/>
										</Node>
										<Node score="-0.08332460990221341">
											<SimplePredicate field="Petal.Width" operator="greaterThan" value="1.4500000000000002"/>
										</Node>
									</Node>
									<Node score="0.10828885323872484">
										<SimplePredicate field="Sepal.Width" operator="greaterThan" value="3.35"/>
									</Node>
								</Node>
							</TreeModel>
						</Segment>
						<Segment id="7">
							<True/>
							<TreeModel functionName="regression" noTrueChildStrategy="returnLastPrediction">
								<MiningSchema>
									<MiningField name="Sepal.Length"/>
									<MiningField name="Petal.Length"/>
									<MiningField name="Petal.Width"/>
								</MiningSchema>
								<Node score="0.10210625043430971">
									<True/>
									<Node score="-0.08076999611997501">
										<SimplePredicate field="Petal.Length" operator="greaterThan" value="3.1500000000000004"/>
										<Node score="-0.07988445411489131">
											<SimplePredicate field="Petal.Length" operator="greaterThan" value="5.150000000000001"/>
										</Node>
										<Node score="-0.08138405179310555">
											<SimplePredicate field="Petal.Width" operator="greaterThan" value="1.4500000000000002"/>
										</Node>
									</Node>
									<Node score="0.09104896991833465">
										<SimplePredicate field="Sepal.Length" operator="greaterThan" value="5.050000000000001"/>
									</Node>
								</Node>
							</TreeModel>
						</Segment>
						<Segment id="8">
							<True/>
							<TreeModel functionName="regression" noTrueChildStrategy="returnLastPrediction">
								<MiningSchema>
									<MiningField name="Sepal.Width"/>
									<MiningField name="Petal.Length"/>
									<MiningField name="Petal.Width"/>
								</MiningSchema>
								<Node score="0.08426128682765115">
									<True/>
									<Node score="-0.0789717643791132">
										<SimplePredicate field="Petal.Length" operator="greaterThan" value="3.1500000000000004"/>
										<Node score="-0.07811768951047368">
											<SimplePredicate field="Petal.Length" operator="greaterThan" value="5.150000000000001"/>
										</Node>
										<Node score="-0.0797217429425179">
											<SimplePredicate field="Petal.Width" operator="greaterThan" value="1.4500000000000002"/>
										</Node>
									</Node>
									<Node score="0.09614777755065977">
										<SimplePredicate field="Sepal.Width" operator="greaterThan" value="3.35"/>
									</Node>
								</Node>
							</TreeModel>
						</Segment>
						<Segment id="9">
							<True/>
							<TreeModel functionName="regression" noTrueChildStrategy="returnLastPrediction">
								<MiningSchema>
									<MiningField name="Sepal.Width"/>
									<MiningField name="Petal.Length"/>
									<MiningField name="Petal.Width"/>
								</MiningSchema>
								<Node score="0.07907664548049143">
									<True/>
									<Node score="-0.07740248503999496">
										<SimplePredicate field="Petal.Length" operator="greaterThan" value="3.1500000000000004"/>
										<Node score="-0.07666185425662238">
											<SimplePredicate field="Petal.Length" operator="greaterThan" value="5.150000000000001"/>
										</Node>
										<Node score="-0.07818602096467012">
											<SimplePredicate field="Petal.Width" operator="greaterThan" value="1.4500000000000002"/>
										</Node>
									</Node>
									<Node score="0.09179364447849601">
										<SimplePredicate field="Sepal.Width" operator="greaterThan" value="3.35"/>
									</Node>
								</Node>
							</TreeModel>
						</Segment>
						<Segment id="10">
							<True/>
							<TreeModel functionName="regression" noTrueChildStrategy="returnLastPrediction">
								<MiningSchema>
									<MiningField name="Sepal.Width"/>
									<MiningField name="Petal.Length"/>
									<MiningField name="Petal.Width"/>
								</MiningSchema>
								<Node score="0.07489483588991862">
									<True/>
									<Node score="-0.07601056742708706">
										<SimplePredicate field="Petal.Length" operator="greaterThan" value="3.1500000000000004"/>
										<Node score="-0.07536285401935688">
											<SimplePredicate field="Petal.Length" operator="greaterThan" value="5.150000000000001"/>
										</Node>
										<Node score="-0.07700553829697664">
											<SimplePredicate field="Petal.Width" operator="greaterThan" value="1.4500000000000002"/>
										</Node>
									</Node>
									<Node score="0.08809854048874932">
										<SimplePredicate field="Sepal.Width" operator="greaterThan" value="3.35"/>
									</Node>
								</Node>
							</TreeModel>
						</Segment>
						<Segment id="11">
							<True/>
							<TreeModel functionName="regression" noTrueChildStrategy="returnLastPrediction">
								<MiningSchema>
									<MiningField name="Sepal.Width"/>
									<MiningField name="Petal.Length"/>
									<MiningField name="Petal.Width"/>
								</MiningSchema>
								<Node score="0.07085157443863534">
									<True/>
									<Node score="-0.07485228365404574">
										<SimplePredicate field="Petal.Length" operator="greaterThan" value="3.1500000000000004"/>
										<Node score="-0.07425548187014214">
											<SimplePredicate field="Petal.Length" operator="greaterThan" value="5.150000000000001"/>
										</Node>
										<Node score="-0.07586215692837633">
											<SimplePredicate field="Petal.Width" operator="greaterThan" value="1.4500000000000002"/>
										</Node>
									</Node>
									<Node score="0.08520279540980792">
										<SimplePredicate field="Sepal.Width" operator="greaterThan" value="3.35"/>
									</Node>
								</Node>
							</TreeModel>
						</Segment>
					</Segmentation>
				</MiningModel>
			</Segment>
			<Segment id="2">
				<True/>
				<MiningModel functionName="regression">
					<MiningSchema>
						<MiningField name="Sepal.Length"/>
						<MiningField name="Petal.Length"/>
						<MiningField name="Petal.Width"/>
					</MiningSchema>
					<Output>
						<OutputField name="lgbmValue(versicolor)" optype="continuous" dataType="double" isFinalResult="false"/>
					</Output>
					<Segmentation multipleModelMethod="sum">
						<Segment id="1">
							<True/>
							<TreeModel functionName="regression" noTrueChildStrategy="returnLastPrediction">
								<MiningSchema>
									<MiningField name="Petal.Length"/>
									<MiningField name="Petal.Width"/>
								</MiningSchema>
								<Node score="-1.1986122886681099">
									<True/>
									<Node score="-0.9179671273777873">
										<SimplePredicate field="Petal.Length" operator="greaterThan" value="1.8"/>
										<Node score="-1.1686122886681098">
											<SimplePredicate field="Petal.Width" operator="greaterThan" value="1.6500000000000001"/>
											<Node score="-1.1986122886681099">
												<SimplePredicate field="Petal.Length" operator="greaterThan" value="5.3500000000000005"/>
											</Node>
										</Node>
										<Node score="-0.950786201711588">
											<SimplePredicate field="Petal.Length" operator="greaterThan" value="4.450000000000001"/>
										</Node>
									</Node>
								</Node>
							</TreeModel>
						</Segment>
						<Segment id="2">
							<True/>
							<TreeModel functionName="regression" noTrueChildStrategy="returnLastPrediction">
								<MiningSchema>
									<MiningField name="Petal.Length"/>
									<MiningField name="Petal.Width"/>
								</MiningSchema>
								<Node score="-0.09515974225817668">
									<True/>
									<Node score="0.152931318463589">
										<SimplePredicate field="Petal.Width" operator="greaterThan" value="0.45000000000000007"/>
										<Node score="-0.06515416376852466">
											<SimplePredicate field="Petal.Width" operator="greaterThan" value="1.6500000000000001"/>
											<Node score="-0.09503717359251747">
												<SimplePredicate field="Petal.Length" operator="greaterThan" value="5.3500000000000005"/>
											</Node>
										</Node>
										<Node score="0.124514323706557">
											<SimplePredicate field="Petal.Length" operator="greaterThan" value="4.450000000000001"/>
										</Node>
									</Node>
									<Node score="-0.09593341153429108">
										<SimplePredicate field="Petal.Length" operator="greaterThan" value="1.4500000000000002"/>
									</Node>
								</Node>
							</TreeModel>
						</Segment>
						<Segment id="3">
							<True/>
							<TreeModel functionName="regression" noTrueChildStrategy="returnLastPrediction">
								<MiningSchema>
									<MiningField name="Sepal.Length"/>
									<MiningField name="Petal.Length"/>
									<MiningField name="Petal.Width"/>
								</MiningSchema>
								<Node score="-0.09108694929610134">
									<True/>
									<Node score="0.12055125350625562">
										<SimplePredicate field="Petal.Width" operator="greaterThan" value="0.45000000000000007"/>
										<Node score="-0.03968141457701335">
											<SimplePredicate field="Petal.Length" operator="greaterThan" value="4.8500000000000005"/>
											<Node score="-0.09252217516200079">
												<SimplePredicate field="Petal.Length" operator="greaterThan" value="5.3500000000000005"/>
											</Node>
										</Node>
										<Node score="0.13676607891298284">
											<SimplePredicate field="Sepal.Length" operator="greaterThan" value="5.750000000000001"/>
										</Node>
									</Node>
									<Node score="-0.09168825566735339">
										<SimplePredicate field="Petal.Length" operator="greaterThan" value="1.4500000000000002"/>
									</Node>
								</Node>
							</TreeModel>
						</Segment>
						<Segment id="4">
							<True/>
							<TreeModel functionName="regression" noTrueChildStrategy="returnLastPrediction">
								<MiningSchema>
									<MiningField name="Petal.Length"/>
									<MiningField name="Petal.Width"/>
								</MiningSchema>
								<Node score="-0.08755921704199686">
									<True/>
									<Node score="0.1191380120915086">
										<SimplePredicate field="Petal.Length" operator="greaterThan" value="1.8"/>
										<Node score="-0.0605717100838779">
											<SimplePredicate field="Petal.Width" operator="greaterThan" value="1.6500000000000001"/>
											<Node score="-0.08729814189040425">
												<SimplePredicate field="Petal.Length" operator="greaterThan" value="5.3500000000000005"/>
											</Node>
										</Node>
										<Node score="0.09918698972397064">
											<SimplePredicate field="Petal.Length" operator="greaterThan" value="4.450000000000001"/>
										</Node>
									</Node>
									<Node score="-0.08875588563291971">
										<SimplePredicate field="Petal.Length" operator="greaterThan" value="1.4500000000000002"/>
									</Node>
								</Node>
							</TreeModel>
						</Segment>
						<Segment id="5">
							<True/>
							<TreeModel functionName="regression" noTrueChildStrategy="returnLastPrediction">
								<MiningSchema>
									<MiningField name="Sepal.Length"/>
									<MiningField name="Petal.Length"/>
									<MiningField name="Petal.Width"/>
								</MiningSchema>
								<Node score="-0.08463378161012629">
									<True/>
									<Node score="0.08412562885769788">
										<SimplePredicate field="Petal.Width" operator="greaterThan" value="0.45000000000000007"/>
										<Node score="-0.06026653961945663">
											<SimplePredicate field="Petal.Length" operator="greaterThan" value="4.950000000000001"/>
											<Node score="-0.08750526362054696">
												<SimplePredicate field="Petal.Length" operator="greaterThan" value="5.550000000000001"/>
											</Node>
										</Node>
										<Node score="0.1063381707297349">
											<SimplePredicate field="Sepal.Length" operator="greaterThan" value="5.650000000000001"/>
										</Node>
									</Node>
									<Node score="-0.08575310017996911">
										<SimplePredicate field="Petal.Length" operator="greaterThan" value="1.4500000000000002"/>
									</Node>
								</Node>
							</TreeModel>
						</Segment>
						<Segment id="6">
							<True/>
							<TreeModel functionName="regression" noTrueChildStrategy="returnLastPrediction">
								<MiningSchema>
									<MiningField name="Petal.Length"/>
									<MiningField name="Petal.Width"/>
								</MiningSchema>
								<Node score="-0.08215337611165735">
									<True/>
									<Node score="0.10072422009835653">
										<SimplePredicate field="Petal.Length" operator="greaterThan" value="1.8"/>
										<Node score="-0.05025926702245547">
											<SimplePredicate field="Petal.Width" operator="greaterThan" value="1.6500000000000001"/>
											<Node score="-0.08353781289011183">
												<SimplePredicate field="Petal.Width" operator="greaterThan" value="1.9500000000000002"/>
											</Node>
										</Node>
										<Node score="0.08197915974914007">
											<SimplePredicate field="Petal.Width" operator="greaterThan" value="1.3500000000000003"/>
										</Node>
									</Node>
									<Node score="-0.08364322671567449">
										<SimplePredicate field="Petal.Length" operator="greaterThan" value="1.4500000000000002"/>
									</Node>
								</Node>
							</TreeModel>
						</Segment>
						<Segment id="7">
							<True/>
							<TreeModel functionName="regression" noTrueChildStrategy="returnLastPrediction">
								<MiningSchema>
									<MiningField name="Petal.Length"/>
									<MiningField name="Petal.Width"/>
								</MiningSchema>
								<Node score="-0.08004817939179253">
									<True/>
									<Node score="0.09332800806778235">
										<SimplePredicate field="Petal.Width" operator="greaterThan" value="0.45000000000000007"/>
										<Node score="-0.05380833644902381">
											<SimplePredicate field="Petal.Length" operator="greaterThan" value="4.950000000000001"/>
											<Node score="-0.08364134391654593">
												<SimplePredicate field="Petal.Length" operator="greaterThan" value="5.550000000000001"/>
											</Node>
										</Node>
										<Node score="0.07230069525488886">
											<SimplePredicate field="Petal.Length" operator="greaterThan" value="4.450000000000001"/>
										</Node>
									</Node>
									<Node score="-0.0814032344824713">
										<SimplePredicate field="Petal.Length" operator="greaterThan" value="1.4500000000000002"/>
									</Node>
								</Node>
							</TreeModel>
						</Segment>
						<Segment id="8">
							<True/>
							<TreeModel functionName="regression" noTrueChildStrategy="returnLastPrediction">
								<MiningSchema>
									<MiningField name="Petal.Length"/>
									<MiningField name="Petal.Width"/>
								</MiningSchema>
								<Node score="-0.07824804340369203">
									<True/>
									<Node score="0.08860505176332747">
										<SimplePredicate field="Petal.Length" operator="greaterThan" value="1.8"/>
										<Node score="-0.04635715139913628">
											<SimplePredicate field="Petal.Width" operator="greaterThan" value="1.6500000000000001"/>
											<Node score="-0.07964902308949046">
												<SimplePredicate field="Petal.Width" operator="greaterThan" value="1.9500000000000002"/>
											</Node>
										</Node>
										<Node score="0.07171490593778182">
											<SimplePredicate field="Petal.Width" operator="greaterThan" value="1.3500000000000003"/>
										</Node>
									</Node>
									<Node score="-0.08003356839617971">
										<SimplePredicate field="Petal.Length" operator="greaterThan" value="1.4500000000000002"/>
									</Node>
								</Node>
							</TreeModel>
						</Segment>
						<Segment id="9">
							<True/>
							<TreeModel functionName="regression" noTrueChildStrategy="returnLastPrediction">
								<MiningSchema>
									<MiningField name="Petal.Length"/>
									<MiningField name="Petal.Width"/>
								</MiningSchema>
								<Node score="-0.0767328575433594">
									<True/>
									<Node score="0.08666258602946209">
										<SimplePredicate field="Petal.Width" operator="greaterThan" value="0.45000000000000007"/>
										<Node score="-0.0413357786743849">
											<SimplePredicate field="Petal.Length" operator="greaterThan" value="4.950000000000001"/>
											<Node score="-0.0806835395782853">
												<SimplePredicate field="Petal.Length" operator="greaterThan" value="5.3500000000000005"/>
											</Node>
										</Node>
										<Node score="0.051174499042166345">
											<SimplePredicate field="Petal.Width" operator="greaterThan" value="1.4500000000000002"/>
										</Node>
									</Node>
									<Node score="-0.07831399101280248">
										<SimplePredicate field="Petal.Length" operator="greaterThan" value="1.4500000000000002"/>
									</Node>
								</Node>
							</TreeModel>
						</Segment>
						<Segment id="10">
							<True/>
							<TreeModel functionName="regression" noTrueChildStrategy="returnLastPrediction">
								<MiningSchema>
									<MiningField name="Petal.Length"/>
									<MiningField name="Petal.Width"/>
								</MiningSchema>
								<Node score="-0.07543188048454531">
									<True/>
									<Node score="0.08032793845914256">
										<SimplePredicate field="Petal.Length" operator="greaterThan" value="1.8"/>
										<Node score="-0.04111677108145728">
											<SimplePredicate field="Petal.Width" operator="greaterThan" value="1.6500000000000001"/>
											<Node score="-0.07686436863345292">
												<SimplePredicate field="Petal.Width" operator="greaterThan" value="1.9500000000000002"/>
											</Node>
										</Node>
										<Node score="0.06286580785866623">
											<SimplePredicate field="Petal.Length" operator="greaterThan" value="4.450000000000001"/>
										</Node>
									</Node>
									<Node score="-0.07742494302969287">
										<SimplePredicate field="Petal.Length" operator="greaterThan" value="1.4500000000000002"/>
									</Node>
								</Node>
							</TreeModel>
						</Segment>
						<Segment id="11">
							<True/>
							<TreeModel functionName="regression" noTrueChildStrategy="returnLastPrediction">
								<MiningSchema>
									<MiningField name="Petal.Length"/>
									<MiningField name="Petal.Width"/>
								</MiningSchema>
								<Node score="-0.07431188992829403">
									<True/>
									<Node score="0.07983502388061596">
										<SimplePredicate field="Petal.Length" operator="greaterThan" value="1.8"/>
										<Node score="-0.05705421868064532">
											<SimplePredicate field="Petal.Length" operator="greaterThan" value="5.050000000000001"/>
											<Node score="-0.07977971723258531">
												<SimplePredicate field="Petal.Length" operator="greaterThan" value="5.550000000000001"/>
											</Node>
										</Node>
										<Node score="0.03967486487178386">
											<SimplePredicate field="Petal.Width" operator="greaterThan" value="1.4500000000000002"/>
										</Node>
									</Node>
									<Node score="-0.07607601220194216">
										<SimplePredicate field="Petal.Length" operator="greaterThan" value="1.4500000000000002"/>
									</Node>
								</Node>
							</TreeModel>
						</Segment>
					</Segmentation>
				</MiningModel>
			</Segment>
			<Segment id="3">
				<True/>
				<MiningModel functionName="regression">
					<MiningSchema>
						<MiningField name="Sepal.Length"/>
						<MiningField name="Sepal.Width"/>
						<MiningField name="Petal.Length"/>
						<MiningField name="Petal.Width"/>
					</MiningSchema>
					<Output>
						<OutputField name="lgbmValue(virginica)" optype="continuous" dataType="double" isFinalResult="false"/>
					</Output>
					<Segmentation multipleModelMethod="sum">
						<Segment id="1">
							<True/>
							<TreeModel functionName="regression" noTrueChildStrategy="returnLastPrediction">
								<MiningSchema>
									<MiningField name="Petal.Length"/>
									<MiningField name="Petal.Width"/>
								</MiningSchema>
								<Node score="-1.1986122886681096">
									<True/>
									<Node score="-0.9286122886681099">
										<SimplePredicate field="Petal.Width" operator="greaterThan" value="1.6500000000000001"/>
										<Node score="-0.8986122886681098">
											<SimplePredicate field="Petal.Length" operator="greaterThan" value="5.3500000000000005"/>
										</Node>
									</Node>
									<Node score="-1.1464383756246315">
										<SimplePredicate field="Petal.Length" operator="greaterThan" value="4.450000000000001"/>
									</Node>
									<Node score="-1.1986122886681099">
										<SimplePredicate field="Petal.Length" operator="greaterThan" value="1.5500000000000003"/>
									</Node>
								</Node>
							</TreeModel>
						</Segment>
						<Segment id="2">
							<True/>
							<TreeModel functionName="regression" noTrueChildStrategy="returnLastPrediction">
								<MiningSchema>
									<MiningField name="Sepal.Width"/>
									<MiningField name="Petal.Length"/>
								</MiningSchema>
								<Node score="-0.08104362047070603">
									<True/>
									<Node score="0.09881934125919217">
										<SimplePredicate field="Petal.Length" operator="greaterThan" value="4.750000000000001"/>
										<Node score="0.16840294069697054">
											<SimplePredicate field="Petal.Length" operator="greaterThan" value="5.150000000000001"/>
										</Node>
									</Node>
									<Node score="-0.09529483633002472">
										<SimplePredicate field="Sepal.Width" operator="greaterThan" value="2.7500000000000004"/>
										<Node score="-0.09676748036136712">
											<SimplePredicate field="Petal.Length" operator="greaterThan" value="4.150000000000001"/>
										</Node>
										<Node score="-0.09482662889123407">
											<SimplePredicate field="Sepal.Width" operator="greaterThan" value="3.35"/>
										</Node>
									</Node>
								</Node>
							</TreeModel>
						</Segment>
						<Segment id="3">
							<True/>
							<TreeModel functionName="regression" noTrueChildStrategy="returnLastPrediction">
								<MiningSchema>
									<MiningField name="Sepal.Length"/>
									<MiningField name="Petal.Length"/>
								</MiningSchema>
								<Node score="-0.07685384034099346">
									<True/>
									<Node score="0.08625545840445993">
										<SimplePredicate field="Petal.Length" operator="greaterThan" value="4.750000000000001"/>
										<Node score="0.14582684982932193">
											<SimplePredicate field="Petal.Length" operator="greaterThan" value="5.150000000000001"/>
										</Node>
									</Node>
									<Node score="-0.09059588300948908">
										<SimplePredicate field="Sepal.Length" operator="greaterThan" value="4.950000000000001"/>
										<Node score="-0.09308902376099175">
											<SimplePredicate field="Petal.Length" operator="greaterThan" value="4.250000000000001"/>
										</Node>
										<Node score="-0.0916177713562077">
											<SimplePredicate field="Petal.Length" operator="greaterThan" value="3.1500000000000004"/>
										</Node>
									</Node>
								</Node>
							</TreeModel>
						</Segment>
						<Segment id="4">
							<True/>
							<TreeModel functionName="regression" noTrueChildStrategy="returnLastPrediction">
								<MiningSchema>
									<MiningField name="Sepal.Length"/>
									<MiningField name="Sepal.Width"/>
									<MiningField name="Petal.Length"/>
									<MiningField name="Petal.Width"/>
								</MiningSchema>
								<Node score="-0.08791336152106291">
									<True/>
									<Node score="0.11598912706509773">
										<SimplePredicate field="Petal.Width" operator="greaterThan" value="1.6500000000000001"/>
										<Node score="0.12826194265119698">
											<SimplePredicate field="Petal.Width" operator="greaterThan" value="2.0500000000000003"/>
										</Node>
									</Node>
									<Node score="-0.04003628936740485">
										<SimplePredicate field="Petal.Length" operator="greaterThan" value="4.450000000000001"/>
									</Node>
									<Node score="-0.08727458570749508">
										<SimplePredicate field="Sepal.Width" operator="greaterThan" value="3.2500000000000004"/>
									</Node>
									<Node score="-0.08823764034935387">
										<SimplePredicate field="Sepal.Length" operator="greaterThan" value="5.150000000000001"/>
									</Node>
								</Node>
							</TreeModel>
						</Segment>
						<Segment id="5">
							<True/>
							<TreeModel functionName="regression" noTrueChildStrategy="returnLastPrediction">
								<MiningSchema>
									<MiningField name="Sepal.Length"/>
									<MiningField name="Petal.Length"/>
								</MiningSchema>
								<Node score="-0.06908959225283794">
									<True/>
									<Node score="0.06824995345106569">
										<SimplePredicate field="Petal.Length" operator="greaterThan" value="4.750000000000001"/>
										<Node score="0.1190804049340354">
											<SimplePredicate field="Petal.Length" operator="greaterThan" value="5.150000000000001"/>
										</Node>
									</Node>
									<Node score="-0.0843347503022745">
										<SimplePredicate field="Sepal.Length" operator="greaterThan" value="4.950000000000001"/>
										<Node score="-0.08740237091563549">
											<SimplePredicate field="Petal.Length" operator="greaterThan" value="4.250000000000001"/>
										</Node>
										<Node score="-0.08539109027316254">
											<SimplePredicate field="Petal.Length" operator="greaterThan" value="3.1500000000000004"/>
										</Node>
									</Node>
								</Node>
							</TreeModel>
						</Segment>
						<Segment id="6">
							<True/>
							<TreeModel functionName="regression" noTrueChildStrategy="returnLastPrediction">
								<MiningSchema>
									<MiningField name="Sepal.Length"/>
									<MiningField name="Petal.Length"/>
									<MiningField name="Petal.Width"/>
								</MiningSchema>
								<Node score="-0.0656037875871465">
									<True/>
									<Node score="0.06023605808346588">
										<SimplePredicate field="Petal.Length" operator="greaterThan" value="4.750000000000001"/>
										<Node score="0.11023481561713111">
											<SimplePredicate field="Petal.Width" operator="greaterThan" value="1.8500000000000003"/>
										</Node>
									</Node>
									<Node score="-0.08185374779882239">
										<SimplePredicate field="Sepal.Length" operator="greaterThan" value="4.950000000000001"/>
										<Node score="-0.08470644313204304">
											<SimplePredicate field="Petal.Length" operator="greaterThan" value="4.250000000000001"/>
										</Node>
										<Node score="-0.0830592664602708">
											<SimplePredicate field="Petal.Length" operator="greaterThan" value="3.1500000000000004"/>
										</Node>
									</Node>
								</Node>
							</TreeModel>
						</Segment>
						<Segment id="7">
							<True/>
							<TreeModel functionName="regression" noTrueChildStrategy="returnLastPrediction">
								<MiningSchema>
									<MiningField name="Sepal.Width"/>
									<MiningField name="Petal.Length"/>
									<MiningField name="Petal.Width"/>
								</MiningSchema>
								<Node score="-0.08095439438553552">
									<True/>
									<Node score="0.07314243052022794">
										<SimplePredicate field="Petal.Length" operator="greaterThan" value="4.8500000000000005"/>
										<Node score="0.10357023096923373">
											<SimplePredicate field="Petal.Length" operator="greaterThan" value="5.3500000000000005"/>
										</Node>
									</Node>
									<Node score="-0.04271660516329123">
										<SimplePredicate field="Petal.Length" operator="greaterThan" value="4.450000000000001"/>
									</Node>
									<Node score="-0.07986443403374391">
										<SimplePredicate field="Sepal.Width" operator="greaterThan" value="3.2500000000000004"/>
									</Node>
									<Node score="-0.08064675832224577">
										<SimplePredicate field="Petal.Width" operator="greaterThan" value="1.0500000000000003"/>
									</Node>
								</Node>
							</TreeModel>
						</Segment>
						<Segment id="8">
							<True/>
							<TreeModel functionName="regression" noTrueChildStrategy="returnLastPrediction">
								<MiningSchema>
									<MiningField name="Sepal.Length"/>
									<MiningField name="Sepal.Width"/>
									<MiningField name="Petal.Length"/>
									<MiningField name="Petal.Width"/>
								</MiningSchema>
								<Node score="-0.07891352671918264">
									<True/>
									<Node score="0.09674809367083576">
										<SimplePredicate field="Petal.Width" operator="greaterThan" value="1.6500000000000001"/>
										<Node score="0.0810610907957355">
											<SimplePredicate field="Sepal.Length" operator="greaterThan" value="6.550000000000001"/>
										</Node>
									</Node>
									<Node score="-0.01588015289112101">
										<SimplePredicate field="Petal.Length" operator="greaterThan" value="4.550000000000001"/>
									</Node>
									<Node score="-0.08000415169365523">
										<SimplePredicate field="Petal.Width" operator="greaterThan" value="1.2500000000000002"/>
									</Node>
									<Node score="-0.07811432361998676">
										<SimplePredicate field="Sepal.Width" operator="greaterThan" value="3.2500000000000004"/>
									</Node>
								</Node>
							</TreeModel>
						</Segment>
						<Segment id="9">
							<True/>
							<TreeModel functionName="regression" noTrueChildStrategy="returnLastPrediction">
								<MiningSchema>
									<MiningField name="Sepal.Width"/>
									<MiningField name="Petal.Length"/>
									<MiningField name="Petal.Width"/>
								</MiningSchema>
								<Node score="-0.07733969866431302">
									<True/>
									<Node score="0.06175071715600065">
										<SimplePredicate field="Petal.Length" operator="greaterThan" value="4.8500000000000005"/>
										<Node score="0.09439290535043067">
											<SimplePredicate field="Petal.Length" operator="greaterThan" value="5.3500000000000005"/>
										</Node>
									</Node>
									<Node score="-0.039739574427254544">
										<SimplePredicate field="Petal.Width" operator="greaterThan" value="1.3500000000000003"/>
									</Node>
									<Node score="-0.07656331916945641">
										<SimplePredicate field="Sepal.Width" operator="greaterThan" value="3.2500000000000004"/>
									</Node>
									<Node score="-0.07784841918244212">
										<SimplePredicate field="Petal.Length" operator="greaterThan" value="3.85"/>
									</Node>
								</Node>
							</TreeModel>
						</Segment>
						<Segment id="10">
							<True/>
							<TreeModel functionName="regression" noTrueChildStrategy="returnLastPrediction">
								<MiningSchema>
									<MiningField name="Sepal.Width"/>
									<MiningField name="Petal.Length"/>
									<MiningField name="Petal.Width"/>
								</MiningSchema>
								<Node score="-0.07601037711661301">
									<True/>
									<Node score="0.07029321087600442">
										<SimplePredicate field="Petal.Width" operator="greaterThan" value="1.6500000000000001"/>
										<Node score="0.0886080104919319">
											<SimplePredicate field="Petal.Width" operator="greaterThan" value="1.9500000000000002"/>
										</Node>
									</Node>
									<Node score="-0.0038039221295373656">
										<SimplePredicate field="Petal.Length" operator="greaterThan" value="4.650000000000001"/>
									</Node>
									<Node score="-0.07781890830985042">
										<SimplePredicate field="Petal.Length" operator="greaterThan" value="4.150000000000001"/>
									</Node>
									<Node score="-0.07523453598756161">
										<SimplePredicate field="Sepal.Width" operator="greaterThan" value="3.2500000000000004"/>
									</Node>
								</Node>
							</TreeModel>
						</Segment>
						<Segment id="11">
							<True/>
							<TreeModel functionName="regression" noTrueChildStrategy="returnLastPrediction">
								<MiningSchema>
									<MiningField name="Sepal.Width"/>
									<MiningField name="Petal.Length"/>
									<MiningField name="Petal.Width"/>
								</MiningSchema>
								<Node score="-0.07484680943437967">
									<True/>
									<Node score="0.05267753746342699">
										<SimplePredicate field="Petal.Length" operator="greaterThan" value="4.8500000000000005"/>
										<Node score="0.08825293290565495">
											<SimplePredicate field="Petal.Length" operator="greaterThan" value="5.3500000000000005"/>
										</Node>
									</Node>
									<Node score="-0.018422210299777714">
										<SimplePredicate field="Petal.Width" operator="greaterThan" value="1.4500000000000002"/>
									</Node>
									<Node score="-0.07745918639501242">
										<SimplePredicate field="Petal.Length" operator="greaterThan" value="4.050000000000001"/>
									</Node>
									<Node score="-0.074095856967433">
										<SimplePredicate field="Sepal.Width" operator="greaterThan" value="3.2500000000000004"/>
									</Node>
								</Node>
							</TreeModel>
						</Segment>
					</Segmentation>
				</MiningModel>
			</Segment>
			<Segment id="4">
				<True/>
				<RegressionModel functionName="classification" normalizationMethod="softmax">
					<MiningSchema>
						<MiningField name="Species" usageType="target"/>
						<MiningField name="lgbmValue(setosa)"/>
						<MiningField name="lgbmValue(versicolor)"/>
						<MiningField name="lgbmValue(virginica)"/>
					</MiningSchema>
					<Output>
						<OutputField name="probability(setosa)" optype="continuous" dataType="double" feature="probability" value="setosa"/>
						<OutputField name="probability(versicolor)" optype="continuous" dataType="double" feature="probability" value="versicolor"/>
						<OutputField name="probability(virginica)" optype="continuous" dataType="double" feature="probability" value="virginica"/>
					</Output>
					<RegressionTable intercept="0.0" targetCategory="setosa">
						<NumericPredictor name="lgbmValue(setosa)" coefficient="1.0"/>
					</RegressionTable>
					<RegressionTable intercept="0.0" targetCategory="versicolor">
						<NumericPredictor name="lgbmValue(versicolor)" coefficient="1.0"/>
					</RegressionTable>
					<RegressionTable intercept="0.0" targetCategory="virginica">
						<NumericPredictor name="lgbmValue(virginica)" coefficient="1.0"/>
					</RegressionTable>
				</RegressionModel>
			</Segment>
		</Segmentation>
		<ModelVerification recordCount="3">
			<VerificationFields>
				<VerificationField field="Sepal.Length" column="data:Sepal.Length"/>
				<VerificationField field="Sepal.Width" column="data:Sepal.Width"/>
				<VerificationField field="Petal.Length" column="data:Petal.Length"/>
				<VerificationField field="Petal.Width" column="data:Petal.Width"/>
				<VerificationField field="probability(setosa)" column="data:probability_setosa" precision="1.0E-13" zeroThreshold="1.0E-13"/>
				<VerificationField field="probability(versicolor)" column="data:probability_versicolor" precision="1.0E-13" zeroThreshold="1.0E-13"/>
				<VerificationField field="probability(virginica)" column="data:probability_virginica" precision="1.0E-13" zeroThreshold="1.0E-13"/>
			</VerificationFields>
			<InlineTable>
				<row>
					<data:Sepal.Length>5.7</data:Sepal.Length>
					<data:Sepal.Width>2.8</data:Sepal.Width>
					<data:Petal.Length>4.5</data:Petal.Length>
					<data:Petal.Width>1.3</data:Petal.Width>
					<data:probability_setosa>0.10334436698637163</data:probability_setosa>
					<data:probability_versicolor>0.7794934544456594</data:probability_versicolor>
					<data:probability_virginica>0.11716217856796873</data:probability_virginica>
				</row>
				<row>
					<data:Sepal.Length>5.6</data:Sepal.Length>
					<data:Sepal.Width>2.9</data:Sepal.Width>
					<data:Petal.Length>3.6</data:Petal.Length>
					<data:Petal.Width>1.3</data:Petal.Width>
					<data:probability_setosa>0.09699493313499968</data:probability_setosa>
					<data:probability_versicolor>0.8061732119304941</data:probability_versicolor>
					<data:probability_virginica>0.09683185493450627</data:probability_virginica>
				</row>
				<row>
					<data:Sepal.Length>5.1</data:Sepal.Length>
					<data:Sepal.Width>3.7</data:Sepal.Width>
					<data:Petal.Length>1.5</data:Petal.Length>
					<data:Petal.Width>0.4</data:Petal.Width>
					<data:probability_setosa>0.8225849948833641</data:probability_setosa>
					<data:probability_versicolor>0.08798599101015402</data:probability_versicolor>
					<data:probability_virginica>0.08942901410648181</data:probability_virginica>
				</row>
			</InlineTable>
		</ModelVerification>
	</MiningModel>
</PMML>
