<?xml version="1.0" encoding="UTF-8" standalone="yes"?>
<PMML xmlns="http://www.dmg.org/PMML-4_3" xmlns:data="http://jpmml.org/jpmml-model/InlineTable" version="4.3">
	<Header>
		<Application name="JPMML-SkLearn" version="1.5.20"/>
		<Timestamp>2019-09-04T05:45:59Z</Timestamp>
	</Header>
	<DataDictionary>
		<DataField name="mpg" optype="continuous" dataType="double"/>
		<DataField name="cylinders" optype="categorical" dataType="integer">
			<Value value="3"/>
			<Value value="4"/>
			<Value value="5"/>
			<Value value="6"/>
			<Value value="8"/>
		</DataField>
		<DataField name="model_year" optype="categorical" dataType="integer">
			<Value value="70"/>
			<Value value="71"/>
			<Value value="72"/>
			<Value value="73"/>
			<Value value="74"/>
			<Value value="75"/>
			<Value value="76"/>
			<Value value="77"/>
			<Value value="78"/>
			<Value value="79"/>
			<Value value="80"/>
			<Value value="81"/>
			<Value value="82"/>
		</DataField>
		<DataField name="origin" optype="categorical" dataType="integer">
			<Value value="1"/>
			<Value value="2"/>
			<Value value="3"/>
		</DataField>
		<DataField name="displacement" optype="continuous" dataType="double">
			<Interval closure="closedClosed" leftMargin="68.0" rightMargin="455.0"/>
		</DataField>
		<DataField name="horsepower" optype="continuous" dataType="double">
			<Interval closure="closedClosed" leftMargin="46" rightMargin="230"/>
		</DataField>
		<DataField name="weight" optype="continuous" dataType="double">
			<Interval closure="closedClosed" leftMargin="1613" rightMargin="5140"/>
		</DataField>
		<DataField name="acceleration" optype="continuous" dataType="double">
			<Interval closure="closedClosed" leftMargin="8.0" rightMargin="24.8"/>
		</DataField>
	</DataDictionary>
	<TransformationDictionary/>
	<MiningModel functionName="regression" algorithmName="XGBoost (GBTree)" x-mathContext="float">
		<MiningSchema>
			<MiningField name="mpg" usageType="target"/>
			<MiningField name="cylinders" missingValueTreatment="asIs"/>
			<MiningField name="model_year" missingValueTreatment="asIs"/>
			<MiningField name="origin" missingValueTreatment="asIs"/>
			<MiningField name="displacement" missingValueTreatment="asIs"/>
			<MiningField name="horsepower" missingValueTreatment="asIs"/>
			<MiningField name="weight" missingValueTreatment="asIs"/>
			<MiningField name="acceleration" missingValueTreatment="asIs"/>
		</MiningSchema>
		<ModelStats>
			<UnivariateStats field="cylinders">
				<Counts totalFreq="392" missingFreq="0" invalidFreq="0"/>
				<DiscrStats>
					<Array type="string">3 4 5 6 8</Array>
					<Array type="int">4 199 3 83 103</Array>
				</DiscrStats>
			</UnivariateStats>
			<UnivariateStats field="model_year">
				<Counts totalFreq="392" missingFreq="0" invalidFreq="0"/>
				<DiscrStats>
					<Array type="string">70 71 72 73 74 75 76 77 78 79 80 81 82</Array>
					<Array type="int">29 27 28 40 26 30 34 28 36 29 27 28 30</Array>
				</DiscrStats>
			</UnivariateStats>
			<UnivariateStats field="origin">
				<Counts totalFreq="392" missingFreq="0" invalidFreq="0"/>
				<DiscrStats>
					<Array type="string">1 2 3</Array>
					<Array type="int">245 68 79</Array>
				</DiscrStats>
			</UnivariateStats>
			<UnivariateStats field="displacement">
				<Counts totalFreq="392" missingFreq="0" invalidFreq="0"/>
				<NumericInfo minimum="68.0" maximum="455.0" mean="194.41198979591837" standardDeviation="104.51044418133284" median="151.0" interQuartileRange="170.75"/>
			</UnivariateStats>
			<UnivariateStats field="horsepower">
				<Counts totalFreq="392" missingFreq="0" invalidFreq="0"/>
				<NumericInfo minimum="46" maximum="230" mean="104.46938775510205" standardDeviation="38.44203271442593" median="93.5" interQuartileRange="51.0"/>
			</UnivariateStats>
			<UnivariateStats field="weight">
				<Counts totalFreq="392" missingFreq="0" invalidFreq="0"/>
				<NumericInfo minimum="1613" maximum="5140" mean="2977.5841836734694" standardDeviation="848.3184465698362" median="2803.5" interQuartileRange="1389.5"/>
			</UnivariateStats>
			<UnivariateStats field="acceleration">
				<Counts totalFreq="392" missingFreq="0" invalidFreq="0"/>
				<NumericInfo minimum="8.0" maximum="24.8" mean="15.541326530612244" standardDeviation="2.7553429127509967" median="15.5" interQuartileRange="3.2499999999999964"/>
			</UnivariateStats>
		</ModelStats>
		<Targets>
			<Target field="mpg" rescaleConstant="0.5"/>
		</Targets>
		<LocalTransformations>
			<DerivedField name="float(displacement)" optype="continuous" dataType="float">
				<FieldRef field="displacement"/>
			</DerivedField>
			<DerivedField name="float(horsepower)" optype="continuous" dataType="float">
				<FieldRef field="horsepower"/>
			</DerivedField>
			<DerivedField name="float(weight)" optype="continuous" dataType="float">
				<FieldRef field="weight"/>
			</DerivedField>
			<DerivedField name="float(acceleration)" optype="continuous" dataType="float">
				<FieldRef field="acceleration"/>
			</DerivedField>
		</LocalTransformations>
		<Segmentation multipleModelMethod="sum">
			<Segment id="1">
				<True/>
				<TreeModel functionName="regression" noTrueChildStrategy="returnLastPrediction" x-mathContext="float">
					<MiningSchema>
						<MiningField name="float(displacement)"/>
						<MiningField name="float(horsepower)"/>
					</MiningSchema>
					<Node score="3.0824032">
						<True/>
						<Node score="1.8685334">
							<SimplePredicate field="float(displacement)" operator="greaterOrEqual" value="190.5"/>
							<Node score="1.3874227">
								<SimplePredicate field="float(horsepower)" operator="greaterOrEqual" value="127.0"/>
							</Node>
						</Node>
						<Node score="2.3908422">
							<SimplePredicate field="float(horsepower)" operator="greaterOrEqual" value="84.5"/>
						</Node>
					</Node>
				</TreeModel>
			</Segment>
			<Segment id="2">
				<True/>
				<TreeModel functionName="regression" noTrueChildStrategy="returnLastPrediction" x-mathContext="float">
					<MiningSchema>
						<MiningField name="cylinders"/>
						<MiningField name="float(horsepower)"/>
						<MiningField name="float(weight)"/>
						<MiningField name="float(acceleration)"/>
					</MiningSchema>
					<Node score="1.7241958">
						<True/>
						<Node score="2.8914833">
							<SimplePredicate field="cylinders" operator="equal" value="4"/>
							<Node score="2.2876477">
								<SimplePredicate field="float(weight)" operator="greaterOrEqual" value="2217.0"/>
							</Node>
						</Node>
						<Node score="1.2315999">
							<SimplePredicate field="float(horsepower)" operator="greaterOrEqual" value="139.5"/>
							<Node score="0.35562888">
								<SimplePredicate field="float(acceleration)" operator="greaterOrEqual" value="17.25"/>
							</Node>
						</Node>
					</Node>
				</TreeModel>
			</Segment>
			<Segment id="3">
				<True/>
				<TreeModel functionName="regression" noTrueChildStrategy="returnLastPrediction" x-mathContext="float">
					<MiningSchema>
						<MiningField name="model_year"/>
						<MiningField name="float(displacement)"/>
						<MiningField name="float(horsepower)"/>
						<MiningField name="float(weight)"/>
					</MiningSchema>
					<Node score="2.6872785">
						<True/>
						<Node score="1.5140507">
							<SimplePredicate field="float(displacement)" operator="greaterOrEqual" value="190.5"/>
							<Node score="1.1918976">
								<SimplePredicate field="float(horsepower)" operator="greaterOrEqual" value="127.0"/>
								<Node score="0.94589466">
									<SimplePredicate field="float(weight)" operator="greaterOrEqual" value="4361.5"/>
								</Node>
							</Node>
						</Node>
						<Node score="2.1077545">
							<SimplePredicate field="float(horsepower)" operator="greaterOrEqual" value="70.5"/>
							<Node score="1.4735502">
								<SimplePredicate field="model_year" operator="equal" value="73"/>
							</Node>
						</Node>
					</Node>
				</TreeModel>
			</Segment>
			<Segment id="4">
				<True/>
				<TreeModel functionName="regression" noTrueChildStrategy="returnLastPrediction" x-mathContext="float">
					<MiningSchema>
						<MiningField name="cylinders"/>
						<MiningField name="float(horsepower)"/>
						<MiningField name="float(weight)"/>
					</MiningSchema>
					<Node score="1.4155552">
						<True/>
						<Node score="2.357479">
							<SimplePredicate field="cylinders" operator="equal" value="4"/>
							<Node score="1.854249">
								<SimplePredicate field="float(weight)" operator="greaterOrEqual" value="2217.0"/>
							</Node>
						</Node>
						<Node score="0.9892358">
							<SimplePredicate field="float(weight)" operator="greaterOrEqual" value="3745.0"/>
						</Node>
						<Node score="0.5459387">
							<SimplePredicate field="float(horsepower)" operator="greaterOrEqual" value="175.0"/>
						</Node>
					</Node>
				</TreeModel>
			</Segment>
			<Segment id="5">
				<True/>
				<TreeModel functionName="regression" noTrueChildStrategy="returnLastPrediction" x-mathContext="float">
					<MiningSchema>
						<MiningField name="float(displacement)"/>
						<MiningField name="float(horsepower)"/>
						<MiningField name="float(weight)"/>
					</MiningSchema>
					<Node score="2.0982304">
						<True/>
						<Node score="1.2134145">
							<SimplePredicate field="float(weight)" operator="greaterOrEqual" value="3018.0"/>
							<Node score="0.9454694">
								<SimplePredicate field="float(horsepower)" operator="greaterOrEqual" value="127.0"/>
								<Node score="0.6994801">
									<SimplePredicate field="float(weight)" operator="greaterOrEqual" value="4498.5"/>
								</Node>
							</Node>
						</Node>
						<Node score="1.5672421">
							<SimplePredicate field="float(horsepower)" operator="greaterOrEqual" value="84.5"/>
						</Node>
						<Node score="1.2876388">
							<SimplePredicate field="float(displacement)" operator="greaterOrEqual" value="137.5"/>
						</Node>
					</Node>
				</TreeModel>
			</Segment>
			<Segment id="6">
				<True/>
				<TreeModel functionName="regression" noTrueChildStrategy="returnLastPrediction" x-mathContext="float">
					<MiningSchema>
						<MiningField name="model_year"/>
						<MiningField name="float(displacement)"/>
						<MiningField name="float(horsepower)"/>
						<MiningField name="float(weight)"/>
						<MiningField name="float(acceleration)"/>
					</MiningSchema>
					<Node score="2.0130827">
						<True/>
						<Node score="1.0948167">
							<SimplePredicate field="float(displacement)" operator="greaterOrEqual" value="198.5"/>
							<Node score="0.7772045">
								<SimplePredicate field="float(horsepower)" operator="greaterOrEqual" value="146.5"/>
								<Node score="0.2061169">
									<SimplePredicate field="float(acceleration)" operator="greaterOrEqual" value="17.0"/>
								</Node>
							</Node>
							<Node score="0.81397337">
								<SimplePredicate field="float(weight)" operator="greaterOrEqual" value="3903.5"/>
							</Node>
						</Node>
						<Node score="1.5944053">
							<SimplePredicate field="float(horsepower)" operator="greaterOrEqual" value="70.5"/>
							<Node score="1.2892998">
								<SimplePredicate field="float(horsepower)" operator="greaterOrEqual" value="93.5"/>
							</Node>
						</Node>
						<Node score="0.7624439">
							<SimplePredicate field="model_year" operator="equal" value="72"/>
						</Node>
					</Node>
				</TreeModel>
			</Segment>
			<Segment id="7">
				<True/>
				<TreeModel functionName="regression" noTrueChildStrategy="returnLastPrediction" x-mathContext="float">
					<MiningSchema>
						<MiningField name="model_year"/>
						<MiningField name="float(horsepower)"/>
						<MiningField name="float(weight)"/>
					</MiningSchema>
					<Node score="0.6913362">
						<True/>
						<Node score="1.2865051">
							<SimplePredicate field="float(weight)" operator="greaterOrEqual" value="2737.5"/>
							<Node score="0.79686356">
								<SimplePredicate field="float(weight)" operator="greaterOrEqual" value="3607.0"/>
								<Node score="0.6069366">
									<SimplePredicate field="float(weight)" operator="greaterOrEqual" value="4361.5"/>
								</Node>
							</Node>
							<Node score="1.0054619">
								<SimplePredicate field="float(horsepower)" operator="greaterOrEqual" value="86.5"/>
							</Node>
						</Node>
						<Node score="1.4548029">
							<SimplePredicate field="float(horsepower)" operator="greaterOrEqual" value="70.5"/>
							<Node score="0.8954425">
								<SimplePredicate field="model_year" operator="equal" value="73"/>
							</Node>
						</Node>
						<Node score="1.8112096">
							<SimplePredicate field="float(horsepower)" operator="greaterOrEqual" value="47.0"/>
						</Node>
					</Node>
				</TreeModel>
			</Segment>
			<Segment id="8">
				<True/>
				<TreeModel functionName="regression" noTrueChildStrategy="returnLastPrediction" x-mathContext="float">
					<MiningSchema>
						<MiningField name="model_year"/>
						<MiningField name="float(horsepower)"/>
						<MiningField name="float(weight)"/>
						<MiningField name="float(acceleration)"/>
					</MiningSchema>
					<Node score="1.6427472">
						<True/>
						<Node score="0.85114527">
							<SimplePredicate field="float(weight)" operator="greaterOrEqual" value="3018.0"/>
							<Node score="0.62426615">
								<SimplePredicate field="float(horsepower)" operator="greaterOrEqual" value="149.5"/>
								<Node score="0.16546424">
									<SimplePredicate field="float(acceleration)" operator="greaterOrEqual" value="17.0"/>
								</Node>
							</Node>
							<Node score="0.32648265">
								<SimplePredicate field="model_year" operator="equal" value="72"/>
							</Node>
						</Node>
						<Node score="1.1639493">
							<SimplePredicate field="float(horsepower)" operator="greaterOrEqual" value="70.5"/>
							<Node score="1.5463953">
								<SimplePredicate field="model_year" operator="equal" value="82"/>
							</Node>
						</Node>
						<Node score="0.59086704">
							<SimplePredicate field="model_year" operator="equal" value="72"/>
						</Node>
					</Node>
				</TreeModel>
			</Segment>
			<Segment id="9">
				<True/>
				<TreeModel functionName="regression" noTrueChildStrategy="returnLastPrediction" x-mathContext="float">
					<MiningSchema>
						<MiningField name="cylinders"/>
						<MiningField name="model_year"/>
						<MiningField name="float(horsepower)"/>
						<MiningField name="float(weight)"/>
					</MiningSchema>
					<Node score="1.1380849">
						<True/>
						<Node score="1.1712683">
							<SimplePredicate field="float(weight)" operator="greaterOrEqual" value="2737.5"/>
							<Node score="0.66374063">
								<SimplePredicate field="float(weight)" operator="greaterOrEqual" value="3431.0"/>
								<Node score="0.48697057">
									<SimplePredicate field="float(weight)" operator="greaterOrEqual" value="4361.5"/>
								</Node>
							</Node>
							<Node score="0.821046">
								<SimplePredicate field="float(horsepower)" operator="greaterOrEqual" value="86.5"/>
							</Node>
						</Node>
						<Node score="1.7992651">
							<SimplePredicate field="model_year" operator="equal" value="80"/>
							<Node score="0.504318">
								<SimplePredicate field="cylinders" operator="equal" value="3"/>
							</Node>
						</Node>
						<Node score="1.5409114">
							<SimplePredicate field="model_year" operator="equal" value="82"/>
						</Node>
					</Node>
				</TreeModel>
			</Segment>
			<Segment id="10">
				<True/>
				<TreeModel functionName="regression" noTrueChildStrategy="returnLastPrediction" x-mathContext="float">
					<MiningSchema>
						<MiningField name="model_year"/>
						<MiningField name="float(displacement)"/>
						<MiningField name="float(horsepower)"/>
						<MiningField name="float(weight)"/>
					</MiningSchema>
					<Node score="1.1727339">
						<True/>
						<Node score="0.17428532">
							<SimplePredicate field="float(displacement)" operator="greaterOrEqual" value="198.5"/>
							<Node score="0.5149004">
								<SimplePredicate field="float(weight)" operator="greaterOrEqual" value="3958.5"/>
								<Node score="0.32888594">
									<SimplePredicate field="model_year" operator="equal" value="70"/>
								</Node>
							</Node>
							<Node score="0.6955134">
								<SimplePredicate field="float(horsepower)" operator="greaterOrEqual" value="75.0"/>
							</Node>
						</Node>
						<Node score="0.949619">
							<SimplePredicate field="float(horsepower)" operator="greaterOrEqual" value="84.5"/>
							<Node score="0.47383958">
								<SimplePredicate field="float(weight)" operator="greaterOrEqual" value="2968.0"/>
							</Node>
						</Node>
						<Node score="1.6365519">
							<SimplePredicate field="model_year" operator="equal" value="80"/>
						</Node>
					</Node>
				</TreeModel>
			</Segment>
			<Segment id="11">
				<True/>
				<TreeModel functionName="regression" noTrueChildStrategy="returnLastPrediction" x-mathContext="float">
					<MiningSchema>
						<MiningField name="model_year"/>
						<MiningField name="origin"/>
						<MiningField name="float(displacement)"/>
						<MiningField name="float(horsepower)"/>
					</MiningSchema>
					<Node score="0.90338004">
						<True/>
						<Node score="0.7792931">
							<SimplePredicate field="float(horsepower)" operator="greaterOrEqual" value="93.5"/>
							<Node score="0.5409662">
								<SimplePredicate field="float(displacement)" operator="greaterOrEqual" value="231.5"/>
								<Node score="0.40264663">
									<SimplePredicate field="float(horsepower)" operator="greaterOrEqual" value="156.5"/>
								</Node>
							</Node>
							<Node score="0.5181951">
								<SimplePredicate field="origin" operator="equal" value="2"/>
							</Node>
						</Node>
						<Node score="1.5298419">
							<SimplePredicate field="model_year" operator="equal" value="80"/>
							<Node score="0.74996847">
								<SimplePredicate field="origin" operator="equal" value="1"/>
							</Node>
						</Node>
						<Node score="1.2803026">
							<SimplePredicate field="model_year" operator="equal" value="82"/>
						</Node>
					</Node>
				</TreeModel>
			</Segment>
			<Segment id="12">
				<True/>
				<TreeModel functionName="regression" noTrueChildStrategy="returnLastPrediction" x-mathContext="float">
					<MiningSchema>
						<MiningField name="model_year"/>
						<MiningField name="float(weight)"/>
					</MiningSchema>
					<Node score="1.0105754">
						<True/>
						<Node score="0.5838854">
							<SimplePredicate field="float(weight)" operator="greaterOrEqual" value="2764.5"/>
							<Node score="0.39887446">
								<SimplePredicate field="float(weight)" operator="greaterOrEqual" value="3727.5"/>
								<Node score="0.6043701">
									<SimplePredicate field="model_year" operator="equal" value="79"/>
								</Node>
							</Node>
							<Node score="0.95632505">
								<SimplePredicate field="model_year" operator="equal" value="80"/>
							</Node>
						</Node>
						<Node score="0.28752136">
							<SimplePredicate field="model_year" operator="equal" value="80"/>
							<Node score="1.3595785">
								<SimplePredicate field="float(weight)" operator="greaterOrEqual" value="1847.5"/>
							</Node>
						</Node>
						<Node score="0.7499814">
							<SimplePredicate field="float(weight)" operator="greaterOrEqual" value="2219.5"/>
						</Node>
					</Node>
				</TreeModel>
			</Segment>
			<Segment id="13">
				<True/>
				<TreeModel functionName="regression" noTrueChildStrategy="returnLastPrediction" x-mathContext="float">
					<MiningSchema>
						<MiningField name="model_year"/>
						<MiningField name="float(displacement)"/>
						<MiningField name="float(horsepower)"/>
						<MiningField name="float(weight)"/>
					</MiningSchema>
					<Node score="0.98111135">
						<True/>
						<Node score="0.48303267">
							<SimplePredicate field="float(displacement)" operator="greaterOrEqual" value="198.5"/>
							<Node score="0.38432252">
								<SimplePredicate field="float(horsepower)" operator="greaterOrEqual" value="149.5"/>
								<Node score="0.25774124">
									<SimplePredicate field="float(weight)" operator="greaterOrEqual" value="4498.5"/>
								</Node>
							</Node>
							<Node score="0.9624692">
								<SimplePredicate field="model_year" operator="equal" value="82"/>
							</Node>
						</Node>
						<Node score="0.71881384">
							<SimplePredicate field="float(horsepower)" operator="greaterOrEqual" value="77.5"/>
							<Node score="0.38756114">
								<SimplePredicate field="model_year" operator="equal" value="72"/>
							</Node>
						</Node>
						<Node score="0.32234636">
							<SimplePredicate field="model_year" operator="equal" value="73"/>
						</Node>
					</Node>
				</TreeModel>
			</Segment>
			<Segment id="14">
				<True/>
				<TreeModel functionName="regression" noTrueChildStrategy="returnLastPrediction" x-mathContext="float">
					<MiningSchema>
						<MiningField name="model_year"/>
						<MiningField name="origin"/>
						<MiningField name="float(horsepower)"/>
						<MiningField name="float(weight)"/>
						<MiningField name="float(acceleration)"/>
					</MiningSchema>
					<Node score="0.65092963">
						<True/>
						<Node score="0.64747965">
							<SimplePredicate field="float(horsepower)" operator="greaterOrEqual" value="93.5"/>
							<Node score="0.40231442">
								<SimplePredicate field="float(weight)" operator="greaterOrEqual" value="2922.0"/>
								<Node score="0.2460655">
									<SimplePredicate field="model_year" operator="equal" value="73"/>
								</Node>
							</Node>
							<Node score="0.44603372">
								<SimplePredicate field="float(acceleration)" operator="greaterOrEqual" value="14.85"/>
							</Node>
						</Node>
						<Node score="1.1767801">
							<SimplePredicate field="model_year" operator="equal" value="80"/>
							<Node score="0.53399247">
								<SimplePredicate field="origin" operator="equal" value="1"/>
							</Node>
						</Node>
						<Node score="0.9961715">
							<SimplePredicate field="model_year" operator="equal" value="82"/>
						</Node>
					</Node>
				</TreeModel>
			</Segment>
			<Segment id="15">
				<True/>
				<TreeModel functionName="regression" noTrueChildStrategy="returnLastPrediction" x-mathContext="float">
					<MiningSchema>
						<MiningField name="cylinders"/>
						<MiningField name="model_year"/>
						<MiningField name="float(horsepower)"/>
						<MiningField name="float(weight)"/>
					</MiningSchema>
					<Node score="0.75923216">
						<True/>
						<Node score="0.6844999">
							<SimplePredicate field="float(weight)" operator="greaterOrEqual" value="2715.5"/>
							<Node score="0.30600226">
								<SimplePredicate field="float(weight)" operator="greaterOrEqual" value="3431.0"/>
								<Node score="0.48867646">
									<SimplePredicate field="model_year" operator="equal" value="79"/>
								</Node>
							</Node>
							<Node score="0.4303858">
								<SimplePredicate field="float(horsepower)" operator="greaterOrEqual" value="86.5"/>
							</Node>
						</Node>
						<Node score="0.2926657">
							<SimplePredicate field="model_year" operator="equal" value="73"/>
							<Node score="-0.0048293113">
								<SimplePredicate field="cylinders" operator="equal" value="3"/>
							</Node>
						</Node>
						<Node score="0.29181638">
							<SimplePredicate field="model_year" operator="equal" value="72"/>
						</Node>
					</Node>
				</TreeModel>
			</Segment>
			<Segment id="16">
				<True/>
				<TreeModel functionName="regression" noTrueChildStrategy="returnLastPrediction" x-mathContext="float">
					<MiningSchema>
						<MiningField name="cylinders"/>
						<MiningField name="model_year"/>
						<MiningField name="float(displacement)"/>
						<MiningField name="float(horsepower)"/>
					</MiningSchema>
					<Node score="0.6623435">
						<True/>
						<Node score="0.34529558">
							<SimplePredicate field="float(displacement)" operator="greaterOrEqual" value="112.5"/>
							<Node score="0.80631655">
								<SimplePredicate field="model_year" operator="equal" value="80"/>
								<Node score="0.16212817">
									<SimplePredicate field="float(displacement)" operator="greaterOrEqual" value="196.5"/>
								</Node>
							</Node>
							<Node score="0.72154725">
								<SimplePredicate field="model_year" operator="equal" value="82"/>
							</Node>
						</Node>
						<Node score="0.011692175">
							<SimplePredicate field="cylinders" operator="equal" value="3"/>
							<Node score="0.22802429">
								<SimplePredicate field="float(horsepower)" operator="greaterOrEqual" value="98.5"/>
							</Node>
						</Node>
						<Node score="0.98629326">
							<SimplePredicate field="model_year" operator="equal" value="80"/>
						</Node>
					</Node>
				</TreeModel>
			</Segment>
			<Segment id="17">
				<True/>
				<TreeModel functionName="regression" noTrueChildStrategy="returnLastPrediction" x-mathContext="float">
					<MiningSchema>
						<MiningField name="cylinders"/>
						<MiningField name="model_year"/>
						<MiningField name="float(weight)"/>
					</MiningSchema>
					<Node score="0.7125412">
						<True/>
						<Node score="0.31622386">
							<SimplePredicate field="float(weight)" operator="greaterOrEqual" value="2219.5"/>
							<Node score="0.78185344">
								<SimplePredicate field="model_year" operator="equal" value="80"/>
								<Node score="0.31749436">
									<SimplePredicate field="float(weight)" operator="greaterOrEqual" value="2976.5"/>
								</Node>
							</Node>
							<Node score="0.64524716">
								<SimplePredicate field="model_year" operator="equal" value="82"/>
							</Node>
						</Node>
						<Node score="0.19382434">
							<SimplePredicate field="model_year" operator="equal" value="73"/>
							<Node score="-0.0051724436">
								<SimplePredicate field="cylinders" operator="equal" value="3"/>
							</Node>
						</Node>
						<Node score="0.29848972">
							<SimplePredicate field="model_year" operator="equal" value="76"/>
						</Node>
					</Node>
				</TreeModel>
			</Segment>
			<Segment id="18">
				<True/>
				<TreeModel functionName="regression" noTrueChildStrategy="returnLastPrediction" x-mathContext="float">
					<MiningSchema>
						<MiningField name="model_year"/>
						<MiningField name="float(weight)"/>
						<MiningField name="float(acceleration)"/>
					</MiningSchema>
					<Node score="0.4064075">
						<True/>
						<Node score="0.21293528">
							<SimplePredicate field="float(weight)" operator="greaterOrEqual" value="3085.5"/>
							<Node score="0.25132066">
								<SimplePredicate field="model_year" operator="equal" value="81"/>
								<Node score="0.70438">
									<SimplePredicate field="float(acceleration)" operator="greaterOrEqual" value="17.8"/>
								</Node>
							</Node>
							<Node score="0.43214723">
								<SimplePredicate field="model_year" operator="equal" value="79"/>
							</Node>
						</Node>
						<Node score="0.042347338">
							<SimplePredicate field="model_year" operator="equal" value="80"/>
							<Node score="0.80686533">
								<SimplePredicate field="float(weight)" operator="greaterOrEqual" value="1847.5"/>
							</Node>
						</Node>
						<Node score="0.69223607">
							<SimplePredicate field="model_year" operator="equal" value="82"/>
						</Node>
					</Node>
				</TreeModel>
			</Segment>
			<Segment id="19">
				<True/>
				<TreeModel functionName="regression" noTrueChildStrategy="returnLastPrediction" x-mathContext="float">
					<MiningSchema>
						<MiningField name="model_year"/>
						<MiningField name="origin"/>
						<MiningField name="float(weight)"/>
					</MiningSchema>
					<Node score="0.561963">
						<True/>
						<Node score="0.24030297">
							<SimplePredicate field="float(weight)" operator="greaterOrEqual" value="2398.0"/>
							<Node score="0.55233246">
								<SimplePredicate field="model_year" operator="equal" value="81"/>
							</Node>
							<Node score="0.5502611">
								<SimplePredicate field="model_year" operator="equal" value="80"/>
							</Node>
						</Node>
						<Node score="-0.0020174792">
							<SimplePredicate field="model_year" operator="equal" value="73"/>
							<Node score="0.22872996">
								<SimplePredicate field="origin" operator="equal" value="2"/>
							</Node>
						</Node>
						<Node score="0.18009831">
							<SimplePredicate field="model_year" operator="equal" value="72"/>
						</Node>
					</Node>
				</TreeModel>
			</Segment>
			<Segment id="20">
				<True/>
				<TreeModel functionName="regression" noTrueChildStrategy="returnLastPrediction" x-mathContext="float">
					<MiningSchema>
						<MiningField name="model_year"/>
						<MiningField name="float(displacement)"/>
						<MiningField name="float(weight)"/>
						<MiningField name="float(acceleration)"/>
					</MiningSchema>
					<Node score="0.55701846">
						<True/>
						<Node score="0.2976162">
							<SimplePredicate field="float(weight)" operator="greaterOrEqual" value="2219.5"/>
							<Node score="0.1780772">
								<SimplePredicate field="float(displacement)" operator="greaterOrEqual" value="231.5"/>
								<Node score="0.6530644">
									<SimplePredicate field="model_year" operator="equal" value="82"/>
								</Node>
							</Node>
							<Node score="0.53224367">
								<SimplePredicate field="model_year" operator="equal" value="80"/>
							</Node>
						</Node>
						<Node score="-0.061571028">
							<SimplePredicate field="model_year" operator="equal" value="74"/>
							<Node score="0.29919243">
								<SimplePredicate field="float(acceleration)" operator="greaterOrEqual" value="15.75"/>
							</Node>
						</Node>
						<Node score="0.18587986">
							<SimplePredicate field="model_year" operator="equal" value="76"/>
						</Node>
					</Node>
				</TreeModel>
			</Segment>
			<Segment id="21">
				<True/>
				<TreeModel functionName="regression" noTrueChildStrategy="returnLastPrediction" x-mathContext="float">
					<MiningSchema>
						<MiningField name="model_year"/>
						<MiningField name="float(displacement)"/>
						<MiningField name="float(horsepower)"/>
					</MiningSchema>
					<Node score="-0.03278141">
						<True/>
						<Node score="0.20337987">
							<SimplePredicate field="float(horsepower)" operator="greaterOrEqual" value="71.5"/>
							<Node score="0.5804568">
								<SimplePredicate field="model_year" operator="equal" value="82"/>
								<Node score="0.28294882">
									<SimplePredicate field="float(horsepower)" operator="greaterOrEqual" value="89.0"/>
								</Node>
							</Node>
							<Node score="0.51436275">
								<SimplePredicate field="model_year" operator="equal" value="81"/>
							</Node>
						</Node>
						<Node score="0.25498238">
							<SimplePredicate field="model_year" operator="equal" value="71"/>
							<Node score="-0.14001566">
								<SimplePredicate field="float(displacement)" operator="greaterOrEqual" value="85.0"/>
							</Node>
						</Node>
						<Node score="0.5113533">
							<SimplePredicate field="float(horsepower)" operator="greaterOrEqual" value="47.0"/>
						</Node>
					</Node>
				</TreeModel>
			</Segment>
			<Segment id="22">
				<True/>
				<TreeModel functionName="regression" noTrueChildStrategy="returnLastPrediction" x-mathContext="float">
					<MiningSchema>
						<MiningField name="model_year"/>
						<MiningField name="float(weight)"/>
					</MiningSchema>
					<Node score="0.2982942">
						<True/>
						<Node score="0.1658678">
							<SimplePredicate field="float(weight)" operator="greaterOrEqual" value="2398.0"/>
							<Node score="0.5553853">
								<SimplePredicate field="model_year" operator="equal" value="79"/>
								<Node score="0.30107436">
									<SimplePredicate field="float(weight)" operator="greaterOrEqual" value="2795.0"/>
								</Node>
							</Node>
							<Node score="0.4257937">
								<SimplePredicate field="model_year" operator="equal" value="81"/>
							</Node>
						</Node>
						<Node score="0.23581958">
							<SimplePredicate field="model_year" operator="equal" value="82"/>
							<Node score="0.6889431">
								<SimplePredicate field="float(weight)" operator="greaterOrEqual" value="1975.0"/>
							</Node>
						</Node>
						<Node score="0.6126819">
							<SimplePredicate field="model_year" operator="equal" value="80"/>
						</Node>
					</Node>
				</TreeModel>
			</Segment>
			<Segment id="23">
				<True/>
				<TreeModel functionName="regression" noTrueChildStrategy="returnLastPrediction" x-mathContext="float">
					<MiningSchema>
						<MiningField name="model_year"/>
						<MiningField name="float(displacement)"/>
						<MiningField name="float(horsepower)"/>
						<MiningField name="float(weight)"/>
					</MiningSchema>
					<Node score="0.60149026">
						<True/>
						<Node score="0.16608444">
							<SimplePredicate field="float(horsepower)" operator="greaterOrEqual" value="67.5"/>
							<Node score="0.012088776">
								<SimplePredicate field="model_year" operator="equal" value="82"/>
								<Node score="0.432144">
									<SimplePredicate field="float(weight)" operator="greaterOrEqual" value="1975.0"/>
								</Node>
							</Node>
							<Node score="0.39431778">
								<SimplePredicate field="model_year" operator="equal" value="79"/>
							</Node>
						</Node>
						<Node score="0.16748206">
							<SimplePredicate field="float(displacement)" operator="greaterOrEqual" value="94.0"/>
							<Node score="0.6525767">
								<SimplePredicate field="model_year" operator="equal" value="82"/>
							</Node>
						</Node>
						<Node score="0.12069185">
							<SimplePredicate field="model_year" operator="equal" value="74"/>
						</Node>
					</Node>
				</TreeModel>
			</Segment>
			<Segment id="24">
				<True/>
				<TreeModel functionName="regression" noTrueChildStrategy="returnLastPrediction" x-mathContext="float">
					<MiningSchema>
						<MiningField name="model_year"/>
						<MiningField name="float(weight)"/>
						<MiningField name="float(acceleration)"/>
					</MiningSchema>
					<Node score="0.21323012">
						<True/>
						<Node score="0.094055675">
							<SimplePredicate field="float(weight)" operator="greaterOrEqual" value="3085.5"/>
							<Node score="0.10415331">
								<SimplePredicate field="model_year" operator="equal" value="81"/>
								<Node score="0.50782573">
									<SimplePredicate field="float(acceleration)" operator="greaterOrEqual" value="17.8"/>
								</Node>
							</Node>
							<Node score="0.263237">
								<SimplePredicate field="model_year" operator="equal" value="79"/>
							</Node>
						</Node>
						<Node score="-0.10199528">
							<SimplePredicate field="model_year" operator="equal" value="80"/>
							<Node score="0.52473855">
								<SimplePredicate field="float(weight)" operator="greaterOrEqual" value="1847.5"/>
							</Node>
						</Node>
						<Node score="0.46779186">
							<SimplePredicate field="model_year" operator="equal" value="81"/>
						</Node>
					</Node>
				</TreeModel>
			</Segment>
			<Segment id="25">
				<True/>
				<TreeModel functionName="regression" noTrueChildStrategy="returnLastPrediction" x-mathContext="float">
					<MiningSchema>
						<MiningField name="model_year"/>
						<MiningField name="origin"/>
						<MiningField name="float(weight)"/>
						<MiningField name="float(acceleration)"/>
					</MiningSchema>
					<Node score="0.3995027">
						<True/>
						<Node score="0.12543507">
							<SimplePredicate field="float(weight)" operator="greaterOrEqual" value="2144.5"/>
							<Node score="0.48367953">
								<SimplePredicate field="model_year" operator="equal" value="81"/>
								<Node score="0.23898838">
									<SimplePredicate field="origin" operator="equal" value="1"/>
								</Node>
							</Node>
							<Node score="0.3533424">
								<SimplePredicate field="model_year" operator="equal" value="82"/>
							</Node>
						</Node>
						<Node score="-0.12959185">
							<SimplePredicate field="model_year" operator="equal" value="74"/>
							<Node score="0.1595019">
								<SimplePredicate field="float(acceleration)" operator="greaterOrEqual" value="15.75"/>
							</Node>
						</Node>
						<Node score="0.083095334">
							<SimplePredicate field="model_year" operator="equal" value="71"/>
						</Node>
					</Node>
				</TreeModel>
			</Segment>
			<Segment id="26">
				<True/>
				<TreeModel functionName="regression" noTrueChildStrategy="returnLastPrediction" x-mathContext="float">
					<MiningSchema>
						<MiningField name="model_year"/>
						<MiningField name="origin"/>
						<MiningField name="float(displacement)"/>
						<MiningField name="float(weight)"/>
					</MiningSchema>
					<Node score="0.11055503">
						<True/>
						<Node score="-0.116870694">
							<SimplePredicate field="model_year" operator="equal" value="80"/>
							<Node score="-0.032132722">
								<SimplePredicate field="origin" operator="equal" value="1"/>
								<Node score="0.1512744">
									<SimplePredicate field="float(displacement)" operator="greaterOrEqual" value="119.0"/>
								</Node>
							</Node>
							<Node score="0.5155775">
								<SimplePredicate field="float(weight)" operator="greaterOrEqual" value="1847.5"/>
							</Node>
						</Node>
						<Node score="0.4636128">
							<SimplePredicate field="model_year" operator="equal" value="81"/>
							<Node score="0.203161">
								<SimplePredicate field="float(displacement)" operator="greaterOrEqual" value="145.5"/>
							</Node>
						</Node>
						<Node score="0.36200485">
							<SimplePredicate field="model_year" operator="equal" value="82"/>
						</Node>
					</Node>
				</TreeModel>
			</Segment>
			<Segment id="27">
				<True/>
				<TreeModel functionName="regression" noTrueChildStrategy="returnLastPrediction" x-mathContext="float">
					<MiningSchema>
						<MiningField name="model_year"/>
						<MiningField name="float(weight)"/>
						<MiningField name="float(acceleration)"/>
					</MiningSchema>
					<Node score="0.2775527">
						<True/>
						<Node score="0.16076198">
							<SimplePredicate field="float(weight)" operator="greaterOrEqual" value="2144.5"/>
							<Node score="0.013206877">
								<SimplePredicate field="model_year" operator="equal" value="73"/>
								<Node score="-0.13291493">
									<SimplePredicate field="float(acceleration)" operator="greaterOrEqual" value="17.25"/>
								</Node>
							</Node>
							<Node score="-0.018834388">
								<SimplePredicate field="model_year" operator="equal" value="72"/>
							</Node>
						</Node>
						<Node score="0.81775934">
							<SimplePredicate field="float(acceleration)" operator="greaterOrEqual" value="21.25"/>
							<Node score="-0.047473527">
								<SimplePredicate field="model_year" operator="equal" value="76"/>
							</Node>
						</Node>
						<Node score="-0.05524821">
							<SimplePredicate field="float(acceleration)" operator="greaterOrEqual" value="19.45"/>
						</Node>
					</Node>
				</TreeModel>
			</Segment>
			<Segment id="28">
				<True/>
				<TreeModel functionName="regression" noTrueChildStrategy="returnLastPrediction" x-mathContext="float">
					<MiningSchema>
						<MiningField name="cylinders"/>
						<MiningField name="model_year"/>
						<MiningField name="float(displacement)"/>
						<MiningField name="float(acceleration)"/>
					</MiningSchema>
					<Node score="0.08571019">
						<True/>
						<Node score="0.64473027">
							<SimplePredicate field="model_year" operator="equal" value="80"/>
							<Node score="0.05483656">
								<SimplePredicate field="float(acceleration)" operator="greaterOrEqual" value="15.15"/>
								<Node score="0.3941259">
									<SimplePredicate field="float(acceleration)" operator="greaterOrEqual" value="17.7"/>
								</Node>
							</Node>
							<Node score="-0.019653225">
								<SimplePredicate field="cylinders" operator="equal" value="3"/>
							</Node>
						</Node>
						<Node score="0.39962545">
							<SimplePredicate field="model_year" operator="equal" value="81"/>
							<Node score="0.17040783">
								<SimplePredicate field="float(displacement)" operator="greaterOrEqual" value="145.5"/>
							</Node>
						</Node>
						<Node score="0.30628115">
							<SimplePredicate field="model_year" operator="equal" value="82"/>
						</Node>
					</Node>
				</TreeModel>
			</Segment>
			<Segment id="29">
				<True/>
				<TreeModel functionName="regression" noTrueChildStrategy="returnLastPrediction" x-mathContext="float">
					<MiningSchema>
						<MiningField name="model_year"/>
						<MiningField name="float(displacement)"/>
						<MiningField name="float(weight)"/>
						<MiningField name="float(acceleration)"/>
					</MiningSchema>
					<Node score="0.1636999">
						<True/>
						<Node score="0.06220166">
							<SimplePredicate field="float(displacement)" operator="greaterOrEqual" value="119.5"/>
							<Node score="0.41826883">
								<SimplePredicate field="model_year" operator="equal" value="79"/>
								<Node score="0.16552679">
									<SimplePredicate field="float(weight)" operator="greaterOrEqual" value="2795.0"/>
								</Node>
							</Node>
							<Node score="0.2282201">
								<SimplePredicate field="model_year" operator="equal" value="82"/>
							</Node>
						</Node>
						<Node score="0.6367568">
							<SimplePredicate field="float(acceleration)" operator="greaterOrEqual" value="23.6"/>
						</Node>
						<Node score="0.38238138">
							<SimplePredicate field="model_year" operator="equal" value="81"/>
						</Node>
					</Node>
				</TreeModel>
			</Segment>
			<Segment id="30">
				<True/>
				<TreeModel functionName="regression" noTrueChildStrategy="returnLastPrediction" x-mathContext="float">
					<MiningSchema>
						<MiningField name="model_year"/>
						<MiningField name="origin"/>
						<MiningField name="float(displacement)"/>
						<MiningField name="float(weight)"/>
					</MiningSchema>
					<Node score="0.06688573">
						<True/>
						<Node score="-0.13583164">
							<SimplePredicate field="model_year" operator="equal" value="80"/>
							<Node score="-0.05533066">
								<SimplePredicate field="origin" operator="equal" value="1"/>
								<Node score="0.08872213">
									<SimplePredicate field="float(displacement)" operator="greaterOrEqual" value="119.0"/>
								</Node>
							</Node>
							<Node score="0.3979172">
								<SimplePredicate field="float(weight)" operator="greaterOrEqual" value="1847.5"/>
							</Node>
						</Node>
						<Node score="0.3333392">
							<SimplePredicate field="model_year" operator="equal" value="81"/>
							<Node score="0.14947288">
								<SimplePredicate field="float(displacement)" operator="greaterOrEqual" value="145.5"/>
							</Node>
						</Node>
						<Node score="0.2563592">
							<SimplePredicate field="model_year" operator="equal" value="82"/>
						</Node>
					</Node>
				</TreeModel>
			</Segment>
			<Segment id="31">
				<True/>
				<TreeModel functionName="regression" noTrueChildStrategy="returnLastPrediction" x-mathContext="float">
					<MiningSchema>
						<MiningField name="model_year"/>
						<MiningField name="origin"/>
						<MiningField name="float(displacement)"/>
						<MiningField name="float(horsepower)"/>
						<MiningField name="float(weight)"/>
					</MiningSchema>
					<Node score="0.6668052">
						<True/>
						<Node score="0.05246721">
							<SimplePredicate field="float(horsepower)" operator="greaterOrEqual" value="66.5"/>
							<Node score="0.46606857">
								<SimplePredicate field="model_year" operator="equal" value="79"/>
								<Node score="0.16305147">
									<SimplePredicate field="float(weight)" operator="greaterOrEqual" value="2632.5"/>
								</Node>
							</Node>
							<Node score="0.16164798">
								<SimplePredicate field="origin" operator="equal" value="3"/>
							</Node>
						</Node>
						<Node score="-0.0420607">
							<SimplePredicate field="float(displacement)" operator="greaterOrEqual" value="94.0"/>
							<Node score="0.44338748">
								<SimplePredicate field="model_year" operator="equal" value="82"/>
							</Node>
						</Node>
						<Node score="0.25358543">
							<SimplePredicate field="float(horsepower)" operator="greaterOrEqual" value="48.5"/>
						</Node>
					</Node>
				</TreeModel>
			</Segment>
		</Segmentation>
		<ModelVerification recordCount="3">
			<VerificationFields>
				<VerificationField field="cylinders" column="data:cylinders"/>
				<VerificationField field="displacement" column="data:displacement"/>
				<VerificationField field="horsepower" column="data:horsepower"/>
				<VerificationField field="weight" column="data:weight"/>
				<VerificationField field="acceleration" column="data:acceleration"/>
				<VerificationField field="model_year" column="data:model_year"/>
				<VerificationField field="origin" column="data:origin"/>
				<VerificationField field="mpg" column="data:mpg" precision="1.0E-5" zeroThreshold="1.0E-5"/>
			</VerificationFields>
			<InlineTable>
				<row>
					<data:cylinders>6.0</data:cylinders>
					<data:displacement>258.0</data:displacement>
					<data:horsepower>110.0</data:horsepower>
					<data:weight>2962.0</data:weight>
					<data:acceleration>13.5</data:acceleration>
					<data:model_year>71.0</data:model_year>
					<data:origin>1.0</data:origin>
					<data:mpg>18.709837</data:mpg>
				</row>
				<row>
					<data:cylinders>6.0</data:cylinders>
					<data:displacement>198.0</data:displacement>
					<data:horsepower>95.0</data:horsepower>
					<data:weight>2904.0</data:weight>
					<data:acceleration>16.0</data:acceleration>
					<data:model_year>73.0</data:model_year>
					<data:origin>1.0</data:origin>
					<data:mpg>19.648237</data:mpg>
				</row>
				<row>
					<data:cylinders>8.0</data:cylinders>
					<data:displacement>350.0</data:displacement>
					<data:horsepower>165.0</data:horsepower>
					<data:weight>4209.0</data:weight>
					<data:acceleration>12.0</data:acceleration>
					<data:model_year>71.0</data:model_year>
					<data:origin>1.0</data:origin>
					<data:mpg>14.103001</data:mpg>
				</row>
			</InlineTable>
		</ModelVerification>
	</MiningModel>
</PMML>
