<?xml version="1.0" encoding="UTF-8" standalone="yes"?>
<PMML xmlns="http://www.dmg.org/PMML-4_4" xmlns:data="http://jpmml.org/jpmml-model/InlineTable" version="4.4">
	<Header>
		<Application name="SkLearn2PMML package" version="0.126.0"/>
		<Timestamp>2026-01-16T20:25:37Z</Timestamp>
	</Header>
	<DataDictionary>
		<DataField name="Adjusted" optype="categorical" dataType="integer">
			<Value value="0"/>
			<Value value="1"/>
		</DataField>
		<DataField name="Employment" optype="categorical" dataType="string">
			<Value value="Consultant"/>
			<Value value="PSFederal"/>
			<Value value="PSLocal"/>
			<Value value="PSState"/>
			<Value value="Private"/>
			<Value value="SelfEmp"/>
			<Value value="Volunteer"/>
		</DataField>
		<DataField name="Education" optype="categorical" dataType="string">
			<Value value="Associate"/>
			<Value value="Bachelor"/>
			<Value value="College"/>
			<Value value="Doctorate"/>
			<Value value="HSgrad"/>
			<Value value="Master"/>
			<Value value="Preschool"/>
			<Value value="Professional"/>
			<Value value="Vocational"/>
			<Value value="Yr10"/>
			<Value value="Yr11"/>
			<Value value="Yr12"/>
			<Value value="Yr1t4"/>
			<Value value="Yr5t6"/>
			<Value value="Yr7t8"/>
			<Value value="Yr9"/>
		</DataField>
		<DataField name="Marital" optype="categorical" dataType="string">
			<Value value="Absent"/>
			<Value value="Divorced"/>
			<Value value="Married"/>
			<Value value="Married-spouse-absent"/>
			<Value value="Unmarried"/>
			<Value value="Widowed"/>
		</DataField>
		<DataField name="Occupation" optype="categorical" dataType="string">
			<Value value="Cleaner"/>
			<Value value="Clerical"/>
			<Value value="Executive"/>
			<Value value="Farming"/>
			<Value value="Home"/>
			<Value value="Machinist"/>
			<Value value="Military"/>
			<Value value="Professional"/>
			<Value value="Protective"/>
			<Value value="Repair"/>
			<Value value="Sales"/>
			<Value value="Service"/>
			<Value value="Support"/>
			<Value value="Transport"/>
		</DataField>
		<DataField name="Gender" optype="categorical" dataType="string">
			<Value value="Female"/>
			<Value value="Male"/>
		</DataField>
		<DataField name="Age" optype="continuous" dataType="integer">
			<Interval closure="closedClosed" leftMargin="17" rightMargin="83"/>
		</DataField>
		<DataField name="Income" optype="continuous" dataType="double">
			<Interval closure="closedClosed" leftMargin="609.72" rightMargin="481259.5"/>
		</DataField>
		<DataField name="Hours" optype="continuous" dataType="double">
			<Interval closure="closedClosed" leftMargin="1.0" rightMargin="99.0"/>
		</DataField>
	</DataDictionary>
	<MiningModel functionName="classification" algorithmName="sklearn.ensemble._gb.GradientBoostingClassifier">
		<MiningSchema>
			<MiningField name="Adjusted" usageType="target"/>
			<MiningField name="Employment" missingValueTreatment="asIs"/>
			<MiningField name="Education" missingValueTreatment="asIs"/>
			<MiningField name="Marital" missingValueTreatment="asIs"/>
			<MiningField name="Occupation" missingValueTreatment="asIs"/>
			<MiningField name="Gender" missingValueTreatment="asIs"/>
			<MiningField name="Age" missingValueTreatment="asIs"/>
			<MiningField name="Income" missingValueTreatment="asIs"/>
			<MiningField name="Hours" missingValueTreatment="asIs"/>
		</MiningSchema>
		<ModelStats>
			<UnivariateStats field="Employment">
				<Counts totalFreq="1899" missingFreq="0" invalidFreq="0"/>
				<DiscrStats>
					<Array type="string">Consultant PSFederal PSLocal PSState Private SelfEmp Volunteer</Array>
					<Array type="int">148 69 119 72 1411 79 1</Array>
				</DiscrStats>
			</UnivariateStats>
			<UnivariateStats field="Education">
				<Counts totalFreq="1899" missingFreq="0" invalidFreq="0"/>
				<DiscrStats>
					<Array type="string">Associate Bachelor College Doctorate HSgrad Master Preschool Professional Vocational Yr10 Yr11 Yr12 Yr1t4 Yr5t6 Yr7t8 Yr9</Array>
					<Array type="int">67 332 418 24 633 98 6 23 81 54 65 15 5 21 32 25</Array>
				</DiscrStats>
			</UnivariateStats>
			<UnivariateStats field="Marital">
				<Counts totalFreq="1899" missingFreq="0" invalidFreq="0"/>
				<DiscrStats>
					<Array type="string">Absent Divorced Married Married-spouse-absent Unmarried Widowed</Array>
					<Array type="int">633 256 878 21 64 47</Array>
				</DiscrStats>
			</UnivariateStats>
			<UnivariateStats field="Occupation">
				<Counts totalFreq="1899" missingFreq="0" invalidFreq="0"/>
				<DiscrStats>
					<Array type="string">Cleaner Clerical Executive Farming Home Machinist Military Professional Protective Repair Sales Service Support Transport</Array>
					<Array type="int">91 232 289 58 5 139 1 247 40 225 206 210 49 107</Array>
				</DiscrStats>
			</UnivariateStats>
			<UnivariateStats field="Gender">
				<Counts totalFreq="1899" missingFreq="0" invalidFreq="0"/>
				<DiscrStats>
					<Array type="string">Female Male</Array>
					<Array type="int">592 1307</Array>
				</DiscrStats>
			</UnivariateStats>
			<UnivariateStats field="Age">
				<Counts totalFreq="1899" missingFreq="0" invalidFreq="0"/>
				<NumericInfo minimum="17" maximum="83" mean="38.30279094260137" standardDeviation="13.010323102003973" median="37.0" interQuartileRange="19.0"/>
			</UnivariateStats>
			<UnivariateStats field="Income">
				<Counts totalFreq="1899" missingFreq="0" invalidFreq="0"/>
				<NumericInfo minimum="609.72" maximum="481259.5" mean="84404.87069510268" standardDeviation="69670.62788525566" median="59534.87" interQuartileRange="79343.92"/>
			</UnivariateStats>
			<UnivariateStats field="Hours">
				<Counts totalFreq="1899" missingFreq="0" invalidFreq="0"/>
				<NumericInfo minimum="1.0" maximum="99.0" mean="40.56714060031596" standardDeviation="11.656262333704255" median="40.0" interQuartileRange="5.0"/>
			</UnivariateStats>
		</ModelStats>
		<Segmentation multipleModelMethod="modelChain" missingPredictionTreatment="returnMissing">
			<Segment id="1">
				<True/>
				<MiningModel functionName="regression">
					<MiningSchema>
						<MiningField name="Employment"/>
						<MiningField name="Education"/>
						<MiningField name="Marital"/>
						<MiningField name="Occupation"/>
						<MiningField name="Gender"/>
						<MiningField name="Age"/>
						<MiningField name="Hours"/>
						<MiningField name="Income"/>
					</MiningSchema>
					<Output>
						<OutputField name="decisionFunction(1)" optype="continuous" dataType="double" isFinalResult="false"/>
					</Output>
					<Targets>
						<Target rescaleConstant="-1.1781386007711727" rescaleFactor="0.1"/>
					</Targets>
					<LocalTransformations>
						<DerivedField name="float(Age)" optype="continuous" dataType="float">
							<FieldRef field="Age"/>
						</DerivedField>
						<DerivedField name="float(Income)" optype="continuous" dataType="float">
							<FieldRef field="Income"/>
						</DerivedField>
						<DerivedField name="float(Hours)" optype="continuous" dataType="float">
							<FieldRef field="Hours"/>
						</DerivedField>
						<DerivedField name="double(float(Age))" optype="continuous" dataType="double">
							<FieldRef field="float(Age)"/>
						</DerivedField>
						<DerivedField name="double(float(Hours))" optype="continuous" dataType="double">
							<FieldRef field="float(Hours)"/>
						</DerivedField>
						<DerivedField name="double(float(Income))" optype="continuous" dataType="double">
							<FieldRef field="float(Income)"/>
						</DerivedField>
					</LocalTransformations>
					<Segmentation multipleModelMethod="sum" missingPredictionTreatment="returnMissing">
						<Segment id="1">
							<True/>
							<TreeModel functionName="regression" missingValueStrategy="nullPrediction" noTrueChildStrategy="returnLastPrediction">
								<MiningSchema>
									<MiningField name="Education"/>
									<MiningField name="Marital"/>
									<MiningField name="Occupation"/>
									<MiningField name="Gender"/>
									<MiningField name="double(float(Age))"/>
								</MiningSchema>
								<Node score="-1.0355987436907204">
									<True/>
									<Node score="0.48077991926249725">
										<SimplePredicate field="Marital" operator="equal" value="Married"/>
										<Node score="2.7010333562453157">
											<SimplePredicate field="Occupation" operator="equal" value="Executive"/>
											<Node score="0.6368094458927286">
												<SimplePredicate field="double(float(Age))" operator="lessOrEqual" value="31.5"/>
											</Node>
										</Node>
										<Node score="2.428196382839142">
											<SimplePredicate field="Occupation" operator="equal" value="Professional"/>
										</Node>
									</Node>
									<Node score="3.4545830923195155">
										<SimplePredicate field="Education" operator="equal" value="Professional"/>
										<Node score="-1.3078512396694213">
											<SimplePredicate field="Gender" operator="equal" value="Female"/>
										</Node>
									</Node>
									<Node score="1.4702354539907923">
										<SimplePredicate field="Education" operator="equal" value="Doctorate"/>
									</Node>
								</Node>
							</TreeModel>
						</Segment>
						<Segment id="2">
							<True/>
							<TreeModel functionName="regression" missingValueStrategy="nullPrediction" noTrueChildStrategy="returnLastPrediction">
								<MiningSchema>
									<MiningField name="Employment"/>
									<MiningField name="Marital"/>
									<MiningField name="Occupation"/>
									<MiningField name="double(float(Age))"/>
									<MiningField name="double(float(Hours))"/>
								</MiningSchema>
								<Node score="-0.44259530822277876">
									<True/>
									<Node score="0.4214131503622326">
										<SimplePredicate field="Marital" operator="equal" value="Married"/>
										<Node score="2.153029824032915">
											<SimplePredicate field="Occupation" operator="equal" value="Executive"/>
											<Node score="0.2364252144949965">
												<SimplePredicate field="Employment" operator="equal" value="Consultant"/>
											</Node>
										</Node>
										<Node score="1.9295907486274726">
											<SimplePredicate field="Occupation" operator="equal" value="Professional"/>
										</Node>
									</Node>
									<Node score="0.6998706439689257">
										<SimplePredicate field="Occupation" operator="equal" value="Professional"/>
										<Node score="-0.5353164701149319">
											<SimplePredicate field="double(float(Age))" operator="lessOrEqual" value="47.5"/>
										</Node>
									</Node>
									<Node score="-1.1327978651648638">
										<SimplePredicate field="double(float(Hours))" operator="lessOrEqual" value="49.5"/>
									</Node>
								</Node>
							</TreeModel>
						</Segment>
						<Segment id="3">
							<True/>
							<TreeModel functionName="regression" missingValueStrategy="nullPrediction" noTrueChildStrategy="returnLastPrediction">
								<MiningSchema>
									<MiningField name="Education"/>
									<MiningField name="Marital"/>
									<MiningField name="Gender"/>
									<MiningField name="double(float(Hours))"/>
								</MiningSchema>
								<Node score="-1.0286440079578598">
									<True/>
									<Node score="0.39991612481980643">
										<SimplePredicate field="Marital" operator="equal" value="Married"/>
										<Node score="2.240074559714446">
											<SimplePredicate field="Education" operator="equal" value="Bachelor"/>
											<Node score="1.1877463332566334">
												<SimplePredicate field="double(float(Hours))" operator="lessOrEqual" value="41.0"/>
											</Node>
										</Node>
										<Node score="2.4067653462573517">
											<SimplePredicate field="Education" operator="equal" value="Master"/>
										</Node>
									</Node>
									<Node score="-1.25603135238447">
										<SimplePredicate field="Education" operator="equal" value="Professional"/>
										<Node score="2.6948518833877557">
											<SimplePredicate field="Gender" operator="equal" value="Male"/>
										</Node>
									</Node>
									<Node score="-0.3297427423603313">
										<SimplePredicate field="Education" operator="equal" value="Bachelor"/>
									</Node>
								</Node>
							</TreeModel>
						</Segment>
						<Segment id="4">
							<True/>
							<TreeModel functionName="regression" missingValueStrategy="nullPrediction" noTrueChildStrategy="returnLastPrediction">
								<MiningSchema>
									<MiningField name="Education"/>
									<MiningField name="Marital"/>
									<MiningField name="Occupation"/>
									<MiningField name="double(float(Age))"/>
									<MiningField name="double(float(Hours))"/>
								</MiningSchema>
								<Node score="-0.5487613938213554">
									<True/>
									<Node score="0.30211545798005596">
										<SimplePredicate field="Marital" operator="equal" value="Married"/>
										<Node score="1.6972496417840337">
											<SimplePredicate field="Occupation" operator="equal" value="Executive"/>
											<Node score="0.6686201615894254">
												<SimplePredicate field="Education" operator="equal" value="HSgrad"/>
											</Node>
										</Node>
										<Node score="1.4011890272672676">
											<SimplePredicate field="Occupation" operator="equal" value="Professional"/>
										</Node>
									</Node>
									<Node score="-0.5666415559341412">
										<SimplePredicate field="double(float(Age))" operator="lessOrEqual" value="38.5"/>
										<Node score="-1.1250646061386953">
											<SimplePredicate field="double(float(Hours))" operator="lessOrEqual" value="49.0"/>
										</Node>
									</Node>
									<Node score="2.3381616415203825">
										<SimplePredicate field="Education" operator="equal" value="Professional"/>
									</Node>
								</Node>
							</TreeModel>
						</Segment>
						<Segment id="5">
							<True/>
							<TreeModel functionName="regression" missingValueStrategy="nullPrediction" noTrueChildStrategy="returnLastPrediction">
								<MiningSchema>
									<MiningField name="Education"/>
									<MiningField name="Marital"/>
									<MiningField name="Occupation"/>
									<MiningField name="double(float(Age))"/>
									<MiningField name="double(float(Hours))"/>
								</MiningSchema>
								<Node score="-0.8710829849727916">
									<True/>
									<Node score="0.2678828292477025">
										<SimplePredicate field="Marital" operator="equal" value="Married"/>
										<Node score="1.3999152318142754">
											<SimplePredicate field="Occupation" operator="equal" value="Executive"/>
											<Node score="0.045125783763075904">
												<SimplePredicate field="double(float(Age))" operator="lessOrEqual" value="31.5"/>
											</Node>
										</Node>
										<Node score="1.213214115611676">
											<SimplePredicate field="Occupation" operator="equal" value="Professional"/>
										</Node>
									</Node>
									<Node score="4.45092959804441">
										<SimplePredicate field="Education" operator="equal" value="Doctorate"/>
										<Node score="0.8537651675763905">
											<SimplePredicate field="double(float(Hours))" operator="lessOrEqual" value="47.5"/>
										</Node>
									</Node>
									<Node score="1.128794502030348">
										<SimplePredicate field="Education" operator="equal" value="Professional"/>
									</Node>
								</Node>
							</TreeModel>
						</Segment>
						<Segment id="6">
							<True/>
							<TreeModel functionName="regression" missingValueStrategy="nullPrediction" noTrueChildStrategy="returnLastPrediction">
								<MiningSchema>
									<MiningField name="Employment"/>
									<MiningField name="Education"/>
									<MiningField name="Marital"/>
									<MiningField name="Occupation"/>
									<MiningField name="double(float(Hours))"/>
								</MiningSchema>
								<Node score="-0.142214494938759">
									<True/>
									<Node score="0.23835544054129232">
										<SimplePredicate field="Marital" operator="equal" value="Married"/>
										<Node score="0.5170006016671972">
											<SimplePredicate field="Education" operator="equal" value="Bachelor"/>
											<Node score="1.437885462803615">
												<SimplePredicate field="Employment" operator="equal" value="Private"/>
											</Node>
										</Node>
										<Node score="1.661644427706236">
											<SimplePredicate field="Education" operator="equal" value="Master"/>
										</Node>
									</Node>
									<Node score="-1.003225619122195">
										<SimplePredicate field="double(float(Hours))" operator="lessOrEqual" value="49.5"/>
										<Node score="-0.22994692186132393">
											<SimplePredicate field="Occupation" operator="equal" value="Professional"/>
										</Node>
									</Node>
									<Node score="3.2112456263949913">
										<SimplePredicate field="Education" operator="equal" value="Doctorate"/>
									</Node>
								</Node>
							</TreeModel>
						</Segment>
						<Segment id="7">
							<True/>
							<TreeModel functionName="regression" missingValueStrategy="nullPrediction" noTrueChildStrategy="returnLastPrediction">
								<MiningSchema>
									<MiningField name="Education"/>
									<MiningField name="Marital"/>
									<MiningField name="double(float(Age))"/>
									<MiningField name="double(float(Hours))"/>
								</MiningSchema>
								<Node score="-0.4061883220155598">
									<True/>
									<Node score="1.1355840792618686">
										<SimplePredicate field="Marital" operator="equal" value="Married"/>
										<Node score="0.3792699149621642">
											<SimplePredicate field="Education" operator="equal" value="HSgrad"/>
											<Node score="-0.534582805492771">
												<SimplePredicate field="double(float(Age))" operator="lessOrEqual" value="37.5"/>
											</Node>
										</Node>
										<Node score="0.41504346371287576">
											<SimplePredicate field="double(float(Hours))" operator="lessOrEqual" value="41.5"/>
										</Node>
									</Node>
									<Node score="-0.9951249214153669">
										<SimplePredicate field="double(float(Age))" operator="lessOrEqual" value="38.5"/>
										<Node score="-0.12533159483924206">
											<SimplePredicate field="Education" operator="equal" value="Associate"/>
										</Node>
									</Node>
									<Node score="1.83517928385644">
										<SimplePredicate field="Education" operator="equal" value="Professional"/>
									</Node>
								</Node>
							</TreeModel>
						</Segment>
						<Segment id="8">
							<True/>
							<TreeModel functionName="regression" missingValueStrategy="nullPrediction" noTrueChildStrategy="returnLastPrediction">
								<MiningSchema>
									<MiningField name="Education"/>
									<MiningField name="Marital"/>
									<MiningField name="double(float(Age))"/>
									<MiningField name="double(float(Hours))"/>
								</MiningSchema>
								<Node score="-0.8672243401062498">
									<True/>
									<Node score="0.8022945986484522">
										<SimplePredicate field="Marital" operator="equal" value="Married"/>
										<Node score="0.5389820949798083">
											<SimplePredicate field="double(float(Age))" operator="lessOrEqual" value="36.5"/>
											<Node score="-0.4468406385704783">
												<SimplePredicate field="double(float(Hours))" operator="lessOrEqual" value="41.5"/>
											</Node>
										</Node>
										<Node score="-0.23853838030308963">
											<SimplePredicate field="double(float(Hours))" operator="lessOrEqual" value="37.5"/>
										</Node>
									</Node>
									<Node score="0.8234776039406042">
										<SimplePredicate field="Education" operator="equal" value="Bachelor"/>
										<Node score="-0.5373097380265128">
											<SimplePredicate field="double(float(Age))" operator="lessOrEqual" value="40.5"/>
										</Node>
									</Node>
									<Node score="1.321720431156257">
										<SimplePredicate field="Education" operator="equal" value="Doctorate"/>
									</Node>
								</Node>
							</TreeModel>
						</Segment>
						<Segment id="9">
							<True/>
							<TreeModel functionName="regression" missingValueStrategy="nullPrediction" noTrueChildStrategy="returnLastPrediction">
								<MiningSchema>
									<MiningField name="Employment"/>
									<MiningField name="Education"/>
									<MiningField name="Marital"/>
									<MiningField name="Occupation"/>
									<MiningField name="double(float(Hours))"/>
								</MiningSchema>
								<Node score="-0.05400494966511425">
									<True/>
									<Node score="0.1285528835593538">
										<SimplePredicate field="Marital" operator="equal" value="Married"/>
										<Node score="0.3175876528357782">
											<SimplePredicate field="Education" operator="equal" value="Bachelor"/>
											<Node score="1.1194884738684145">
												<SimplePredicate field="Employment" operator="equal" value="Private"/>
											</Node>
										</Node>
										<Node score="1.3303237500340315">
											<SimplePredicate field="Education" operator="equal" value="Master"/>
										</Node>
									</Node>
									<Node score="-0.9239622166773009">
										<SimplePredicate field="double(float(Hours))" operator="lessOrEqual" value="49.5"/>
										<Node score="-0.12726293590713023">
											<SimplePredicate field="Occupation" operator="equal" value="Professional"/>
										</Node>
									</Node>
									<Node score="1.6702007407104735">
										<SimplePredicate field="Education" operator="equal" value="Professional"/>
									</Node>
								</Node>
							</TreeModel>
						</Segment>
						<Segment id="10">
							<True/>
							<TreeModel functionName="regression" missingValueStrategy="nullPrediction" noTrueChildStrategy="returnLastPrediction">
								<MiningSchema>
									<MiningField name="Employment"/>
									<MiningField name="Education"/>
									<MiningField name="Marital"/>
									<MiningField name="Occupation"/>
									<MiningField name="double(float(Age))"/>
									<MiningField name="double(float(Income))"/>
								</MiningSchema>
								<Node score="-0.2904737081058105">
									<True/>
									<Node score="0.9316945532090104">
										<SimplePredicate field="Marital" operator="equal" value="Married"/>
										<Node score="0.9464988034418427">
											<SimplePredicate field="Occupation" operator="equal" value="Executive"/>
											<Node score="-0.2831606949017989">
												<SimplePredicate field="Employment" operator="equal" value="Consultant"/>
											</Node>
										</Node>
										<Node score="0.0911322945594031">
											<SimplePredicate field="double(float(Income))" operator="lessOrEqual" value="60801.25"/>
										</Node>
									</Node>
									<Node score="-0.9211486322595835">
										<SimplePredicate field="double(float(Age))" operator="lessOrEqual" value="38.5"/>
										<Node score="0.044566409056802495">
											<SimplePredicate field="Education" operator="equal" value="Associate"/>
										</Node>
									</Node>
									<Node score="1.62780218049063">
										<SimplePredicate field="Education" operator="equal" value="Professional"/>
									</Node>
								</Node>
							</TreeModel>
						</Segment>
						<Segment id="11">
							<True/>
							<TreeModel functionName="regression" missingValueStrategy="nullPrediction" noTrueChildStrategy="returnLastPrediction">
								<MiningSchema>
									<MiningField name="Education"/>
									<MiningField name="Marital"/>
									<MiningField name="double(float(Age))"/>
									<MiningField name="double(float(Hours))"/>
								</MiningSchema>
								<Node score="-0.7845841249452408">
									<True/>
									<Node score="0.6247087071453028">
										<SimplePredicate field="Marital" operator="equal" value="Married"/>
										<Node score="0.39888468634491264">
											<SimplePredicate field="double(float(Age))" operator="lessOrEqual" value="36.5"/>
											<Node score="-0.46848888473518147">
												<SimplePredicate field="double(float(Hours))" operator="lessOrEqual" value="41.5"/>
											</Node>
										</Node>
										<Node score="-0.27622799094648004">
											<SimplePredicate field="double(float(Hours))" operator="lessOrEqual" value="37.5"/>
										</Node>
									</Node>
									<Node score="0.45779087830105547">
										<SimplePredicate field="Education" operator="equal" value="Bachelor"/>
										<Node score="-1.140633540853051">
											<SimplePredicate field="double(float(Age))" operator="lessOrEqual" value="26.5"/>
										</Node>
									</Node>
									<Node score="1.2162591536903111">
										<SimplePredicate field="Education" operator="equal" value="Doctorate"/>
									</Node>
								</Node>
							</TreeModel>
						</Segment>
						<Segment id="12">
							<True/>
							<TreeModel functionName="regression" missingValueStrategy="nullPrediction" noTrueChildStrategy="returnLastPrediction">
								<MiningSchema>
									<MiningField name="Education"/>
									<MiningField name="Marital"/>
									<MiningField name="Occupation"/>
									<MiningField name="double(float(Hours))"/>
									<MiningField name="double(float(Income))"/>
								</MiningSchema>
								<Node score="-1.1856646612586488">
									<True/>
									<Node score="0.518150479145333">
										<SimplePredicate field="Marital" operator="equal" value="Married"/>
										<Node score="2.2025118718616596">
											<SimplePredicate field="Education" operator="equal" value="HSgrad"/>
											<Node score="-0.1451167353678524">
												<SimplePredicate field="double(float(Hours))" operator="lessOrEqual" value="64.5"/>
											</Node>
										</Node>
										<Node score="-0.820581211963856">
											<SimplePredicate field="Occupation" operator="equal" value="Service"/>
										</Node>
									</Node>
									<Node score="-0.8519378351049709">
										<SimplePredicate field="double(float(Hours))" operator="lessOrEqual" value="49.5"/>
										<Node score="-0.043402207003360276">
											<SimplePredicate field="Occupation" operator="equal" value="Professional"/>
										</Node>
									</Node>
									<Node score="0.4001715178971769">
										<SimplePredicate field="double(float(Income))" operator="lessOrEqual" value="128252.98828125"/>
									</Node>
								</Node>
							</TreeModel>
						</Segment>
						<Segment id="13">
							<True/>
							<TreeModel functionName="regression" missingValueStrategy="nullPrediction" noTrueChildStrategy="returnLastPrediction">
								<MiningSchema>
									<MiningField name="Education"/>
									<MiningField name="Marital"/>
									<MiningField name="double(float(Age))"/>
									<MiningField name="double(float(Income))"/>
								</MiningSchema>
								<Node score="-0.31716551454162417">
									<True/>
									<Node score="0.03397746477753591">
										<SimplePredicate field="Marital" operator="equal" value="Married"/>
										<Node score="1.1442620718861296">
											<SimplePredicate field="Education" operator="equal" value="Master"/>
											<Node score="-2.3553866082592934">
												<SimplePredicate field="double(float(Income))" operator="lessOrEqual" value="4613.7601318359375"/>
											</Node>
										</Node>
										<Node score="0.6799559769719519">
											<SimplePredicate field="Education" operator="equal" value="Bachelor"/>
										</Node>
									</Node>
									<Node score="-0.855010643171123">
										<SimplePredicate field="double(float(Age))" operator="lessOrEqual" value="38.5"/>
										<Node score="0.2042973850567504">
											<SimplePredicate field="Education" operator="equal" value="Associate"/>
										</Node>
									</Node>
									<Node score="0.9216770362062914">
										<SimplePredicate field="double(float(Income))" operator="lessOrEqual" value="47019.25"/>
									</Node>
								</Node>
							</TreeModel>
						</Segment>
						<Segment id="14">
							<True/>
							<TreeModel functionName="regression" missingValueStrategy="nullPrediction" noTrueChildStrategy="returnLastPrediction">
								<MiningSchema>
									<MiningField name="Education"/>
									<MiningField name="Marital"/>
									<MiningField name="double(float(Age))"/>
									<MiningField name="double(float(Hours))"/>
									<MiningField name="double(float(Income))"/>
								</MiningSchema>
								<Node score="-0.20765901075428295">
									<True/>
									<Node score="0.09504424359724392">
										<SimplePredicate field="double(float(Age))" operator="lessOrEqual" value="36.5"/>
										<Node score="2.2805444522886473">
											<SimplePredicate field="double(float(Hours))" operator="lessOrEqual" value="49.5"/>
											<Node score="-0.6421424831707501">
												<SimplePredicate field="double(float(Income))" operator="lessOrEqual" value="348648.296875"/>
											</Node>
										</Node>
										<Node score="1.8464538794576102">
											<SimplePredicate field="Education" operator="equal" value="Professional"/>
										</Node>
									</Node>
									<Node score="0.4972123685210991">
										<SimplePredicate field="Marital" operator="equal" value="Married"/>
										<Node score="-0.29157744042994216">
											<SimplePredicate field="double(float(Hours))" operator="lessOrEqual" value="37.5"/>
										</Node>
									</Node>
									<Node score="1.5285783292350483">
										<SimplePredicate field="Education" operator="equal" value="Professional"/>
									</Node>
								</Node>
							</TreeModel>
						</Segment>
						<Segment id="15">
							<True/>
							<TreeModel functionName="regression" missingValueStrategy="nullPrediction" noTrueChildStrategy="returnLastPrediction">
								<MiningSchema>
									<MiningField name="Education"/>
									<MiningField name="Marital"/>
									<MiningField name="Occupation"/>
									<MiningField name="double(float(Age))"/>
									<MiningField name="double(float(Hours))"/>
									<MiningField name="double(float(Income))"/>
								</MiningSchema>
								<Node score="-0.6902804672330889">
									<True/>
									<Node score="0.9529406574068856">
										<SimplePredicate field="Marital" operator="equal" value="Married"/>
										<Node score="0.19508261983477543">
											<SimplePredicate field="double(float(Income))" operator="lessOrEqual" value="59640.005859375"/>
											<Node score="-0.7131285966927905">
												<SimplePredicate field="double(float(Hours))" operator="lessOrEqual" value="37.5"/>
											</Node>
										</Node>
										<Node score="-1.0403749512433411">
											<SimplePredicate field="Occupation" operator="equal" value="Service"/>
										</Node>
									</Node>
									<Node score="0.949565381830458">
										<SimplePredicate field="Education" operator="equal" value="Bachelor"/>
										<Node score="-0.21918544314598828">
											<SimplePredicate field="double(float(Age))" operator="lessOrEqual" value="41.5"/>
										</Node>
									</Node>
									<Node score="1.1068605926559898">
										<SimplePredicate field="Education" operator="equal" value="Doctorate"/>
									</Node>
								</Node>
							</TreeModel>
						</Segment>
						<Segment id="16">
							<True/>
							<TreeModel functionName="regression" missingValueStrategy="nullPrediction" noTrueChildStrategy="returnLastPrediction">
								<MiningSchema>
									<MiningField name="Education"/>
									<MiningField name="Marital"/>
									<MiningField name="Occupation"/>
									<MiningField name="double(float(Age))"/>
									<MiningField name="double(float(Income))"/>
								</MiningSchema>
								<Node score="0.0171712657736037">
									<True/>
									<Node score="-0.5967559899197094">
										<SimplePredicate field="double(float(Age))" operator="lessOrEqual" value="36.5"/>
										<Node score="0.661136862401237">
											<SimplePredicate field="Education" operator="equal" value="Bachelor"/>
											<Node score="-0.3993422260624744">
												<SimplePredicate field="double(float(Age))" operator="lessOrEqual" value="29.5"/>
											</Node>
										</Node>
										<Node score="1.2260072432156939">
											<SimplePredicate field="Education" operator="equal" value="Professional"/>
										</Node>
									</Node>
									<Node score="-0.575123445953767">
										<SimplePredicate field="Occupation" operator="equal" value="Service"/>
										<Node score="-1.1821823318615692">
											<SimplePredicate field="double(float(Income))" operator="lessOrEqual" value="40015.201171875"/>
										</Node>
									</Node>
									<Node score="0.38689641148786647">
										<SimplePredicate field="Marital" operator="equal" value="Married"/>
									</Node>
								</Node>
							</TreeModel>
						</Segment>
						<Segment id="17">
							<True/>
							<TreeModel functionName="regression" missingValueStrategy="nullPrediction" noTrueChildStrategy="returnLastPrediction">
								<MiningSchema>
									<MiningField name="Education"/>
									<MiningField name="Occupation"/>
									<MiningField name="double(float(Hours))"/>
									<MiningField name="double(float(Income))"/>
								</MiningSchema>
								<Node score="0.08383983331126199">
									<True/>
									<Node score="2.6286846935590202">
										<SimplePredicate field="double(float(Hours))" operator="lessOrEqual" value="41.5"/>
										<Node score="1.5235587937446051">
											<SimplePredicate field="Education" operator="equal" value="Master"/>
											<Node score="0.2488174542142584">
												<SimplePredicate field="Occupation" operator="equal" value="Professional"/>
											</Node>
										</Node>
										<Node score="-0.2879416172539661">
											<SimplePredicate field="double(float(Income))" operator="lessOrEqual" value="398425.390625"/>
										</Node>
									</Node>
									<Node score="0.6813519934053408">
										<SimplePredicate field="Education" operator="equal" value="Bachelor"/>
										<Node score="1.428361546885831">
											<SimplePredicate field="double(float(Income))" operator="lessOrEqual" value="28351.0302734375"/>
										</Node>
									</Node>
									<Node score="1.5533592224583577">
										<SimplePredicate field="Education" operator="equal" value="Professional"/>
									</Node>
								</Node>
							</TreeModel>
						</Segment>
						<Segment id="18">
							<True/>
							<TreeModel functionName="regression" missingValueStrategy="nullPrediction" noTrueChildStrategy="returnLastPrediction">
								<MiningSchema>
									<MiningField name="Education"/>
									<MiningField name="Occupation"/>
									<MiningField name="double(float(Age))"/>
									<MiningField name="double(float(Hours))"/>
									<MiningField name="double(float(Income))"/>
								</MiningSchema>
								<Node score="0.3037144697276884">
									<True/>
									<Node score="0.3479286723033605">
										<SimplePredicate field="double(float(Age))" operator="lessOrEqual" value="36.5"/>
										<Node score="1.8884401101571073">
											<SimplePredicate field="double(float(Hours))" operator="lessOrEqual" value="49.5"/>
											<Node score="-0.5629300200925853">
												<SimplePredicate field="double(float(Income))" operator="lessOrEqual" value="348648.296875"/>
											</Node>
										</Node>
										<Node score="-0.9992678700281998">
											<SimplePredicate field="double(float(Age))" operator="lessOrEqual" value="25.5"/>
										</Node>
									</Node>
									<Node score="-0.5230823972701086">
										<SimplePredicate field="Occupation" operator="equal" value="Service"/>
										<Node score="-1.1220529271548878">
											<SimplePredicate field="double(float(Income))" operator="lessOrEqual" value="40015.201171875"/>
										</Node>
									</Node>
									<Node score="-1.44058418160441">
										<SimplePredicate field="Education" operator="equal" value="Yr7t8"/>
									</Node>
								</Node>
							</TreeModel>
						</Segment>
						<Segment id="19">
							<True/>
							<TreeModel functionName="regression" missingValueStrategy="nullPrediction" noTrueChildStrategy="returnLastPrediction">
								<MiningSchema>
									<MiningField name="Education"/>
									<MiningField name="Marital"/>
									<MiningField name="Occupation"/>
									<MiningField name="double(float(Hours))"/>
									<MiningField name="double(float(Income))"/>
								</MiningSchema>
								<Node score="0.14173106800999566">
									<True/>
									<Node score="0.8544319754157563">
										<SimplePredicate field="Marital" operator="equal" value="Married"/>
										<Node score="0.15093949265683795">
											<SimplePredicate field="double(float(Income))" operator="lessOrEqual" value="59640.005859375"/>
											<Node score="-0.6578611066178383">
												<SimplePredicate field="double(float(Hours))" operator="lessOrEqual" value="37.5"/>
											</Node>
										</Node>
										<Node score="-0.8110361866048372">
											<SimplePredicate field="Occupation" operator="equal" value="Machinist"/>
										</Node>
									</Node>
									<Node score="-0.7409879378677722">
										<SimplePredicate field="double(float(Hours))" operator="lessOrEqual" value="49.5"/>
										<Node score="0.07145967814113195">
											<SimplePredicate field="Occupation" operator="equal" value="Professional"/>
										</Node>
									</Node>
									<Node score="2.2975366409119475">
										<SimplePredicate field="Education" operator="equal" value="Doctorate"/>
									</Node>
								</Node>
							</TreeModel>
						</Segment>
						<Segment id="20">
							<True/>
							<TreeModel functionName="regression" missingValueStrategy="nullPrediction" noTrueChildStrategy="returnLastPrediction">
								<MiningSchema>
									<MiningField name="Education"/>
									<MiningField name="Occupation"/>
									<MiningField name="double(float(Age))"/>
									<MiningField name="double(float(Hours))"/>
								</MiningSchema>
								<Node score="0.043678358425979065">
									<True/>
									<Node score="0.37656321293308787">
										<SimplePredicate field="double(float(Age))" operator="lessOrEqual" value="36.5"/>
										<Node score="-0.11912390205950928">
											<SimplePredicate field="Education" operator="equal" value="Bachelor"/>
											<Node score="0.9061183844641603">
												<SimplePredicate field="Occupation" operator="equal" value="Executive"/>
											</Node>
										</Node>
										<Node score="-0.5822114015176095">
											<SimplePredicate field="double(float(Hours))" operator="lessOrEqual" value="55.5"/>
										</Node>
									</Node>
									<Node score="-0.45616930116637905">
										<SimplePredicate field="Occupation" operator="equal" value="Protective"/>
										<Node score="2.4732731854551853">
											<SimplePredicate field="double(float(Age))" operator="lessOrEqual" value="58.0"/>
										</Node>
									</Node>
									<Node score="0.5284888642312456">
										<SimplePredicate field="Occupation" operator="equal" value="Executive"/>
									</Node>
								</Node>
							</TreeModel>
						</Segment>
						<Segment id="21">
							<True/>
							<TreeModel functionName="regression" missingValueStrategy="nullPrediction" noTrueChildStrategy="returnLastPrediction">
								<MiningSchema>
									<MiningField name="Education"/>
									<MiningField name="Occupation"/>
									<MiningField name="double(float(Hours))"/>
								</MiningSchema>
								<Node score="0.05096217757539072">
									<True/>
									<Node score="-0.32186156212957684">
										<SimplePredicate field="double(float(Hours))" operator="lessOrEqual" value="41.5"/>
										<Node score="0.6338627092263027">
											<SimplePredicate field="Education" operator="equal" value="Master"/>
											<Node score="3.2256523895150715">
												<SimplePredicate field="Occupation" operator="equal" value="Sales"/>
											</Node>
										</Node>
										<Node score="0.3276116332385878">
											<SimplePredicate field="Occupation" operator="equal" value="Professional"/>
										</Node>
									</Node>
									<Node score="0.7983897005557081">
										<SimplePredicate field="Education" operator="equal" value="Bachelor"/>
										<Node score="-1.0328198216885793">
											<SimplePredicate field="Occupation" operator="equal" value="Repair"/>
										</Node>
									</Node>
									<Node score="1.3664058848341316">
										<SimplePredicate field="Education" operator="equal" value="Professional"/>
									</Node>
								</Node>
							</TreeModel>
						</Segment>
						<Segment id="22">
							<True/>
							<TreeModel functionName="regression" missingValueStrategy="nullPrediction" noTrueChildStrategy="returnLastPrediction">
								<MiningSchema>
									<MiningField name="Education"/>
									<MiningField name="Marital"/>
									<MiningField name="Occupation"/>
									<MiningField name="double(float(Hours))"/>
									<MiningField name="double(float(Income))"/>
								</MiningSchema>
								<Node score="-0.8314833736426489">
									<True/>
									<Node score="0.769459386080878">
										<SimplePredicate field="Marital" operator="equal" value="Married"/>
										<Node score="0.1223784144665345">
											<SimplePredicate field="double(float(Income))" operator="lessOrEqual" value="59640.005859375"/>
											<Node score="-0.7012364122801815">
												<SimplePredicate field="double(float(Hours))" operator="lessOrEqual" value="33.5"/>
											</Node>
										</Node>
										<Node score="-0.9329558969318233">
											<SimplePredicate field="Occupation" operator="equal" value="Service"/>
										</Node>
									</Node>
									<Node score="-0.1837408211605725">
										<SimplePredicate field="double(float(Income))" operator="lessOrEqual" value="105708.87890625"/>
										<Node score="1.6643216899606745">
											<SimplePredicate field="Education" operator="equal" value="Professional"/>
										</Node>
									</Node>
									<Node score="7.2765375460381465">
										<SimplePredicate field="double(float(Hours))" operator="lessOrEqual" value="6.5"/>
									</Node>
								</Node>
							</TreeModel>
						</Segment>
						<Segment id="23">
							<True/>
							<TreeModel functionName="regression" missingValueStrategy="nullPrediction" noTrueChildStrategy="returnLastPrediction">
								<MiningSchema>
									<MiningField name="Occupation"/>
									<MiningField name="double(float(Age))"/>
									<MiningField name="double(float(Hours))"/>
								</MiningSchema>
								<Node score="0.03971615268072179">
									<True/>
									<Node score="1.0820022058670125">
										<SimplePredicate field="double(float(Age))" operator="lessOrEqual" value="36.5"/>
										<Node score="-0.28501944698963294">
											<SimplePredicate field="double(float(Hours))" operator="lessOrEqual" value="73.5"/>
											<Node score="-1.0160860586653013">
												<SimplePredicate field="Occupation" operator="equal" value="Transport"/>
											</Node>
										</Node>
										<Node score="8.629175100220799">
											<SimplePredicate field="Occupation" operator="equal" value="Clerical"/>
										</Node>
									</Node>
									<Node score="-0.3861009364411967">
										<SimplePredicate field="Occupation" operator="equal" value="Protective"/>
										<Node score="2.1254007239847286">
											<SimplePredicate field="double(float(Age))" operator="lessOrEqual" value="58.0"/>
										</Node>
									</Node>
									<Node score="0.4744264360715905">
										<SimplePredicate field="Occupation" operator="equal" value="Executive"/>
									</Node>
								</Node>
							</TreeModel>
						</Segment>
						<Segment id="24">
							<True/>
							<TreeModel functionName="regression" missingValueStrategy="nullPrediction" noTrueChildStrategy="returnLastPrediction">
								<MiningSchema>
									<MiningField name="Employment"/>
									<MiningField name="Education"/>
									<MiningField name="Occupation"/>
									<MiningField name="double(float(Age))"/>
									<MiningField name="double(float(Hours))"/>
									<MiningField name="double(float(Income))"/>
								</MiningSchema>
								<Node score="-0.07775585964531494">
									<True/>
									<Node score="0.5206288873785883">
										<SimplePredicate field="double(float(Age))" operator="lessOrEqual" value="29.5"/>
										<Node score="-0.46738963304462494">
											<SimplePredicate field="double(float(Hours))" operator="lessOrEqual" value="75.0"/>
											<Node score="-0.7031846475597114">
												<SimplePredicate field="double(float(Income))" operator="lessOrEqual" value="42336.119140625"/>
											</Node>
										</Node>
										<Node score="4.2189725241141485">
											<SimplePredicate field="Occupation" operator="equal" value="Clerical"/>
										</Node>
									</Node>
									<Node score="-0.18743550874679935">
										<SimplePredicate field="Education" operator="equal" value="Bachelor"/>
										<Node score="0.7826832642659728">
											<SimplePredicate field="Employment" operator="equal" value="Private"/>
										</Node>
									</Node>
									<Node score="0.7199796869806524">
										<SimplePredicate field="Education" operator="equal" value="Master"/>
									</Node>
								</Node>
							</TreeModel>
						</Segment>
						<Segment id="25">
							<True/>
							<TreeModel functionName="regression" missingValueStrategy="nullPrediction" noTrueChildStrategy="returnLastPrediction">
								<MiningSchema>
									<MiningField name="Education"/>
									<MiningField name="Marital"/>
									<MiningField name="Occupation"/>
									<MiningField name="double(float(Hours))"/>
									<MiningField name="double(float(Income))"/>
								</MiningSchema>
								<Node score="-0.568230991829968">
									<True/>
									<Node score="0.7139782115352719">
										<SimplePredicate field="Marital" operator="equal" value="Married"/>
										<Node score="0.11469572955625348">
											<SimplePredicate field="double(float(Income))" operator="lessOrEqual" value="59640.005859375"/>
											<Node score="-0.5741469878438046">
												<SimplePredicate field="double(float(Hours))" operator="lessOrEqual" value="37.5"/>
											</Node>
										</Node>
										<Node score="-0.7637904047320251">
											<SimplePredicate field="Occupation" operator="equal" value="Machinist"/>
										</Node>
									</Node>
									<Node score="3.702343877832856">
										<SimplePredicate field="Education" operator="equal" value="Doctorate"/>
										<Node score="0.6636149857827878">
											<SimplePredicate field="double(float(Income))" operator="lessOrEqual" value="174557.4140625"/>
										</Node>
									</Node>
									<Node score="0.17962130668123527">
										<SimplePredicate field="Education" operator="equal" value="Bachelor"/>
									</Node>
								</Node>
							</TreeModel>
						</Segment>
						<Segment id="26">
							<True/>
							<TreeModel functionName="regression" missingValueStrategy="nullPrediction" noTrueChildStrategy="returnLastPrediction">
								<MiningSchema>
									<MiningField name="Employment"/>
									<MiningField name="Education"/>
									<MiningField name="Occupation"/>
									<MiningField name="double(float(Hours))"/>
								</MiningSchema>
								<Node score="0.04653086647518001">
									<True/>
									<Node score="-0.25092229704235935">
										<SimplePredicate field="double(float(Hours))" operator="lessOrEqual" value="41.5"/>
										<Node score="1.1973152959727669">
											<SimplePredicate field="Education" operator="equal" value="Master"/>
											<Node score="0.14251555896169488">
												<SimplePredicate field="Occupation" operator="equal" value="Professional"/>
											</Node>
										</Node>
										<Node score="0.8707604511414473">
											<SimplePredicate field="Education" operator="equal" value="Associate"/>
										</Node>
									</Node>
									<Node score="0.04144391001578052">
										<SimplePredicate field="Education" operator="equal" value="Bachelor"/>
										<Node score="0.8378725393383458">
											<SimplePredicate field="Employment" operator="equal" value="Private"/>
										</Node>
									</Node>
									<Node score="1.267096504652842">
										<SimplePredicate field="Education" operator="equal" value="Professional"/>
									</Node>
								</Node>
							</TreeModel>
						</Segment>
						<Segment id="27">
							<True/>
							<TreeModel functionName="regression" missingValueStrategy="nullPrediction" noTrueChildStrategy="returnLastPrediction">
								<MiningSchema>
									<MiningField name="Education"/>
									<MiningField name="Occupation"/>
									<MiningField name="double(float(Age))"/>
									<MiningField name="double(float(Income))"/>
								</MiningSchema>
								<Node score="0.21764370706921798">
									<True/>
									<Node score="-0.3876365151854819">
										<SimplePredicate field="double(float(Age))" operator="lessOrEqual" value="36.5"/>
										<Node score="0.1679208073525068">
											<SimplePredicate field="Occupation" operator="equal" value="Professional"/>
											<Node score="2.586280673753309">
												<SimplePredicate field="Education" operator="equal" value="Associate"/>
											</Node>
										</Node>
										<Node score="2.517346731529935">
											<SimplePredicate field="double(float(Income))" operator="lessOrEqual" value="5237.44482421875"/>
										</Node>
									</Node>
									<Node score="-0.41600419982941106">
										<SimplePredicate field="Occupation" operator="equal" value="Service"/>
										<Node score="-1.065350560305785">
											<SimplePredicate field="double(float(Income))" operator="lessOrEqual" value="40015.201171875"/>
										</Node>
									</Node>
									<Node score="-1.374422632910855">
										<SimplePredicate field="Education" operator="equal" value="Yr7t8"/>
									</Node>
								</Node>
							</TreeModel>
						</Segment>
						<Segment id="28">
							<True/>
							<TreeModel functionName="regression" missingValueStrategy="nullPrediction" noTrueChildStrategy="returnLastPrediction">
								<MiningSchema>
									<MiningField name="Education"/>
									<MiningField name="Marital"/>
									<MiningField name="Occupation"/>
									<MiningField name="double(float(Hours))"/>
									<MiningField name="double(float(Income))"/>
								</MiningSchema>
								<Node score="-0.1707408637084028">
									<True/>
									<Node score="1.5296214150636114">
										<SimplePredicate field="double(float(Hours))" operator="lessOrEqual" value="37.5"/>
										<Node score="-0.6125184410570147">
											<SimplePredicate field="double(float(Income))" operator="lessOrEqual" value="348648.296875"/>
											<Node score="1.5327537795499704">
												<SimplePredicate field="Marital" operator="equal" value="Married-spouse-absent"/>
											</Node>
										</Node>
										<Node score="2.1783991857546963">
											<SimplePredicate field="Occupation" operator="equal" value="Clerical"/>
										</Node>
									</Node>
									<Node score="-1.0990153930382622">
										<SimplePredicate field="Education" operator="equal" value="Yr9"/>
										<Node score="-1.5695229573459852">
											<SimplePredicate field="Marital" operator="equal" value="Married"/>
										</Node>
									</Node>
									<Node score="0.2018132751248526">
										<SimplePredicate field="Marital" operator="equal" value="Married"/>
									</Node>
								</Node>
							</TreeModel>
						</Segment>
						<Segment id="29">
							<True/>
							<TreeModel functionName="regression" missingValueStrategy="nullPrediction" noTrueChildStrategy="returnLastPrediction">
								<MiningSchema>
									<MiningField name="Employment"/>
									<MiningField name="Education"/>
									<MiningField name="Marital"/>
									<MiningField name="Occupation"/>
									<MiningField name="double(float(Age))"/>
									<MiningField name="double(float(Income))"/>
								</MiningSchema>
								<Node score="-0.13146239435310478">
									<True/>
									<Node score="0.5254324166346084">
										<SimplePredicate field="Occupation" operator="equal" value="Executive"/>
										<Node score="-0.6086508595476431">
											<SimplePredicate field="double(float(Age))" operator="lessOrEqual" value="30.5"/>
											<Node score="5.854419546471119">
												<SimplePredicate field="Marital" operator="equal" value="Unmarried"/>
											</Node>
										</Node>
										<Node score="-0.3785561533202798">
											<SimplePredicate field="Employment" operator="equal" value="Consultant"/>
										</Node>
									</Node>
									<Node score="-0.7491575672379489">
										<SimplePredicate field="Education" operator="equal" value="Professional"/>
										<Node score="1.5089815178686106">
											<SimplePredicate field="double(float(Income))" operator="lessOrEqual" value="101243.265625"/>
										</Node>
									</Node>
									<Node score="0.823405491241353">
										<SimplePredicate field="Education" operator="equal" value="Doctorate"/>
									</Node>
								</Node>
							</TreeModel>
						</Segment>
						<Segment id="30">
							<True/>
							<TreeModel functionName="regression" missingValueStrategy="nullPrediction" noTrueChildStrategy="returnLastPrediction">
								<MiningSchema>
									<MiningField name="Education"/>
									<MiningField name="Occupation"/>
									<MiningField name="double(float(Hours))"/>
									<MiningField name="double(float(Income))"/>
								</MiningSchema>
								<Node score="0.03659986222205793">
									<True/>
									<Node score="-0.2210358944417903">
										<SimplePredicate field="double(float(Hours))" operator="lessOrEqual" value="41.5"/>
										<Node score="0.817840055127733">
											<SimplePredicate field="Education" operator="equal" value="Master"/>
											<Node score="-1.0303643760959906">
												<SimplePredicate field="double(float(Income))" operator="lessOrEqual" value="15622.0751953125"/>
											</Node>
										</Node>
										<Node score="0.738323606650319">
											<SimplePredicate field="Education" operator="equal" value="Associate"/>
										</Node>
									</Node>
									<Node score="0.601895472177578">
										<SimplePredicate field="Education" operator="equal" value="Bachelor"/>
										<Node score="-1.0432239521253266">
											<SimplePredicate field="Occupation" operator="equal" value="Repair"/>
										</Node>
									</Node>
									<Node score="1.0877257630565922">
										<SimplePredicate field="Education" operator="equal" value="Professional"/>
									</Node>
								</Node>
							</TreeModel>
						</Segment>
						<Segment id="31">
							<True/>
							<TreeModel functionName="regression" missingValueStrategy="nullPrediction" noTrueChildStrategy="returnLastPrediction">
								<MiningSchema>
									<MiningField name="Education"/>
									<MiningField name="Marital"/>
									<MiningField name="Occupation"/>
									<MiningField name="double(float(Hours))"/>
									<MiningField name="double(float(Income))"/>
								</MiningSchema>
								<Node score="-0.7690127859600578">
									<True/>
									<Node score="0.6540266137325186">
										<SimplePredicate field="Marital" operator="equal" value="Married"/>
										<Node score="-0.01232404217713937">
											<SimplePredicate field="double(float(Income))" operator="lessOrEqual" value="59640.005859375"/>
											<Node score="0.6169044636540533">
												<SimplePredicate field="Education" operator="equal" value="Master"/>
											</Node>
										</Node>
										<Node score="-0.8564953767975315">
											<SimplePredicate field="Occupation" operator="equal" value="Service"/>
										</Node>
									</Node>
									<Node score="2.9433382520090285">
										<SimplePredicate field="double(float(Income))" operator="lessOrEqual" value="105708.87890625"/>
										<Node score="-0.10621793937778298">
											<SimplePredicate field="double(float(Income))" operator="lessOrEqual" value="105320.91796875"/>
										</Node>
									</Node>
									<Node score="3.562892287615509">
										<SimplePredicate field="double(float(Hours))" operator="lessOrEqual" value="6.5"/>
									</Node>
								</Node>
							</TreeModel>
						</Segment>
						<Segment id="32">
							<True/>
							<TreeModel functionName="regression" missingValueStrategy="nullPrediction" noTrueChildStrategy="returnLastPrediction">
								<MiningSchema>
									<MiningField name="Occupation"/>
									<MiningField name="double(float(Age))"/>
									<MiningField name="double(float(Hours))"/>
									<MiningField name="double(float(Income))"/>
								</MiningSchema>
								<Node score="0.06777461933755739">
									<True/>
									<Node score="0.4477242100757553">
										<SimplePredicate field="double(float(Age))" operator="lessOrEqual" value="36.5"/>
										<Node score="-0.4942689603236707">
											<SimplePredicate field="Occupation" operator="equal" value="Transport"/>
											<Node score="-1.0713909918303204">
												<SimplePredicate field="double(float(Income))" operator="lessOrEqual" value="57320.21484375"/>
											</Node>
										</Node>
										<Node score="-0.27654208382267725">
											<SimplePredicate field="double(float(Hours))" operator="lessOrEqual" value="55.5"/>
										</Node>
									</Node>
									<Node score="0.868108343838999">
										<SimplePredicate field="Occupation" operator="equal" value="Protective"/>
										<Node score="4.282154577525955">
											<SimplePredicate field="double(float(Age))" operator="lessOrEqual" value="44.5"/>
										</Node>
									</Node>
									<Node score="1.2469225458983866">
										<SimplePredicate field="Occupation" operator="equal" value="Support"/>
									</Node>
								</Node>
							</TreeModel>
						</Segment>
						<Segment id="33">
							<True/>
							<TreeModel functionName="regression" missingValueStrategy="nullPrediction" noTrueChildStrategy="returnLastPrediction">
								<MiningSchema>
									<MiningField name="Education"/>
									<MiningField name="Marital"/>
									<MiningField name="Occupation"/>
									<MiningField name="double(float(Hours))"/>
									<MiningField name="double(float(Income))"/>
								</MiningSchema>
								<Node score="0.056683138300211475">
									<True/>
									<Node score="1.4118938721823153">
										<SimplePredicate field="double(float(Hours))" operator="lessOrEqual" value="37.5"/>
										<Node score="-0.678379503104557">
											<SimplePredicate field="double(float(Income))" operator="lessOrEqual" value="348648.296875"/>
											<Node score="0.23723571189075623">
												<SimplePredicate field="double(float(Income))" operator="lessOrEqual" value="27061.6796875"/>
											</Node>
										</Node>
										<Node score="1.8748158559901171">
											<SimplePredicate field="Occupation" operator="equal" value="Clerical"/>
										</Node>
									</Node>
									<Node score="-1.0854986619832576">
										<SimplePredicate field="Education" operator="equal" value="Yr9"/>
										<Node score="-1.4898970739313568">
											<SimplePredicate field="Marital" operator="equal" value="Married"/>
										</Node>
									</Node>
									<Node score="0.6889604832808658">
										<SimplePredicate field="Education" operator="equal" value="Master"/>
									</Node>
								</Node>
							</TreeModel>
						</Segment>
						<Segment id="34">
							<True/>
							<TreeModel functionName="regression" missingValueStrategy="nullPrediction" noTrueChildStrategy="returnLastPrediction">
								<MiningSchema>
									<MiningField name="Employment"/>
									<MiningField name="Education"/>
									<MiningField name="double(float(Hours))"/>
									<MiningField name="double(float(Income))"/>
								</MiningSchema>
								<Node score="-0.16086301105516856">
									<True/>
									<Node score="0.2512545529317392">
										<SimplePredicate field="Education" operator="equal" value="Bachelor"/>
										<Node score="-0.8360928465655002">
											<SimplePredicate field="Employment" operator="equal" value="PSFederal"/>
											<Node score="-2.232919971707898">
												<SimplePredicate field="double(float(Income))" operator="lessOrEqual" value="50097.96484375"/>
											</Node>
										</Node>
										<Node score="1.0726390315127439">
											<SimplePredicate field="double(float(Income))" operator="lessOrEqual" value="21235.859375"/>
										</Node>
									</Node>
									<Node score="-2.285691032814267">
										<SimplePredicate field="Education" operator="equal" value="Doctorate"/>
										<Node score="0.9338456124575607">
											<SimplePredicate field="double(float(Hours))" operator="lessOrEqual" value="65.0"/>
										</Node>
									</Node>
									<Node score="0.46568973880317244">
										<SimplePredicate field="Education" operator="equal" value="Master"/>
									</Node>
								</Node>
							</TreeModel>
						</Segment>
						<Segment id="35">
							<True/>
							<TreeModel functionName="regression" missingValueStrategy="nullPrediction" noTrueChildStrategy="returnLastPrediction">
								<MiningSchema>
									<MiningField name="Occupation"/>
									<MiningField name="double(float(Age))"/>
									<MiningField name="double(float(Hours))"/>
									<MiningField name="double(float(Income))"/>
								</MiningSchema>
								<Node score="0.14645237229742303">
									<True/>
									<Node score="-1.1155515989469185">
										<SimplePredicate field="double(float(Age))" operator="lessOrEqual" value="27.5"/>
										<Node score="-0.5126978783540476">
											<SimplePredicate field="double(float(Hours))" operator="lessOrEqual" value="74.0"/>
											<Node score="-0.7654213921298512">
												<SimplePredicate field="double(float(Income))" operator="lessOrEqual" value="64044.5859375"/>
											</Node>
										</Node>
										<Node score="2.038797140607825">
											<SimplePredicate field="double(float(Income))" operator="lessOrEqual" value="110985.70703125"/>
										</Node>
									</Node>
									<Node score="-1.331591435200522">
										<SimplePredicate field="Occupation" operator="equal" value="Service"/>
										<Node score="-0.5755165194871192">
											<SimplePredicate field="double(float(Hours))" operator="lessOrEqual" value="57.5"/>
										</Node>
									</Node>
									<Node score="-0.8099515796666196">
										<SimplePredicate field="Occupation" operator="equal" value="Cleaner"/>
									</Node>
								</Node>
							</TreeModel>
						</Segment>
						<Segment id="36">
							<True/>
							<TreeModel functionName="regression" missingValueStrategy="nullPrediction" noTrueChildStrategy="returnLastPrediction">
								<MiningSchema>
									<MiningField name="Education"/>
									<MiningField name="Marital"/>
									<MiningField name="Occupation"/>
									<MiningField name="double(float(Income))"/>
								</MiningSchema>
								<Node score="-0.5131554523096366">
									<True/>
									<Node score="0.15902531811947895">
										<SimplePredicate field="Marital" operator="equal" value="Married"/>
										<Node score="1.2770230073281175">
											<SimplePredicate field="Occupation" operator="equal" value="Clerical"/>
											<Node score="-0.34653997383463847">
												<SimplePredicate field="double(float(Income))" operator="lessOrEqual" value="36700.1953125"/>
											</Node>
										</Node>
										<Node score="-0.17843076859835622">
											<SimplePredicate field="Education" operator="equal" value="HSgrad"/>
										</Node>
									</Node>
									<Node score="0.293778821966877">
										<SimplePredicate field="Education" operator="equal" value="Associate"/>
										<Node score="7.507191164358345">
											<SimplePredicate field="Marital" operator="equal" value="Unmarried"/>
										</Node>
									</Node>
									<Node score="0.16769454643859466">
										<SimplePredicate field="Education" operator="equal" value="Bachelor"/>
									</Node>
								</Node>
							</TreeModel>
						</Segment>
						<Segment id="37">
							<True/>
							<TreeModel functionName="regression" missingValueStrategy="nullPrediction" noTrueChildStrategy="returnLastPrediction">
								<MiningSchema>
									<MiningField name="Education"/>
									<MiningField name="Marital"/>
									<MiningField name="Occupation"/>
									<MiningField name="double(float(Age))"/>
									<MiningField name="double(float(Income))"/>
								</MiningSchema>
								<Node score="-0.1108312560275627">
									<True/>
									<Node score="-0.04151723405397963">
										<SimplePredicate field="Occupation" operator="equal" value="Executive"/>
										<Node score="-0.5443211629520347">
											<SimplePredicate field="double(float(Age))" operator="lessOrEqual" value="30.5"/>
											<Node score="3.4851315012825492">
												<SimplePredicate field="Marital" operator="equal" value="Unmarried"/>
											</Node>
										</Node>
										<Node score="0.5393433480384766">
											<SimplePredicate field="double(float(Age))" operator="lessOrEqual" value="50.5"/>
										</Node>
									</Node>
									<Node score="-0.6927780573999561">
										<SimplePredicate field="Education" operator="equal" value="Professional"/>
										<Node score="1.3909579382901942">
											<SimplePredicate field="double(float(Income))" operator="lessOrEqual" value="101243.265625"/>
										</Node>
									</Node>
									<Node score="0.6583515661350805">
										<SimplePredicate field="Education" operator="equal" value="Doctorate"/>
									</Node>
								</Node>
							</TreeModel>
						</Segment>
						<Segment id="38">
							<True/>
							<TreeModel functionName="regression" missingValueStrategy="nullPrediction" noTrueChildStrategy="returnLastPrediction">
								<MiningSchema>
									<MiningField name="Education"/>
									<MiningField name="Marital"/>
									<MiningField name="Occupation"/>
									<MiningField name="double(float(Hours))"/>
									<MiningField name="double(float(Income))"/>
								</MiningSchema>
								<Node score="0.10383601170241129">
									<True/>
									<Node score="1.3564514319556598">
										<SimplePredicate field="double(float(Hours))" operator="lessOrEqual" value="37.5"/>
										<Node score="-0.5250733297997259">
											<SimplePredicate field="double(float(Income))" operator="lessOrEqual" value="348648.296875"/>
											<Node score="1.3744474182528124">
												<SimplePredicate field="Marital" operator="equal" value="Married-spouse-absent"/>
											</Node>
										</Node>
										<Node score="1.6473875267617253">
											<SimplePredicate field="Occupation" operator="equal" value="Clerical"/>
										</Node>
									</Node>
									<Node score="-1.0673781284560835">
										<SimplePredicate field="Education" operator="equal" value="Yr9"/>
										<Node score="-1.4334061932390718">
											<SimplePredicate field="Marital" operator="equal" value="Married"/>
										</Node>
									</Node>
									<Node score="-1.3271928463148583">
										<SimplePredicate field="Education" operator="equal" value="Yr7t8"/>
									</Node>
								</Node>
							</TreeModel>
						</Segment>
						<Segment id="39">
							<True/>
							<TreeModel functionName="regression" missingValueStrategy="nullPrediction" noTrueChildStrategy="returnLastPrediction">
								<MiningSchema>
									<MiningField name="Employment"/>
									<MiningField name="Occupation"/>
									<MiningField name="double(float(Age))"/>
									<MiningField name="double(float(Hours))"/>
								</MiningSchema>
								<Node score="-1.6840383301096808">
									<True/>
									<Node score="0.42802965370176105">
										<SimplePredicate field="double(float(Hours))" operator="lessOrEqual" value="41.5"/>
										<Node score="-0.23317201660678835">
											<SimplePredicate field="double(float(Age))" operator="lessOrEqual" value="43.5"/>
											<Node score="-1.293155200277594">
												<SimplePredicate field="Occupation" operator="equal" value="Transport"/>
											</Node>
										</Node>
										<Node score="-0.0968803244907007">
											<SimplePredicate field="Employment" operator="equal" value="Private"/>
										</Node>
									</Node>
									<Node score="3.94292741703342">
										<SimplePredicate field="Occupation" operator="equal" value="Support"/>
										<Node score="1.0099794366166313">
											<SimplePredicate field="double(float(Age))" operator="lessOrEqual" value="41.5"/>
										</Node>
									</Node>
									<Node score="0.15526791422650338">
										<SimplePredicate field="double(float(Hours))" operator="lessOrEqual" value="98.5"/>
									</Node>
								</Node>
							</TreeModel>
						</Segment>
						<Segment id="40">
							<True/>
							<TreeModel functionName="regression" missingValueStrategy="nullPrediction" noTrueChildStrategy="returnLastPrediction">
								<MiningSchema>
									<MiningField name="Education"/>
									<MiningField name="Marital"/>
									<MiningField name="Occupation"/>
									<MiningField name="double(float(Income))"/>
								</MiningSchema>
								<Node score="-0.3436455466188796">
									<True/>
									<Node score="-0.09922064137045031">
										<SimplePredicate field="Marital" operator="equal" value="Married"/>
										<Node score="0.043533179693099784">
											<SimplePredicate field="double(float(Income))" operator="lessOrEqual" value="60990.60546875"/>
											<Node score="-0.7822545027178449">
												<SimplePredicate field="Occupation" operator="equal" value="Farming"/>
											</Node>
										</Node>
										<Node score="0.7531171293400541">
											<SimplePredicate field="double(float(Income))" operator="lessOrEqual" value="212917.9765625"/>
										</Node>
									</Node>
									<Node score="0.43355044787827884">
										<SimplePredicate field="Education" operator="equal" value="Associate"/>
										<Node score="16.23849885876166">
											<SimplePredicate field="Occupation" operator="equal" value="Cleaner"/>
										</Node>
									</Node>
									<Node score="0.6130704058300986">
										<SimplePredicate field="Education" operator="equal" value="Doctorate"/>
									</Node>
								</Node>
							</TreeModel>
						</Segment>
						<Segment id="41">
							<True/>
							<TreeModel functionName="regression" missingValueStrategy="nullPrediction" noTrueChildStrategy="returnLastPrediction">
								<MiningSchema>
									<MiningField name="Employment"/>
									<MiningField name="Education"/>
									<MiningField name="Marital"/>
									<MiningField name="double(float(Age))"/>
								</MiningSchema>
								<Node score="0.35040905681517565">
									<True/>
									<Node score="-0.2988214222133228">
										<SimplePredicate field="Education" operator="equal" value="Bachelor"/>
										<Node score="0.5841401178714033">
											<SimplePredicate field="Employment" operator="equal" value="Private"/>
											<Node score="-0.38855597189434155">
												<SimplePredicate field="double(float(Age))" operator="lessOrEqual" value="29.5"/>
											</Node>
										</Node>
										<Node score="4.059554452466769">
											<SimplePredicate field="Marital" operator="equal" value="Widowed"/>
										</Node>
									</Node>
									<Node score="-0.23600360702864212">
										<SimplePredicate field="Employment" operator="equal" value="Private"/>
										<Node score="0.7375938842936719">
											<SimplePredicate field="Education" operator="equal" value="Master"/>
										</Node>
									</Node>
									<Node score="-0.35108637205034327">
										<SimplePredicate field="double(float(Age))" operator="lessOrEqual" value="39.5"/>
									</Node>
								</Node>
							</TreeModel>
						</Segment>
						<Segment id="42">
							<True/>
							<TreeModel functionName="regression" missingValueStrategy="nullPrediction" noTrueChildStrategy="returnLastPrediction">
								<MiningSchema>
									<MiningField name="Employment"/>
									<MiningField name="Education"/>
									<MiningField name="Occupation"/>
									<MiningField name="double(float(Hours))"/>
									<MiningField name="double(float(Income))"/>
								</MiningSchema>
								<Node score="-0.10140642570246766">
									<True/>
									<Node score="0.3594124419608775">
										<SimplePredicate field="Education" operator="equal" value="Professional"/>
										<Node score="-1.4718771968443896">
											<SimplePredicate field="Employment" operator="equal" value="PSState"/>
											<Node score="-1.1952023198190156">
												<SimplePredicate field="double(float(Hours))" operator="lessOrEqual" value="35.5"/>
											</Node>
										</Node>
										<Node score="1.478393662536142">
											<SimplePredicate field="double(float(Income))" operator="lessOrEqual" value="49228.3203125"/>
										</Node>
									</Node>
									<Node score="0.3025000651547908">
										<SimplePredicate field="Occupation" operator="equal" value="Executive"/>
										<Node score="-0.4009896239674968">
											<SimplePredicate field="Employment" operator="equal" value="Consultant"/>
										</Node>
									</Node>
									<Node score="0.7145173871740489">
										<SimplePredicate field="Occupation" operator="equal" value="Protective"/>
									</Node>
								</Node>
							</TreeModel>
						</Segment>
						<Segment id="43">
							<True/>
							<TreeModel functionName="regression" missingValueStrategy="nullPrediction" noTrueChildStrategy="returnLastPrediction">
								<MiningSchema>
									<MiningField name="Employment"/>
									<MiningField name="Education"/>
									<MiningField name="Occupation"/>
									<MiningField name="double(float(Hours))"/>
									<MiningField name="double(float(Income))"/>
								</MiningSchema>
								<Node score="0.1141024235653531">
									<True/>
									<Node score="1.5828064642184208">
										<SimplePredicate field="double(float(Hours))" operator="lessOrEqual" value="37.5"/>
										<Node score="-0.3873293007940108">
											<SimplePredicate field="double(float(Income))" operator="lessOrEqual" value="348648.296875"/>
											<Node score="-1.4905235649179556">
												<SimplePredicate field="Employment" operator="equal" value="PSState"/>
											</Node>
										</Node>
										<Node score="1.3366491860523397">
											<SimplePredicate field="double(float(Income))" operator="lessOrEqual" value="383070.0625"/>
										</Node>
									</Node>
									<Node score="-1.0879365764510969">
										<SimplePredicate field="Education" operator="equal" value="Yr9"/>
										<Node score="-1.386006851827248">
											<SimplePredicate field="double(float(Income))" operator="lessOrEqual" value="69025.583984375"/>
										</Node>
									</Node>
									<Node score="-0.3773313031597881">
										<SimplePredicate field="Occupation" operator="equal" value="Machinist"/>
									</Node>
								</Node>
							</TreeModel>
						</Segment>
						<Segment id="44">
							<True/>
							<TreeModel functionName="regression" missingValueStrategy="nullPrediction" noTrueChildStrategy="returnLastPrediction">
								<MiningSchema>
									<MiningField name="Occupation"/>
									<MiningField name="double(float(Age))"/>
									<MiningField name="double(float(Hours))"/>
								</MiningSchema>
								<Node score="0.13105849826872573">
									<True/>
									<Node score="1.8903909180418994">
										<SimplePredicate field="double(float(Age))" operator="lessOrEqual" value="27.5"/>
										<Node score="-1.356032053735428">
											<SimplePredicate field="double(float(Hours))" operator="lessOrEqual" value="74.0"/>
											<Node score="-0.5010699074381763">
												<SimplePredicate field="double(float(Hours))" operator="lessOrEqual" value="59.0"/>
											</Node>
										</Node>
										<Node score="-1.1042913806193002">
											<SimplePredicate field="double(float(Age))" operator="lessOrEqual" value="24.0"/>
										</Node>
									</Node>
									<Node score="-1.2922625063731301">
										<SimplePredicate field="Occupation" operator="equal" value="Service"/>
										<Node score="-0.5018401753816741">
											<SimplePredicate field="double(float(Hours))" operator="lessOrEqual" value="57.5"/>
										</Node>
									</Node>
									<Node score="-0.3953168157576879">
										<SimplePredicate field="Occupation" operator="equal" value="Transport"/>
									</Node>
								</Node>
							</TreeModel>
						</Segment>
						<Segment id="45">
							<True/>
							<TreeModel functionName="regression" missingValueStrategy="nullPrediction" noTrueChildStrategy="returnLastPrediction">
								<MiningSchema>
									<MiningField name="Employment"/>
									<MiningField name="Education"/>
									<MiningField name="Gender"/>
									<MiningField name="double(float(Income))"/>
								</MiningSchema>
								<Node score="-0.047238981216847054">
									<True/>
									<Node score="0.31532065470705567">
										<SimplePredicate field="Education" operator="equal" value="Professional"/>
										<Node score="-1.141922332283335">
											<SimplePredicate field="Employment" operator="equal" value="PSState"/>
											<Node score="-1.4174008988353828">
												<SimplePredicate field="Gender" operator="equal" value="Female"/>
											</Node>
										</Node>
										<Node score="1.4063323926429745">
											<SimplePredicate field="double(float(Income))" operator="lessOrEqual" value="49228.3203125"/>
										</Node>
									</Node>
									<Node score="0.24879390561653328">
										<SimplePredicate field="Education" operator="equal" value="Bachelor"/>
										<Node score="-1.4032337912424313">
											<SimplePredicate field="Employment" operator="equal" value="PSFederal"/>
										</Node>
									</Node>
									<Node score="-0.6120140912589884">
										<SimplePredicate field="double(float(Income))" operator="lessOrEqual" value="13589.5400390625"/>
									</Node>
								</Node>
							</TreeModel>
						</Segment>
						<Segment id="46">
							<True/>
							<TreeModel functionName="regression" missingValueStrategy="nullPrediction" noTrueChildStrategy="returnLastPrediction">
								<MiningSchema>
									<MiningField name="Education"/>
									<MiningField name="double(float(Hours))"/>
									<MiningField name="double(float(Income))"/>
								</MiningSchema>
								<Node score="1.494312338564219">
									<True/>
									<Node score="-2.145023391726567">
										<SimplePredicate field="Education" operator="equal" value="Doctorate"/>
										<Node score="1.6460545124036188">
											<SimplePredicate field="double(float(Hours))" operator="lessOrEqual" value="65.0"/>
											<Node score="0.3674010362144193">
												<SimplePredicate field="double(float(Hours))" operator="lessOrEqual" value="47.5"/>
											</Node>
										</Node>
									</Node>
									<Node score="0.038412022380519696">
										<SimplePredicate field="double(float(Income))" operator="lessOrEqual" value="389230.46875"/>
										<Node score="-0.4278198204753051">
											<SimplePredicate field="double(float(Hours))" operator="lessOrEqual" value="37.5"/>
										</Node>
									</Node>
									<Node score="1.3975182302312943">
										<SimplePredicate field="Education" operator="equal" value="Professional"/>
									</Node>
								</Node>
							</TreeModel>
						</Segment>
						<Segment id="47">
							<True/>
							<TreeModel functionName="regression" missingValueStrategy="nullPrediction" noTrueChildStrategy="returnLastPrediction">
								<MiningSchema>
									<MiningField name="Education"/>
									<MiningField name="Marital"/>
									<MiningField name="Occupation"/>
									<MiningField name="double(float(Hours))"/>
									<MiningField name="double(float(Income))"/>
								</MiningSchema>
								<Node score="-0.6917923655765249">
									<True/>
									<Node score="0.050971612312978545">
										<SimplePredicate field="Marital" operator="equal" value="Married"/>
										<Node score="1.1310038895415666">
											<SimplePredicate field="Occupation" operator="equal" value="Clerical"/>
											<Node score="-0.2827802017735506">
												<SimplePredicate field="double(float(Income))" operator="lessOrEqual" value="36700.1953125"/>
											</Node>
										</Node>
										<Node score="-1.3146430481780307">
											<SimplePredicate field="Education" operator="equal" value="Yr7t8"/>
										</Node>
									</Node>
									<Node score="2.173261115675124">
										<SimplePredicate field="double(float(Income))" operator="lessOrEqual" value="105708.87890625"/>
										<Node score="-0.049241440097758604">
											<SimplePredicate field="double(float(Income))" operator="lessOrEqual" value="105320.91796875"/>
										</Node>
									</Node>
									<Node score="3.237846291963329">
										<SimplePredicate field="double(float(Hours))" operator="lessOrEqual" value="6.5"/>
									</Node>
								</Node>
							</TreeModel>
						</Segment>
						<Segment id="48">
							<True/>
							<TreeModel functionName="regression" missingValueStrategy="nullPrediction" noTrueChildStrategy="returnLastPrediction">
								<MiningSchema>
									<MiningField name="Marital"/>
									<MiningField name="Occupation"/>
									<MiningField name="double(float(Age))"/>
									<MiningField name="double(float(Hours))"/>
									<MiningField name="double(float(Income))"/>
								</MiningSchema>
								<Node score="-1.1352861346207899">
									<True/>
									<Node score="0.1240465845383786">
										<SimplePredicate field="double(float(Hours))" operator="lessOrEqual" value="98.5"/>
										<Node score="-0.055008779932817074">
											<SimplePredicate field="double(float(Hours))" operator="lessOrEqual" value="41.5"/>
											<Node score="-0.6700485369688678">
												<SimplePredicate field="double(float(Income))" operator="lessOrEqual" value="13589.5400390625"/>
											</Node>
										</Node>
										<Node score="1.5836985240665913">
											<SimplePredicate field="Occupation" operator="equal" value="Support"/>
										</Node>
									</Node>
									<Node score="-2.475378514442875">
										<SimplePredicate field="double(float(Income))" operator="lessOrEqual" value="42576.490234375"/>
										<Node score="-1.5772445021166173">
											<SimplePredicate field="double(float(Age))" operator="lessOrEqual" value="48.0"/>
										</Node>
									</Node>
									<Node score="-1.307582353115378">
										<SimplePredicate field="Marital" operator="equal" value="Married"/>
									</Node>
								</Node>
							</TreeModel>
						</Segment>
						<Segment id="49">
							<True/>
							<TreeModel functionName="regression" missingValueStrategy="nullPrediction" noTrueChildStrategy="returnLastPrediction">
								<MiningSchema>
									<MiningField name="Education"/>
									<MiningField name="double(float(Hours))"/>
									<MiningField name="double(float(Income))"/>
								</MiningSchema>
								<Node score="0.00754045512940724">
									<True/>
									<Node score="0.9457537305332142">
										<SimplePredicate field="double(float(Income))" operator="lessOrEqual" value="20620.3154296875"/>
										<Node score="1.1016930986411284">
											<SimplePredicate field="Education" operator="equal" value="HSgrad"/>
											<Node score="-0.8303739031461453">
												<SimplePredicate field="double(float(Income))" operator="lessOrEqual" value="18714.33984375"/>
											</Node>
										</Node>
										<Node score="0.07322183019587089">
											<SimplePredicate field="double(float(Income))" operator="lessOrEqual" value="13304.09033203125"/>
										</Node>
									</Node>
									<Node score="-0.7492405944409329">
										<SimplePredicate field="double(float(Income))" operator="lessOrEqual" value="25931.5849609375"/>
										<Node score="0.27257512553061297">
											<SimplePredicate field="double(float(Hours))" operator="lessOrEqual" value="38.5"/>
										</Node>
									</Node>
									<Node score="5.009964942872472">
										<SimplePredicate field="double(float(Income))" operator="lessOrEqual" value="25982.0048828125"/>
									</Node>
								</Node>
							</TreeModel>
						</Segment>
						<Segment id="50">
							<True/>
							<TreeModel functionName="regression" missingValueStrategy="nullPrediction" noTrueChildStrategy="returnLastPrediction">
								<MiningSchema>
									<MiningField name="Employment"/>
									<MiningField name="Education"/>
									<MiningField name="Marital"/>
									<MiningField name="Occupation"/>
									<MiningField name="double(float(Age))"/>
									<MiningField name="double(float(Income))"/>
								</MiningSchema>
								<Node score="0.07634732514357118">
									<True/>
									<Node score="-1.0545129295343743">
										<SimplePredicate field="Education" operator="equal" value="Yr5t6"/>
										<Node score="2.6264693057036905">
											<SimplePredicate field="Employment" operator="equal" value="SelfEmp"/>
										</Node>
										<Node score="-1.427233267952832">
											<SimplePredicate field="Marital" operator="equal" value="Married"/>
										</Node>
									</Node>
									<Node score="-0.1996683517523743">
										<SimplePredicate field="double(float(Age))" operator="lessOrEqual" value="36.5"/>
										<Node score="1.1493629052843146">
											<SimplePredicate field="double(float(Income))" operator="lessOrEqual" value="9242.69970703125"/>
										</Node>
									</Node>
									<Node score="1.2020524675929927">
										<SimplePredicate field="Occupation" operator="equal" value="Protective"/>
									</Node>
								</Node>
							</TreeModel>
						</Segment>
						<Segment id="51">
							<True/>
							<TreeModel functionName="regression" missingValueStrategy="nullPrediction" noTrueChildStrategy="returnLastPrediction">
								<MiningSchema>
									<MiningField name="Education"/>
									<MiningField name="Marital"/>
									<MiningField name="Occupation"/>
									<MiningField name="double(float(Hours))"/>
									<MiningField name="double(float(Income))"/>
								</MiningSchema>
								<Node score="-0.2541491214282252">
									<True/>
									<Node score="-1.0389140777326096">
										<SimplePredicate field="Education" operator="equal" value="Yr7t8"/>
										<Node score="-1.3079263115348607">
											<SimplePredicate field="Marital" operator="equal" value="Married"/>
											<Node score="-1.1431966308842938">
												<SimplePredicate field="double(float(Hours))" operator="lessOrEqual" value="37.5"/>
											</Node>
										</Node>
										<Node score="-1.0927604301539136">
											<SimplePredicate field="Occupation" operator="equal" value="Executive"/>
										</Node>
									</Node>
									<Node score="0.48578191668902204">
										<SimplePredicate field="Marital" operator="equal" value="Married"/>
										<Node score="0.018199638664979416">
											<SimplePredicate field="double(float(Income))" operator="lessOrEqual" value="60990.60546875"/>
										</Node>
									</Node>
									<Node score="0.656901122322529">
										<SimplePredicate field="Education" operator="equal" value="Associate"/>
									</Node>
								</Node>
							</TreeModel>
						</Segment>
						<Segment id="52">
							<True/>
							<TreeModel functionName="regression" missingValueStrategy="nullPrediction" noTrueChildStrategy="returnLastPrediction">
								<MiningSchema>
									<MiningField name="Employment"/>
									<MiningField name="Education"/>
									<MiningField name="double(float(Hours))"/>
									<MiningField name="double(float(Income))"/>
								</MiningSchema>
								<Node score="-0.1111642217351941">
									<True/>
									<Node score="0.31423574640272733">
										<SimplePredicate field="Education" operator="equal" value="Professional"/>
										<Node score="-1.3377640410155003">
											<SimplePredicate field="Employment" operator="equal" value="PSState"/>
											<Node score="-1.1224999671805889">
												<SimplePredicate field="double(float(Hours))" operator="lessOrEqual" value="35.5"/>
											</Node>
										</Node>
										<Node score="1.3506343819681936">
											<SimplePredicate field="double(float(Income))" operator="lessOrEqual" value="49228.3203125"/>
										</Node>
									</Node>
									<Node score="-0.2561530004977234">
										<SimplePredicate field="Education" operator="equal" value="Bachelor"/>
										<Node score="0.35340296371374375">
											<SimplePredicate field="Employment" operator="equal" value="Private"/>
										</Node>
									</Node>
									<Node score="0.381176085263389">
										<SimplePredicate field="Education" operator="equal" value="Master"/>
									</Node>
								</Node>
							</TreeModel>
						</Segment>
						<Segment id="53">
							<True/>
							<TreeModel functionName="regression" missingValueStrategy="nullPrediction" noTrueChildStrategy="returnLastPrediction">
								<MiningSchema>
									<MiningField name="Education"/>
									<MiningField name="Occupation"/>
									<MiningField name="double(float(Hours))"/>
								</MiningSchema>
								<Node score="0.0182567888278069">
									<True/>
									<Node score="-1.9394289075441793">
										<SimplePredicate field="Education" operator="equal" value="Doctorate"/>
										<Node score="0.8145191003782921">
											<SimplePredicate field="double(float(Hours))" operator="lessOrEqual" value="65.0"/>
											<Node score="-1.535209892220782">
												<SimplePredicate field="double(float(Hours))" operator="lessOrEqual" value="21.5"/>
											</Node>
										</Node>
									</Node>
									<Node score="-1.5113855134902672">
										<SimplePredicate field="Education" operator="equal" value="Yr1t4"/>
										<Node score="-1.2047556144005613">
											<SimplePredicate field="double(float(Hours))" operator="lessOrEqual" value="37.5"/>
										</Node>
									</Node>
									<Node score="-0.39868238786193155">
										<SimplePredicate field="Occupation" operator="equal" value="Transport"/>
									</Node>
								</Node>
							</TreeModel>
						</Segment>
						<Segment id="54">
							<True/>
							<TreeModel functionName="regression" missingValueStrategy="nullPrediction" noTrueChildStrategy="returnLastPrediction">
								<MiningSchema>
									<MiningField name="Education"/>
									<MiningField name="double(float(Age))"/>
									<MiningField name="double(float(Hours))"/>
									<MiningField name="double(float(Income))"/>
								</MiningSchema>
								<Node score="0.03936700286593678">
									<True/>
									<Node score="1.3136320620013506">
										<SimplePredicate field="double(float(Hours))" operator="lessOrEqual" value="37.5"/>
										<Node score="-0.5506530705487801">
											<SimplePredicate field="double(float(Income))" operator="lessOrEqual" value="348648.296875"/>
											<Node score="0.34147626063104847">
												<SimplePredicate field="double(float(Income))" operator="lessOrEqual" value="27061.6796875"/>
											</Node>
										</Node>
										<Node score="1.3980161258916244">
											<SimplePredicate field="Education" operator="equal" value="College"/>
										</Node>
									</Node>
									<Node score="2.6693394217431337">
										<SimplePredicate field="Education" operator="equal" value="Associate"/>
										<Node score="0.5135081829712049">
											<SimplePredicate field="double(float(Age))" operator="lessOrEqual" value="62.5"/>
										</Node>
									</Node>
									<Node score="-1.2898610095727159">
										<SimplePredicate field="Education" operator="equal" value="Yr9"/>
									</Node>
								</Node>
							</TreeModel>
						</Segment>
						<Segment id="55">
							<True/>
							<TreeModel functionName="regression" missingValueStrategy="nullPrediction" noTrueChildStrategy="returnLastPrediction">
								<MiningSchema>
									<MiningField name="Marital"/>
									<MiningField name="Occupation"/>
									<MiningField name="double(float(Age))"/>
									<MiningField name="double(float(Hours))"/>
								</MiningSchema>
								<Node score="0.10401269474885717">
									<True/>
									<Node score="-1.117467026390627">
										<SimplePredicate field="Occupation" operator="equal" value="Service"/>
										<Node score="3.3235474082164664">
											<SimplePredicate field="double(float(Hours))" operator="lessOrEqual" value="57.5"/>
											<Node score="-0.6133516717455958">
												<SimplePredicate field="double(float(Hours))" operator="lessOrEqual" value="54.0"/>
											</Node>
										</Node>
										<Node score="-1.3121265680872154">
											<SimplePredicate field="Marital" operator="equal" value="Married"/>
										</Node>
									</Node>
									<Node score="1.261469319238127">
										<SimplePredicate field="double(float(Age))" operator="lessOrEqual" value="27.5"/>
										<Node score="-0.43955474387610133">
											<SimplePredicate field="double(float(Hours))" operator="lessOrEqual" value="74.0"/>
										</Node>
									</Node>
									<Node score="-0.7499452638764676">
										<SimplePredicate field="Occupation" operator="equal" value="Cleaner"/>
									</Node>
								</Node>
							</TreeModel>
						</Segment>
						<Segment id="56">
							<True/>
							<TreeModel functionName="regression" missingValueStrategy="nullPrediction" noTrueChildStrategy="returnLastPrediction">
								<MiningSchema>
									<MiningField name="Occupation"/>
									<MiningField name="double(float(Hours))"/>
									<MiningField name="double(float(Income))"/>
								</MiningSchema>
								<Node score="-1.099110200060466">
									<True/>
									<Node score="0.09017241436043896">
										<SimplePredicate field="double(float(Hours))" operator="lessOrEqual" value="98.5"/>
										<Node score="-0.04724332434238852">
											<SimplePredicate field="double(float(Hours))" operator="lessOrEqual" value="41.5"/>
											<Node score="-0.6283599329615313">
												<SimplePredicate field="double(float(Income))" operator="lessOrEqual" value="13589.5400390625"/>
											</Node>
										</Node>
										<Node score="1.1646317571147138">
											<SimplePredicate field="double(float(Hours))" operator="lessOrEqual" value="43.5"/>
										</Node>
									</Node>
									<Node score="-2.2263555599778377">
										<SimplePredicate field="double(float(Income))" operator="lessOrEqual" value="42576.490234375"/>
										<Node score="-1.4641089529793605">
											<SimplePredicate field="Occupation" operator="equal" value="Repair"/>
										</Node>
									</Node>
									<Node score="-1.201413601782394">
										<SimplePredicate field="double(float(Income))" operator="lessOrEqual" value="140807.27734375"/>
									</Node>
								</Node>
							</TreeModel>
						</Segment>
						<Segment id="57">
							<True/>
							<TreeModel functionName="regression" missingValueStrategy="nullPrediction" noTrueChildStrategy="returnLastPrediction">
								<MiningSchema>
									<MiningField name="Education"/>
									<MiningField name="double(float(Age))"/>
									<MiningField name="double(float(Income))"/>
								</MiningSchema>
								<Node score="0.012413301209276667">
									<True/>
									<Node score="0.9343852865266352">
										<SimplePredicate field="double(float(Income))" operator="lessOrEqual" value="20620.3154296875"/>
										<Node score="0.9604154626673164">
											<SimplePredicate field="Education" operator="equal" value="HSgrad"/>
											<Node score="-0.7729997027991977">
												<SimplePredicate field="double(float(Income))" operator="lessOrEqual" value="18714.33984375"/>
											</Node>
										</Node>
										<Node score="0.18357975190164447">
											<SimplePredicate field="double(float(Age))" operator="lessOrEqual" value="46.5"/>
										</Node>
									</Node>
									<Node score="-0.5901515880532089">
										<SimplePredicate field="double(float(Income))" operator="lessOrEqual" value="26204.6005859375"/>
										<Node score="3.3344994232489493">
											<SimplePredicate field="Education" operator="equal" value="Yr9"/>
										</Node>
									</Node>
									<Node score="4.0983326163601435">
										<SimplePredicate field="double(float(Income))" operator="lessOrEqual" value="26218.0400390625"/>
									</Node>
								</Node>
							</TreeModel>
						</Segment>
						<Segment id="58">
							<True/>
							<TreeModel functionName="regression" missingValueStrategy="nullPrediction" noTrueChildStrategy="returnLastPrediction">
								<MiningSchema>
									<MiningField name="Employment"/>
									<MiningField name="Education"/>
									<MiningField name="Marital"/>
									<MiningField name="Occupation"/>
									<MiningField name="Gender"/>
								</MiningSchema>
								<Node score="-0.431883323667684">
									<True/>
									<Node score="-1.0460021552122585">
										<SimplePredicate field="Education" operator="equal" value="Yr5t6"/>
										<Node score="2.246550924054684">
											<SimplePredicate field="Employment" operator="equal" value="SelfEmp"/>
										</Node>
										<Node score="-1.3696023093774">
											<SimplePredicate field="Marital" operator="equal" value="Married"/>
										</Node>
									</Node>
									<Node score="0.0373464992183508">
										<SimplePredicate field="Marital" operator="equal" value="Married"/>
										<Node score="0.6356829273622201">
											<SimplePredicate field="Occupation" operator="equal" value="Clerical"/>
										</Node>
									</Node>
									<Node score="0.034307562789695635">
										<SimplePredicate field="Gender" operator="equal" value="Male"/>
									</Node>
								</Node>
							</TreeModel>
						</Segment>
						<Segment id="59">
							<True/>
							<TreeModel functionName="regression" missingValueStrategy="nullPrediction" noTrueChildStrategy="returnLastPrediction">
								<MiningSchema>
									<MiningField name="Education"/>
									<MiningField name="Occupation"/>
									<MiningField name="double(float(Age))"/>
									<MiningField name="double(float(Hours))"/>
									<MiningField name="double(float(Income))"/>
								</MiningSchema>
								<Node score="-0.0694387678798448">
									<True/>
									<Node score="0.6044378462379727">
										<SimplePredicate field="Occupation" operator="equal" value="Protective"/>
										<Node score="1.88119439502159">
											<SimplePredicate field="double(float(Age))" operator="lessOrEqual" value="37.5"/>
											<Node score="-0.31682915567725295">
												<SimplePredicate field="double(float(Hours))" operator="lessOrEqual" value="69.0"/>
											</Node>
										</Node>
										<Node score="3.104794257461564">
											<SimplePredicate field="double(float(Age))" operator="lessOrEqual" value="44.5"/>
										</Node>
									</Node>
									<Node score="0.29547518155714425">
