<?xml version="1.0" encoding="UTF-8" standalone="yes"?>
<PMML xmlns="http://www.dmg.org/PMML-4_4" xmlns:data="http://jpmml.org/jpmml-model/InlineTable" version="4.4">
	<Header>
		<Application name="JPMML-SkLearn library" version="1.7.6"/>
		<Timestamp>2022-05-18T11:36:43Z</Timestamp>
	</Header>
	<DataDictionary>
		<DataField name="Adjusted" optype="categorical" dataType="integer">
			<Value value="0"/>
			<Value value="1"/>
		</DataField>
		<DataField name="Employment" optype="categorical" dataType="string">
			<Value value="Consultant"/>
			<Value value="PSFederal"/>
			<Value value="PSLocal"/>
			<Value value="PSState"/>
			<Value value="Private"/>
			<Value value="SelfEmp"/>
			<Value value="Volunteer"/>
		</DataField>
		<DataField name="Education" optype="categorical" dataType="string">
			<Value value="Associate"/>
			<Value value="Bachelor"/>
			<Value value="College"/>
			<Value value="Doctorate"/>
			<Value value="HSgrad"/>
			<Value value="Master"/>
			<Value value="Preschool"/>
			<Value value="Professional"/>
			<Value value="Vocational"/>
			<Value value="Yr10"/>
			<Value value="Yr11"/>
			<Value value="Yr12"/>
			<Value value="Yr1t4"/>
			<Value value="Yr5t6"/>
			<Value value="Yr7t8"/>
			<Value value="Yr9"/>
		</DataField>
		<DataField name="Marital" optype="categorical" dataType="string">
			<Value value="Absent"/>
			<Value value="Divorced"/>
			<Value value="Married"/>
			<Value value="Married-spouse-absent"/>
			<Value value="Unmarried"/>
			<Value value="Widowed"/>
		</DataField>
		<DataField name="Occupation" optype="categorical" dataType="string">
			<Value value="Cleaner"/>
			<Value value="Clerical"/>
			<Value value="Executive"/>
			<Value value="Farming"/>
			<Value value="Home"/>
			<Value value="Machinist"/>
			<Value value="Military"/>
			<Value value="Professional"/>
			<Value value="Protective"/>
			<Value value="Repair"/>
			<Value value="Sales"/>
			<Value value="Service"/>
			<Value value="Support"/>
			<Value value="Transport"/>
		</DataField>
		<DataField name="Gender" optype="categorical" dataType="string">
			<Value value="Female"/>
			<Value value="Male"/>
		</DataField>
		<DataField name="Deductions" optype="categorical" dataType="boolean">
			<Value value="false"/>
			<Value value="true"/>
		</DataField>
		<DataField name="Age" optype="continuous" dataType="integer">
			<Interval closure="closedClosed" leftMargin="17" rightMargin="83"/>
		</DataField>
		<DataField name="Income" optype="continuous" dataType="double">
			<Interval closure="closedClosed" leftMargin="609.72" rightMargin="481259.5"/>
		</DataField>
		<DataField name="Hours" optype="continuous" dataType="double">
			<Interval closure="closedClosed" leftMargin="1.0" rightMargin="99.0"/>
		</DataField>
	</DataDictionary>
	<MiningModel functionName="classification" algorithmName="sklearn.ensemble._forest.RandomForestClassifier">
		<MiningSchema>
			<MiningField name="Adjusted" usageType="target"/>
			<MiningField name="Employment" missingValueTreatment="asIs"/>
			<MiningField name="Education" missingValueTreatment="asIs"/>
			<MiningField name="Marital" missingValueTreatment="asIs"/>
			<MiningField name="Occupation" missingValueTreatment="asIs"/>
			<MiningField name="Gender" missingValueTreatment="asIs"/>
			<MiningField name="Deductions" missingValueTreatment="asIs"/>
			<MiningField name="Income" missingValueTreatment="asIs"/>
			<MiningField name="Age" missingValueTreatment="asIs"/>
			<MiningField name="Hours" missingValueTreatment="asIs"/>
		</MiningSchema>
		<Output>
			<OutputField name="probability(0)" optype="continuous" dataType="double" feature="probability" value="0"/>
			<OutputField name="probability(1)" optype="continuous" dataType="double" feature="probability" value="1"/>
		</Output>
		<ModelStats>
			<UnivariateStats field="Employment">
				<Counts totalFreq="1899" missingFreq="0" invalidFreq="0"/>
				<DiscrStats>
					<Array type="string">Consultant PSFederal PSLocal PSState Private SelfEmp Volunteer</Array>
					<Array type="int">148 69 119 72 1411 79 1</Array>
				</DiscrStats>
			</UnivariateStats>
			<UnivariateStats field="Education">
				<Counts totalFreq="1899" missingFreq="0" invalidFreq="0"/>
				<DiscrStats>
					<Array type="string">Associate Bachelor College Doctorate HSgrad Master Preschool Professional Vocational Yr10 Yr11 Yr12 Yr1t4 Yr5t6 Yr7t8 Yr9</Array>
					<Array type="int">67 332 418 24 633 98 6 23 81 54 65 15 5 21 32 25</Array>
				</DiscrStats>
			</UnivariateStats>
			<UnivariateStats field="Marital">
				<Counts totalFreq="1899" missingFreq="0" invalidFreq="0"/>
				<DiscrStats>
					<Array type="string">Absent Divorced Married Married-spouse-absent Unmarried Widowed</Array>
					<Array type="int">633 256 878 21 64 47</Array>
				</DiscrStats>
			</UnivariateStats>
			<UnivariateStats field="Occupation">
				<Counts totalFreq="1899" missingFreq="0" invalidFreq="0"/>
				<DiscrStats>
					<Array type="string">Cleaner Clerical Executive Farming Home Machinist Military Professional Protective Repair Sales Service Support Transport</Array>
					<Array type="int">91 232 289 58 5 139 1 247 40 225 206 210 49 107</Array>
				</DiscrStats>
			</UnivariateStats>
			<UnivariateStats field="Gender">
				<Counts totalFreq="1899" missingFreq="0" invalidFreq="0"/>
				<DiscrStats>
					<Array type="string">Female Male</Array>
					<Array type="int">592 1307</Array>
				</DiscrStats>
			</UnivariateStats>
			<UnivariateStats field="Deductions">
				<Counts totalFreq="1899" missingFreq="0" invalidFreq="0"/>
				<DiscrStats>
					<Array type="string">false true</Array>
					<Array type="int">1818 81</Array>
				</DiscrStats>
			</UnivariateStats>
			<UnivariateStats field="Income">
				<Counts totalFreq="1899" missingFreq="0" invalidFreq="0"/>
				<NumericInfo minimum="609.72" maximum="481259.5" mean="84404.87069510268" standardDeviation="69670.62788525566" median="59534.87" interQuartileRange="79343.92"/>
			</UnivariateStats>
			<UnivariateStats field="Age">
				<Counts totalFreq="1899" missingFreq="0" invalidFreq="0"/>
				<NumericInfo minimum="17" maximum="83" mean="38.30279094260137" standardDeviation="13.010323102003973" median="37.0" interQuartileRange="19.0"/>
			</UnivariateStats>
			<UnivariateStats field="Hours">
				<Counts totalFreq="1899" missingFreq="0" invalidFreq="0"/>
				<NumericInfo minimum="1.0" maximum="99.0" mean="40.56714060031596" standardDeviation="11.656262333704255" median="40.0" interQuartileRange="5.0"/>
			</UnivariateStats>
		</ModelStats>
		<LocalTransformations>
			<DerivedField name="float(Age)" optype="continuous" dataType="float">
				<FieldRef field="Age"/>
			</DerivedField>
			<DerivedField name="float(Income)" optype="continuous" dataType="float">
				<FieldRef field="Income"/>
			</DerivedField>
			<DerivedField name="float(Hours)" optype="continuous" dataType="float">
				<FieldRef field="Hours"/>
			</DerivedField>
			<DerivedField name="double(float(Income))" optype="continuous" dataType="double">
				<FieldRef field="float(Income)"/>
			</DerivedField>
			<DerivedField name="double(float(Age))" optype="continuous" dataType="double">
				<FieldRef field="float(Age)"/>
			</DerivedField>
			<DerivedField name="double(float(Hours))" optype="continuous" dataType="double">
				<FieldRef field="float(Hours)"/>
			</DerivedField>
		</LocalTransformations>
		<Segmentation multipleModelMethod="average">
			<Segment id="1">
				<True/>
				<TreeModel functionName="classification" splitCharacteristic="binarySplit">
					<MiningSchema>
						<MiningField name="Employment"/>
						<MiningField name="Education"/>
						<MiningField name="Marital"/>
						<MiningField name="Occupation"/>
						<MiningField name="Gender"/>
						<MiningField name="Deductions"/>
						<MiningField name="double(float(Income))"/>
						<MiningField name="double(float(Age))"/>
						<MiningField name="double(float(Hours))"/>
					</MiningSchema>
					<Node id="0">
						<True/>
						<Node id="1">
							<SimplePredicate field="Education" operator="notEqual" value="Doctorate"/>
							<Node id="2">
								<SimplePredicate field="Education" operator="notEqual" value="Bachelor"/>
								<Node id="3">
									<SimplePredicate field="Marital" operator="notEqual" value="Absent"/>
									<Node id="4">
										<SimplePredicate field="double(float(Income))" operator="lessOrEqual" value="51111.455078125"/>
										<Node id="5">
											<SimplePredicate field="double(float(Age))" operator="lessOrEqual" value="39.5"/>
											<Node id="6">
												<SimplePredicate field="Employment" operator="notEqual" value="PSFederal"/>
												<Node id="7">
													<SimplePredicate field="Education" operator="notEqual" value="Professional"/>
													<Node id="8">
														<SimplePredicate field="double(float(Age))" operator="lessOrEqual" value="29.5"/>
														<Node id="9">
															<SimplePredicate field="Occupation" operator="notEqual" value="Machinist"/>
															<Node id="10">
																<SimplePredicate field="Occupation" operator="notEqual" value="Cleaner"/>
																<Node id="11">
																	<SimplePredicate field="double(float(Age))" operator="lessOrEqual" value="27.5"/>
																	<Node id="12" score="0" recordCount="18">
																		<SimplePredicate field="double(float(Age))" operator="lessOrEqual" value="26.5"/>
																		<ScoreDistribution value="0" recordCount="18"/>
																		<ScoreDistribution value="1" recordCount="0"/>
																	</Node>
																	<Node id="13">
																		<SimplePredicate field="double(float(Age))" operator="greaterThan" value="26.5"/>
																		<Node id="14">
																			<SimplePredicate field="Occupation" operator="notEqual" value="Protective"/>
																			<Node id="15" score="0" recordCount="9">
																				<SimplePredicate field="Education" operator="notEqual" value="HSgrad"/>
																				<ScoreDistribution value="0" recordCount="9"/>
																				<ScoreDistribution value="1" recordCount="0"/>
																			</Node>
																			<Node id="16">
																				<SimplePredicate field="Education" operator="equal" value="HSgrad"/>
																				<Node id="17">
																					<SimplePredicate field="Occupation" operator="notEqual" value="Clerical"/>
																					<Node id="18">
																						<SimplePredicate field="double(float(Hours))" operator="lessOrEqual" value="46.5"/>
																						<Node id="19" score="0" recordCount="1">
																							<SimplePredicate field="Occupation" operator="notEqual" value="Repair"/>
																							<ScoreDistribution value="0" recordCount="1"/>
																							<ScoreDistribution value="1" recordCount="0"/>
																						</Node>
																						<Node id="20">
																							<SimplePredicate field="Occupation" operator="equal" value="Repair"/>
																							<Node id="21" score="0" recordCount="5">
																								<SimplePredicate field="double(float(Income))" operator="lessOrEqual" value="35102.87109375"/>
																								<ScoreDistribution value="0" recordCount="5"/>
																								<ScoreDistribution value="1" recordCount="0"/>
																							</Node>
																							<Node id="22" score="1" recordCount="2">
																								<SimplePredicate field="double(float(Income))" operator="greaterThan" value="35102.87109375"/>
																								<ScoreDistribution value="0" recordCount="0"/>
																								<ScoreDistribution value="1" recordCount="2"/>
																							</Node>
																						</Node>
																					</Node>
																					<Node id="23" score="0" recordCount="1">
																						<SimplePredicate field="double(float(Hours))" operator="greaterThan" value="46.5"/>
																						<ScoreDistribution value="0" recordCount="1"/>
																						<ScoreDistribution value="1" recordCount="0"/>
																					</Node>
																				</Node>
																				<Node id="24" score="0" recordCount="1">
																					<SimplePredicate field="Occupation" operator="equal" value="Clerical"/>
																					<ScoreDistribution value="0" recordCount="1"/>
																					<ScoreDistribution value="1" recordCount="0"/>
																				</Node>
																			</Node>
																		</Node>
																		<Node id="25" score="0" recordCount="2">
																			<SimplePredicate field="Occupation" operator="equal" value="Protective"/>
																			<ScoreDistribution value="0" recordCount="2"/>
																			<ScoreDistribution value="1" recordCount="0"/>
																		</Node>
																	</Node>
																</Node>
																<Node id="26" score="0" recordCount="24">
																	<SimplePredicate field="double(float(Age))" operator="greaterThan" value="27.5"/>
																	<ScoreDistribution value="0" recordCount="24"/>
																	<ScoreDistribution value="1" recordCount="0"/>
																</Node>
															</Node>
															<Node id="27" score="0" recordCount="4">
																<SimplePredicate field="Occupation" operator="equal" value="Cleaner"/>
																<ScoreDistribution value="0" recordCount="4"/>
																<ScoreDistribution value="1" recordCount="0"/>
															</Node>
														</Node>
														<Node id="28">
															<SimplePredicate field="Occupation" operator="equal" value="Machinist"/>
															<Node id="29">
																<SimplePredicate field="double(float(Hours))" operator="lessOrEqual" value="45.0"/>
																<Node id="30" score="0" recordCount="3">
																	<SimplePredicate field="double(float(Income))" operator="lessOrEqual" value="28314.6396484375"/>
																	<ScoreDistribution value="0" recordCount="3"/>
																	<ScoreDistribution value="1" recordCount="0"/>
																</Node>
																<Node id="31" score="1" recordCount="1">
																	<SimplePredicate field="double(float(Income))" operator="greaterThan" value="28314.6396484375"/>
																	<ScoreDistribution value="0" recordCount="0"/>
																	<ScoreDistribution value="1" recordCount="1"/>
																</Node>
															</Node>
															<Node id="32">
																<SimplePredicate field="double(float(Hours))" operator="greaterThan" value="45.0"/>
																<Node id="33" score="1" recordCount="1">
																	<SimplePredicate field="double(float(Age))" operator="lessOrEqual" value="28.0"/>
																	<ScoreDistribution value="0" recordCount="0"/>
																	<ScoreDistribution value="1" recordCount="1"/>
																</Node>
																<Node id="34" score="0" recordCount="1">
																	<SimplePredicate field="double(float(Age))" operator="greaterThan" value="28.0"/>
																	<ScoreDistribution value="0" recordCount="1"/>
																	<ScoreDistribution value="1" recordCount="0"/>
																</Node>
															</Node>
														</Node>
													</Node>
													<Node id="35">
														<SimplePredicate field="double(float(Age))" operator="greaterThan" value="29.5"/>
														<Node id="36">
															<SimplePredicate field="double(float(Hours))" operator="lessOrEqual" value="52.5"/>
															<Node id="37" score="0" recordCount="11">
																<SimplePredicate field="Marital" operator="notEqual" value="Married"/>
																<ScoreDistribution value="0" recordCount="11"/>
																<ScoreDistribution value="1" recordCount="0"/>
															</Node>
															<Node id="38">
																<SimplePredicate field="Marital" operator="equal" value="Married"/>
																<Node id="39">
																	<SimplePredicate field="Occupation" operator="notEqual" value="Professional"/>
																	<Node id="40">
																		<SimplePredicate field="double(float(Age))" operator="lessOrEqual" value="31.5"/>
																		<Node id="41">
																			<SimplePredicate field="Occupation" operator="notEqual" value="Cleaner"/>
																			<Node id="42" score="1" recordCount="1">
																				<SimplePredicate field="Employment" operator="notEqual" value="Private"/>
																				<ScoreDistribution value="0" recordCount="0"/>
																				<ScoreDistribution value="1" recordCount="1"/>
																			</Node>
																			<Node id="43">
																				<SimplePredicate field="Employment" operator="equal" value="Private"/>
																				<Node id="44">
																					<SimplePredicate field="double(float(Age))" operator="lessOrEqual" value="30.5"/>
																					<Node id="45" score="1" recordCount="1">
																						<SimplePredicate field="double(float(Income))" operator="lessOrEqual" value="18324.80029296875"/>
																						<ScoreDistribution value="0" recordCount="0"/>
																						<ScoreDistribution value="1" recordCount="1"/>
																					</Node>
																					<Node id="46">
																						<SimplePredicate field="double(float(Income))" operator="greaterThan" value="18324.80029296875"/>
																						<Node id="47" score="0" recordCount="2">
																							<SimplePredicate field="Gender" operator="notEqual" value="Male"/>
																							<ScoreDistribution value="0" recordCount="2"/>
																							<ScoreDistribution value="1" recordCount="0"/>
																						</Node>
																						<Node id="48">
																							<SimplePredicate field="Gender" operator="equal" value="Male"/>
																							<Node id="49" score="0" recordCount="1">
																								<SimplePredicate field="Occupation" operator="notEqual" value="Repair"/>
																								<ScoreDistribution value="0" recordCount="1"/>
																								<ScoreDistribution value="1" recordCount="0"/>
																							</Node>
																							<Node id="50">
																								<SimplePredicate field="Occupation" operator="equal" value="Repair"/>
																								<Node id="51" score="1" recordCount="1">
																									<SimplePredicate field="double(float(Income))" operator="lessOrEqual" value="33760.009765625"/>
																									<ScoreDistribution value="0" recordCount="0"/>
																									<ScoreDistribution value="1" recordCount="1"/>
																								</Node>
																								<Node id="52" score="0" recordCount="1">
																									<SimplePredicate field="double(float(Income))" operator="greaterThan" value="33760.009765625"/>
																									<ScoreDistribution value="0" recordCount="1"/>
																									<ScoreDistribution value="1" recordCount="0"/>
																								</Node>
																							</Node>
																						</Node>
																					</Node>
																				</Node>
																				<Node id="53">
																					<SimplePredicate field="double(float(Age))" operator="greaterThan" value="30.5"/>
																					<Node id="54" score="0" recordCount="1">
																						<SimplePredicate field="Occupation" operator="notEqual" value="Repair"/>
																						<ScoreDistribution value="0" recordCount="1"/>
																						<ScoreDistribution value="1" recordCount="0"/>
																					</Node>
																					<Node id="55">
																						<SimplePredicate field="Occupation" operator="equal" value="Repair"/>
																						<Node id="56" score="1" recordCount="2">
																							<SimplePredicate field="double(float(Income))" operator="lessOrEqual" value="29993.5107421875"/>
																							<ScoreDistribution value="0" recordCount="0"/>
																							<ScoreDistribution value="1" recordCount="2"/>
																						</Node>
																						<Node id="57" score="0" recordCount="1">
																							<SimplePredicate field="double(float(Income))" operator="greaterThan" value="29993.5107421875"/>
																							<ScoreDistribution value="0" recordCount="1"/>
																							<ScoreDistribution value="1" recordCount="0"/>
																						</Node>
																					</Node>
																				</Node>
																			</Node>
																		</Node>
																		<Node id="58" score="0" recordCount="1">
																			<SimplePredicate field="Occupation" operator="equal" value="Cleaner"/>
																			<ScoreDistribution value="0" recordCount="1"/>
																			<ScoreDistribution value="1" recordCount="0"/>
																		</Node>
																	</Node>
																	<Node id="59">
																		<SimplePredicate field="double(float(Age))" operator="greaterThan" value="31.5"/>
																		<Node id="60">
																			<SimplePredicate field="Education" operator="notEqual" value="Master"/>
																			<Node id="61">
																				<SimplePredicate field="Education" operator="notEqual" value="Yr10"/>
																				<Node id="62">
																					<SimplePredicate field="Education" operator="notEqual" value="HSgrad"/>
																					<Node id="63" score="0" recordCount="23">
																						<SimplePredicate field="Occupation" operator="notEqual" value="Machinist"/>
																						<ScoreDistribution value="0" recordCount="23"/>
																						<ScoreDistribution value="1" recordCount="0"/>
																					</Node>
																					<Node id="64">
																						<SimplePredicate field="Occupation" operator="equal" value="Machinist"/>
																						<Node id="65" score="0" recordCount="5">
																							<SimplePredicate field="double(float(Hours))" operator="lessOrEqual" value="45.0"/>
																							<ScoreDistribution value="0" recordCount="5"/>
																							<ScoreDistribution value="1" recordCount="0"/>
																						</Node>
																						<Node id="66">
																							<SimplePredicate field="double(float(Hours))" operator="greaterThan" value="45.0"/>
																							<Node id="67" score="1" recordCount="1">
																								<SimplePredicate field="double(float(Age))" operator="lessOrEqual" value="37.5"/>
																								<ScoreDistribution value="0" recordCount="0"/>
																								<ScoreDistribution value="1" recordCount="1"/>
																							</Node>
																							<Node id="68" score="0" recordCount="2">
																								<SimplePredicate field="double(float(Age))" operator="greaterThan" value="37.5"/>
																								<ScoreDistribution value="0" recordCount="2"/>
																								<ScoreDistribution value="1" recordCount="0"/>
																							</Node>
																						</Node>
																					</Node>
																				</Node>
																				<Node id="69">
																					<SimplePredicate field="Education" operator="equal" value="HSgrad"/>
																					<Node id="70" score="1" recordCount="2">
																						<SimplePredicate field="double(float(Income))" operator="lessOrEqual" value="7331.084716796875"/>
																						<ScoreDistribution value="0" recordCount="0"/>
																						<ScoreDistribution value="1" recordCount="2"/>
																					</Node>
																					<Node id="71">
																						<SimplePredicate field="double(float(Income))" operator="greaterThan" value="7331.084716796875"/>
																						<Node id="72">
																							<SimplePredicate field="Occupation" operator="notEqual" value="Cleaner"/>
																							<Node id="73">
																								<SimplePredicate field="double(float(Hours))" operator="lessOrEqual" value="42.5"/>
																								<Node id="74" score="0" recordCount="20">
																									<SimplePredicate field="double(float(Age))" operator="lessOrEqual" value="37.5"/>
																									<ScoreDistribution value="0" recordCount="20"/>
																									<ScoreDistribution value="1" recordCount="0"/>
																								</Node>
																								<Node id="75">
																									<SimplePredicate field="double(float(Age))" operator="greaterThan" value="37.5"/>
																									<Node id="76">
																										<SimplePredicate field="Occupation" operator="notEqual" value="Machinist"/>
																										<Node id="77" score="0" recordCount="1">
																											<SimplePredicate field="double(float(Hours))" operator="lessOrEqual" value="39.0"/>
																											<ScoreDistribution value="0" recordCount="1"/>
																											<ScoreDistribution value="1" recordCount="0"/>
																										</Node>
																										<Node id="78">
																											<SimplePredicate field="double(float(Hours))" operator="greaterThan" value="39.0"/>
																											<Node id="79">
																												<SimplePredicate field="Occupation" operator="notEqual" value="Sales"/>
																												<Node id="80">
																													<SimplePredicate field="Occupation" operator="notEqual" value="Repair"/>
																													<Node id="81">
																														<SimplePredicate field="double(float(Age))" operator="lessOrEqual" value="38.5"/>
																														<Node id="82">
																															<SimplePredicate field="Employment" operator="notEqual" value="PSLocal"/>
																															<Node id="83" score="1" recordCount="1">
																																<SimplePredicate field="Occupation" operator="notEqual" value="Transport"/>
																																<ScoreDistribution value="0" recordCount="0"/>
																																<ScoreDistribution value="1" recordCount="1"/>
																															</Node>
																															<Node id="84" score="0" recordCount="2">
																																<SimplePredicate field="Occupation" operator="equal" value="Transport"/>
																																<ScoreDistribution value="0" recordCount="2"/>
																																<ScoreDistribution value="1" recordCount="0"/>
																															</Node>
																														</Node>
																														<Node id="85" score="0" recordCount="1">
																															<SimplePredicate field="Employment" operator="equal" value="PSLocal"/>
																															<ScoreDistribution value="0" recordCount="1"/>
																															<ScoreDistribution value="1" recordCount="0"/>
																														</Node>
																													</Node>
																													<Node id="86" score="0" recordCount="3">
																														<SimplePredicate field="double(float(Age))" operator="greaterThan" value="38.5"/>
																														<ScoreDistribution value="0" recordCount="3"/>
																														<ScoreDistribution value="1" recordCount="0"/>
																													</Node>
																												</Node>
																												<Node id="87" score="1" recordCount="1">
																													<SimplePredicate field="Occupation" operator="equal" value="Repair"/>
																													<ScoreDistribution value="0" recordCount="0"/>
																													<ScoreDistribution value="1" recordCount="1"/>
																												</Node>
																											</Node>
																											<Node id="88" score="1" recordCount="1">
																												<SimplePredicate field="Occupation" operator="equal" value="Sales"/>
																												<ScoreDistribution value="0" recordCount="0"/>
																												<ScoreDistribution value="1" recordCount="1"/>
																											</Node>
																										</Node>
																									</Node>
																									<Node id="89" score="0" recordCount="1">
																										<SimplePredicate field="Occupation" operator="equal" value="Machinist"/>
																										<ScoreDistribution value="0" recordCount="1"/>
																										<ScoreDistribution value="1" recordCount="0"/>
																									</Node>
																								</Node>
																							</Node>
																							<Node id="90" score="0" recordCount="9">
																								<SimplePredicate field="double(float(Hours))" operator="greaterThan" value="42.5"/>
																								<ScoreDistribution value="0" recordCount="9"/>
																								<ScoreDistribution value="1" recordCount="0"/>
																							</Node>
																						</Node>
																						<Node id="91" score="0" recordCount="4">
																							<SimplePredicate field="Occupation" operator="equal" value="Cleaner"/>
																							<ScoreDistribution value="0" recordCount="4"/>
																							<ScoreDistribution value="1" recordCount="0"/>
																						</Node>
																					</Node>
																				</Node>
																			</Node>
																			<Node id="92">
																				<SimplePredicate field="Education" operator="equal" value="Yr10"/>
																				<Node id="93">
																					<SimplePredicate field="Occupation" operator="notEqual" value="Farming"/>
																					<Node id="94" score="0" recordCount="1">
																						<SimplePredicate field="double(float(Income))" operator="lessOrEqual" value="33247.1337890625"/>
																						<ScoreDistribution value="0" recordCount="1"/>
																						<ScoreDistribution value="1" recordCount="0"/>
																					</Node>
																					<Node id="95" score="1" recordCount="3">
																						<SimplePredicate field="double(float(Income))" operator="greaterThan" value="33247.1337890625"/>
																						<ScoreDistribution value="0" recordCount="0"/>
																						<ScoreDistribution value="1" recordCount="3"/>
																					</Node>
																				</Node>
																				<Node id="96" score="0" recordCount="1">
																					<SimplePredicate field="Occupation" operator="equal" value="Farming"/>
																					<ScoreDistribution value="0" recordCount="1"/>
																					<ScoreDistribution value="1" recordCount="0"/>
																				</Node>
																			</Node>
																		</Node>
																		<Node id="97" score="0" recordCount="2">
																			<SimplePredicate field="Education" operator="equal" value="Master"/>
																			<ScoreDistribution value="0" recordCount="2"/>
																			<ScoreDistribution value="1" recordCount="0"/>
																		</Node>
																	</Node>
																</Node>
																<Node id="98" score="1" recordCount="7">
																	<SimplePredicate field="Occupation" operator="equal" value="Professional"/>
																	<ScoreDistribution value="0" recordCount="0"/>
																	<ScoreDistribution value="1" recordCount="7"/>
																</Node>
															</Node>
														</Node>
														<Node id="99">
															<SimplePredicate field="double(float(Hours))" operator="greaterThan" value="52.5"/>
															<Node id="100">
																<SimplePredicate field="Education" operator="notEqual" value="Master"/>
																<Node id="101">
																	<SimplePredicate field="Employment" operator="notEqual" value="Consultant"/>
																	<Node id="102">
																		<SimplePredicate field="Occupation" operator="notEqual" value="Executive"/>
																		<Node id="103">
																			<SimplePredicate field="Education" operator="notEqual" value="College"/>
																			<Node id="104">
																				<SimplePredicate field="Occupation" operator="notEqual" value="Service"/>
																				<Node id="105">
																					<SimplePredicate field="Occupation" operator="notEqual" value="Transport"/>
																					<Node id="106" score="0" recordCount="1">
																						<SimplePredicate field="double(float(Income))" operator="lessOrEqual" value="28448.390625"/>
																						<ScoreDistribution value="0" recordCount="1"/>
																						<ScoreDistribution value="1" recordCount="0"/>
																					</Node>
																					<Node id="107">
																						<SimplePredicate field="double(float(Income))" operator="greaterThan" value="28448.390625"/>
																						<Node id="108" score="1" recordCount="1">
																							<SimplePredicate field="double(float(Hours))" operator="lessOrEqual" value="62.5"/>
																							<ScoreDistribution value="0" recordCount="0"/>
																							<ScoreDistribution value="1" recordCount="1"/>
																						</Node>
																						<Node id="109">
																							<SimplePredicate field="double(float(Hours))" operator="greaterThan" value="62.5"/>
																							<Node id="110" score="0" recordCount="1">
																								<SimplePredicate field="double(float(Age))" operator="lessOrEqual" value="36.5"/>
																								<ScoreDistribution value="0" recordCount="1"/>
																								<ScoreDistribution value="1" recordCount="0"/>
																							</Node>
																							<Node id="111" score="1" recordCount="1">
																								<SimplePredicate field="double(float(Age))" operator="greaterThan" value="36.5"/>
																								<ScoreDistribution value="0" recordCount="0"/>
																								<ScoreDistribution value="1" recordCount="1"/>
																							</Node>
																						</Node>
																					</Node>
																				</Node>
																				<Node id="112" score="1" recordCount="2">
																					<SimplePredicate field="Occupation" operator="equal" value="Transport"/>
																					<ScoreDistribution value="0" recordCount="0"/>
																					<ScoreDistribution value="1" recordCount="2"/>
																				</Node>
																			</Node>
																			<Node id="113" score="0" recordCount="4">
																				<SimplePredicate field="Occupation" operator="equal" value="Service"/>
																				<ScoreDistribution value="0" recordCount="4"/>
																				<ScoreDistribution value="1" recordCount="0"/>
																			</Node>
																		</Node>
																		<Node id="114">
																			<SimplePredicate field="Education" operator="equal" value="College"/>
																			<Node id="115" score="0" recordCount="4">
																				<SimplePredicate field="Occupation" operator="notEqual" value="Sales"/>
																				<ScoreDistribution value="0" recordCount="4"/>
																				<ScoreDistribution value="1" recordCount="0"/>
																			</Node>
																			<Node id="116" score="1" recordCount="2">
																				<SimplePredicate field="Occupation" operator="equal" value="Sales"/>
																				<ScoreDistribution value="0" recordCount="0"/>
																				<ScoreDistribution value="1" recordCount="2"/>
																			</Node>
																		</Node>
																	</Node>
																	<Node id="117" score="1" recordCount="4">
																		<SimplePredicate field="Occupation" operator="equal" value="Executive"/>
																		<ScoreDistribution value="0" recordCount="0"/>
																		<ScoreDistribution value="1" recordCount="4"/>
																	</Node>
																</Node>
																<Node id="118" score="1" recordCount="2">
																	<SimplePredicate field="Employment" operator="equal" value="Consultant"/>
																	<ScoreDistribution value="0" recordCount="0"/>
																	<ScoreDistribution value="1" recordCount="2"/>
																</Node>
															</Node>
															<Node id="119" score="1" recordCount="4">
																<SimplePredicate field="Education" operator="equal" value="Master"/>
																<ScoreDistribution value="0" recordCount="0"/>
																<ScoreDistribution value="1" recordCount="4"/>
															</Node>
														</Node>
													</Node>
												</Node>
												<Node id="120" score="1" recordCount="6">
													<SimplePredicate field="Education" operator="equal" value="Professional"/>
													<ScoreDistribution value="0" recordCount="0"/>
													<ScoreDistribution value="1" recordCount="6"/>
												</Node>
											</Node>
											<Node id="121">
												<SimplePredicate field="Employment" operator="equal" value="PSFederal"/>
												<Node id="122" score="0" recordCount="1">
													<SimplePredicate field="Education" operator="notEqual" value="College"/>
													<ScoreDistribution value="0" recordCount="1"/>
													<ScoreDistribution value="1" recordCount="0"/>
												</Node>
												<Node id="123">
													<SimplePredicate field="Education" operator="equal" value="College"/>
													<Node id="124" score="0" recordCount="1">
														<SimplePredicate field="Occupation" operator="notEqual" value="Executive"/>
														<ScoreDistribution value="0" recordCount="1"/>
														<ScoreDistribution value="1" recordCount="0"/>
													</Node>
													<Node id="125" score="1" recordCount="2">
														<SimplePredicate field="Occupation" operator="equal" value="Executive"/>
														<ScoreDistribution value="0" recordCount="0"/>
														<ScoreDistribution value="1" recordCount="2"/>
													</Node>
												</Node>
											</Node>
										</Node>
										<Node id="126">
											<SimplePredicate field="double(float(Age))" operator="greaterThan" value="39.5"/>
											<Node id="127">
												<SimplePredicate field="Occupation" operator="notEqual" value="Executive"/>
												<Node id="128">
													<SimplePredicate field="Occupation" operator="notEqual" value="Professional"/>
													<Node id="129">
														<SimplePredicate field="Occupation" operator="notEqual" value="Machinist"/>
														<Node id="130">
															<SimplePredicate field="Marital" operator="notEqual" value="Divorced"/>
															<Node id="131">
																<SimplePredicate field="Education" operator="notEqual" value="Associate"/>
																<Node id="132">
																	<SimplePredicate field="double(float(Age))" operator="lessOrEqual" value="60.5"/>
																	<Node id="133">
																		<SimplePredicate field="Education" operator="notEqual" value="College"/>
																		<Node id="134">
																			<SimplePredicate field="Employment" operator="notEqual" value="PSFederal"/>
																			<Node id="135">
																				<SimplePredicate field="Occupation" operator="notEqual" value="Sales"/>
																				<Node id="136">
																					<SimplePredicate field="Occupation" operator="notEqual" value="Protective"/>
																					<Node id="137">
																						<SimplePredicate field="double(float(Age))" operator="lessOrEqual" value="57.5"/>
																						<Node id="138">
																							<SimplePredicate field="Occupation" operator="notEqual" value="Service"/>
																							<Node id="139">
																								<SimplePredicate field="Marital" operator="notEqual" value="Widowed"/>
																								<Node id="140">
																									<SimplePredicate field="Deductions" operator="notEqual" value="true"/>
																									<Node id="141">
																										<SimplePredicate field="Employment" operator="notEqual" value="PSState"/>
																										<Node id="142">
																											<SimplePredicate field="Occupation" operator="notEqual" value="Transport"/>
																											<Node id="143">
																												<SimplePredicate field="double(float(Income))" operator="lessOrEqual" value="44066.099609375"/>
																												<Node id="144" score="0" recordCount="1">
																													<SimplePredicate field="Marital" operator="notEqual" value="Married"/>
																													<ScoreDistribution value="0" recordCount="1"/>
																													<ScoreDistribution value="1" recordCount="0"/>
																												</Node>
																												<Node id="145">
																													<SimplePredicate field="Marital" operator="equal" value="Married"/>
																													<Node id="146">
																														<SimplePredicate field="Employment" operator="notEqual" value="Private"/>
																														<Node id="147" score="0" recordCount="10">
																															<SimplePredicate field="Employment" operator="notEqual" value="PSLocal"/>
																															<ScoreDistribution value="0" recordCount="10"/>
																															<ScoreDistribution value="1" recordCount="0"/>
																														</Node>
																														<Node id="148">
																															<SimplePredicate field="Employment" operator="equal" value="PSLocal"/>
																															<Node id="149" score="1" recordCount="1">
																																<SimplePredicate field="Occupation" operator="notEqual" value="Farming"/>
																																<ScoreDistribution value="0" recordCount="0"/>
																																<ScoreDistribution value="1" recordCount="1"/>
																															</Node>
																															<Node id="150" score="0" recordCount="2">
																																<SimplePredicate field="Occupation" operator="equal" value="Farming"/>
																																<ScoreDistribution value="0" recordCount="2"/>
																																<ScoreDistribution value="1" recordCount="0"/>
																															</Node>
																														</Node>
																													</Node>
																													<Node id="151">
																														<SimplePredicate field="Employment" operator="equal" value="Private"/>
																														<Node id="152" score="0" recordCount="8">
																															<SimplePredicate field="Education" operator="notEqual" value="HSgrad"/>
																															<ScoreDistribution value="0" recordCount="8"/>
																															<ScoreDistribution value="1" recordCount="0"/>
																														</Node>
																														<Node id="153">
																															<SimplePredicate field="Education" operator="equal" value="HSgrad"/>
																															<Node id="154">
																																<SimplePredicate field="Occupation" operator="notEqual" value="Cleaner"/>
																																<Node id="155">
																																	<SimplePredicate field="double(float(Income))" operator="lessOrEqual" value="23505.5654296875"/>
																																	<Node id="156" score="1" recordCount="3">
																																		<SimplePredicate field="double(float(Age))" operator="lessOrEqual" value="48.5"/>
																																		<ScoreDistribution value="0" recordCount="0"/>
																																		<ScoreDistribution value="1" recordCount="3"/>
																																	</Node>
																																	<Node id="157" score="0" recordCount="8">
																																		<SimplePredicate field="double(float(Age))" operator="greaterThan" value="48.5"/>
																																		<ScoreDistribution value="0" recordCount="8"/>
																																		<ScoreDistribution value="1" recordCount="0"/>
																																	</Node>
																																</Node>
																																<Node id="158">
																																	<SimplePredicate field="double(float(Income))" operator="greaterThan" value="23505.5654296875"/>
																																	<Node id="159" score="0" recordCount="9">
																																		<SimplePredicate field="double(float(Income))" operator="lessOrEqual" value="37890.484375"/>
																																		<ScoreDistribution value="0" recordCount="9"/>
																																		<ScoreDistribution value="1" recordCount="0"/>
																																	</Node>
																																	<Node id="160">
																																		<SimplePredicate field="double(float(Income))" operator="greaterThan" value="37890.484375"/>
																																		<Node id="161" score="0" recordCount="2">
																																			<SimplePredicate field="Occupation" operator="notEqual" value="Repair"/>
																																			<ScoreDistribution value="0" recordCount="2"/>
																																			<ScoreDistribution value="1" recordCount="0"/>
																																		</Node>
																																		<Node id="162">
																																			<SimplePredicate field="Occupation" operator="equal" value="Repair"/>
																																			<Node id="163" score="0" recordCount="2">
																																				<SimplePredicate field="double(float(Hours))" operator="lessOrEqual" value="45.0"/>
																																				<ScoreDistribution value="0" recordCount="2"/>
																																				<ScoreDistribution value="1" recordCount="0"/>
																																			</Node>
																																			<Node id="164" score="1" recordCount="1">
																																				<SimplePredicate field="double(float(Hours))" operator="greaterThan" value="45.0"/>
																																				<ScoreDistribution value="0" recordCount="0"/>
																																				<ScoreDistribution value="1" recordCount="1"/>
																																			</Node>
																																		</Node>
																																	</Node>
																																</Node>
																															</Node>
																															<Node id="165" score="0" recordCount="1">
																																<SimplePredicate field="Occupation" operator="equal" value="Cleaner"/>
																																<ScoreDistribution value="0" recordCount="1"/>
																																<ScoreDistribution value="1" recordCount="0"/>
																															</Node>
																														</Node>
																													</Node>
																												</Node>
																											</Node>
																											<Node id="166">
																												<SimplePredicate field="double(float(Income))" operator="greaterThan" value="44066.099609375"/>
																												<Node id="167">
																													<SimplePredicate field="double(float(Age))" operator="lessOrEqual" value="50.5"/>
																													<Node id="168">
																														<SimplePredicate field="Employment" operator="notEqual" value="Consultant"/>
																														<Node id="169" score="1" recordCount="2">
																															<SimplePredicate field="double(float(Income))" operator="lessOrEqual" value="48352.728515625"/>
																															<ScoreDistribution value="0" recordCount="0"/>
																															<ScoreDistribution value="1" recordCount="2"/>
																														</Node>
																														<Node id="170" score="0" recordCount="1">
																															<SimplePredicate field="double(float(Income))" operator="greaterThan" value="48352.728515625"/>
																															<ScoreDistribution value="0" recordCount="1"/>
																															<ScoreDistribution value="1" recordCount="0"/>
																														</Node>
																													</Node>
																													<Node id="171" score="1" recordCount="2">
																														<SimplePredicate field="Employment" operator="equal" value="Consultant"/>
																														<ScoreDistribution value="0" recordCount="0"/>
																														<ScoreDistribution value="1" recordCount="2"/>
																													</Node>
																												</Node>
																												<Node id="172" score="0" recordCount="6">
																													<SimplePredicate field="double(float(Age))" operator="greaterThan" value="50.5"/>
																													<ScoreDistribution value="0" recordCount="6"/>
																													<ScoreDistribution value="1" recordCount="0"/>
																												</Node>
																											</Node>
																										</Node>
																										<Node id="173">
																											<SimplePredicate field="Occupation" operator="equal" value="Transport"/>
																											<Node id="174">
																												<SimplePredicate field="double(float(Hours))" operator="lessOrEqual" value="52.5"/>
																												<Node id="175">
																													<SimplePredicate field="Employment" operator="notEqual" value="PSLocal"/>
																													<Node id="176">
																														<SimplePredicate field="double(float(Hours))" operator="lessOrEqual" value="44.5"/>
																														<Node id="177" score="1" recordCount="2">
																															<SimplePredicate field="Education" operator="notEqual" value="HSgrad"/>
																															<ScoreDistribution value="0" recordCount="0"/>
																															<ScoreDistribution value="1" recordCount="2"/>
																														</Node>
																														<Node id="178">
																															<SimplePredicate field="Education" operator="equal" value="HSgrad"/>
																															<Node id="179" score="0" recordCount="1">
																																<SimplePredicate field="double(float(Income))" operator="lessOrEqual" value="25334.994140625"/>
																																<ScoreDistribution value="0" recordCount="1"/>
																																<ScoreDistribution value="1" recordCount="0"/>
																															</Node>
																															<Node id="180" score="1" recordCount="3">
																																<SimplePredicate field="double(float(Income))" operator="greaterThan" value="25334.994140625"/>
																																<ScoreDistribution value="0" recordCount="0"/>
																																<ScoreDistribution value="1" recordCount="3"/>
																															</Node>
																														</Node>
																													</Node>
																													<Node id="181" score="0" recordCount="5">
																														<SimplePredicate field="double(float(Hours))" operator="greaterThan" value="44.5"/>
																														<ScoreDistribution value="0" recordCount="5"/>
																														<ScoreDistribution value="1" recordCount="0"/>
																													</Node>
																												</Node>
																												<Node id="182" score="0" recordCount="1">
																													<SimplePredicate field="Employment" operator="equal" value="PSLocal"/>
																													<ScoreDistribution value="0" recordCount="1"/>
																													<ScoreDistribution value="1" recordCount="0"/>
																												</Node>
																											</Node>
																											<Node id="183" score="1" recordCount="3">
																												<SimplePredicate field="double(float(Hours))" operator="greaterThan" value="52.5"/>
																												<ScoreDistribution value="0" recordCount="0"/>
																												<ScoreDistribution value="1" recordCount="3"/>
																											</Node>
																										</Node>
																									</Node>
																									<Node id="184" score="1" recordCount="1">
																										<SimplePredicate field="Employment" operator="equal" value="PSState"/>
																										<ScoreDistribution value="0" recordCount="0"/>
																										<ScoreDistribution value="1" recordCount="1"/>
																									</Node>
																								</Node>
																								<Node id="185" score="0" recordCount="4">
																									<SimplePredicate field="Deductions" operator="equal" value="true"/>
																									<ScoreDistribution value="0" recordCount="4"/>
																									<ScoreDistribution value="1" recordCount="0"/>
																								</Node>
																							</Node>
																							<Node id="186" score="0" recordCount="1">
																								<SimplePredicate field="Marital" operator="equal" value="Widowed"/>
																								<ScoreDistribution value="0" recordCount="1"/>
																								<ScoreDistribution value="1" recordCount="0"/>
																							</Node>
																						</Node>
																						<Node id="187" score="0" recordCount="13">
																							<SimplePredicate field="Occupation" operator="equal" value="Service"/>
																							<ScoreDistribution value="0" recordCount="13"/>
																							<ScoreDistribution value="1" recordCount="0"/>
																						</Node>
																					</Node>
																					<Node id="188">
																						<SimplePredicate field="double(float(Age))" operator="greaterThan" value="57.5"/>
																						<Node id="189">
																							<SimplePredicate field="Education" operator="notEqual" value="HSgrad"/>
																							<Node id="190" score="1" recordCount="1">
																								<SimplePredicate field="Education" operator="notEqual" value="Yr10"/>
																								<ScoreDistribution value="0" recordCount="0"/>
																								<ScoreDistribution value="1" recordCount="1"/>
																							</Node>
																							<Node id="191" score="0" recordCount="1">
																								<SimplePredicate field="Education" operator="equal" value="Yr10"/>
																								<ScoreDistribution value="0" recordCount="1"/>
																								<ScoreDistribution value="1" recordCount="0"/>
																							</Node>
																						</Node>
																						<Node id="192" score="1" recordCount="4">
																							<SimplePredicate field="Education" operator="equal" value="HSgrad"/>
																							<ScoreDistribution value="0" recordCount="0"/>
																							<ScoreDistribution value="1" recordCount="4"/>
																						</Node>
																					</Node>
																				</Node>
																				<Node id="193">
																					<SimplePredicate field="Occupation" operator="equal" value="Protective"/>
																					<Node id="194" score="1" recordCount="2">
																						<SimplePredicate field="Employment" operator="notEqual" value="Private"/>
																						<ScoreDistribution value="0" recordCount="0"/>
																						<ScoreDistribution value="1" recordCount="2"/>
																					</Node>
																					<Node id="195">
																						<SimplePredicate field="Employment" operator="equal" value="Private"/>
																						<Node id="196" score="1" recordCount="4">
																							<SimplePredicate field="double(float(Hours))" operator="lessOrEqual" value="39.0"/>
																							<ScoreDistribution value="0" recordCount="0"/>
																							<ScoreDistribution value="1" recordCount="4"/>
																						</Node>
																						<Node id="197" score="0" recordCount="1">
																							<SimplePredicate field="double(float(Hours))" operator="greaterThan" value="39.0"/>
																							<ScoreDistribution value="0" recordCount="1"/>
																							<ScoreDistribution value="1" recordCount="0"/>
																						</Node>
																					</Node>
																				</Node>
																			</Node>
																			<Node id="198">
																				<SimplePredicate field="Occupation" operator="equal" value="Sales"/>
																				<Node id="199">
																					<SimplePredicate field="double(float(Age))" operator="lessOrEqual" value="55.0"/>
																					<Node id="200">
																						<SimplePredicate field="Employment" operator="notEqual" value="SelfEmp"/>
																						<Node id="201">
																							<SimplePredicate field="double(float(Age))" operator="lessOrEqual" value="43.0"/>
																							<Node id="202" score="1" recordCount="3">
																								<SimplePredicate field="double(float(Income))" operator="lessOrEqual" value="31753.900390625"/>
																								<ScoreDistribution value="0" recordCount="0"/>
																								<ScoreDistribution value="1" recordCount="3"/>
																							</Node>
																							<Node id="203" score="0" recordCount="2">
																								<SimplePredicate field="double(float(Income))" operator="greaterThan" value="31753.900390625"/>
																								<ScoreDistribution value="0" recordCount="2"/>
																								<ScoreDistribution value="1" recordCount="0"/>
																							</Node>
																						</Node>
																						<Node id="204" score="1" recordCount="4">
																							<SimplePredicate field="double(float(Age))" operator="greaterThan" value="43.0"/>
																							<ScoreDistribution value="0" recordCount="0"/>
																							<ScoreDistribution value="1" recordCount="4"/>
																						</Node>
																					</Node>
																					<Node id="205">
																						<SimplePredicate field="Employment" operator="equal" value="SelfEmp"/>
																						<Node id="206" score="0" recordCount="1">
																							<SimplePredicate field="Education" operator="notEqual" value="Master"/>
																							<ScoreDistribution value="0" recordCount="1"/>
																							<ScoreDistribution value="1" recordCount="0"/>
																						</Node>
																						<Node id="207" score="1" recordCount="4">
																							<SimplePredicate field="Education" operator="equal" value="Master"/>
																							<ScoreDistribution value="0" recordCount="0"/>
																							<ScoreDistribution value="1" recordCount="4"/>
																						</Node>
																					</Node>
																				</Node>
																				<Node id="208" score="0" recordCount="1">
																					<SimplePredicate field="double(float(Age))" operator="greaterThan" value="55.0"/>
																					<ScoreDistribution value="0" recordCount="1"/>
																					<ScoreDistribution value="1" recordCount="0"/>
																				</Node>
																			</Node>
																		</Node>
																		<Node id="209">
																			<SimplePredicate field="Employment" operator="equal" value="PSFederal"/>
																			<Node id="210" score="1" recordCount="2">
																				<SimplePredicate field="double(float(Age))" operator="lessOrEqual" value="46.5"/>
																				<ScoreDistribution value="0" recordCount="0"/>
																				<ScoreDistribution value="1" recordCount="2"/>
																			</Node>
																			<Node id="211" score="0" recordCount="1">
																				<SimplePredicate field="double(float(Age))" operator="greaterThan" value="46.5"/>
																				<ScoreDistribution value="0" recordCount="1"/>
																				<ScoreDistribution value="1" recordCount="0"/>
																			</Node>
																		</Node>
																	</Node>
																	<Node id="212">
																		<SimplePredicate field="Education" operator="equal" value="College"/>
																		<Node id="213">
																			<SimplePredicate field="Marital" operator="notEqual" value="Married-spouse-absent"/>
																			<Node id="214">
																				<SimplePredicate field="Occupation" operator="notEqual" value="Cleaner"/>
																				<Node id="215">
																					<SimplePredicate field="Employment" operator="notEqual" value="Private"/>
																					<Node id="216">
																						<SimplePredicate field="Employment" operator="notEqual" value="PSFederal"/>
																						<Node id="217" score="1" recordCount="12">
																							<SimplePredicate field="Occupation" operator="notEqual" value="Transport"/>
																							<ScoreDistribution value="0" recordCount="0"/>
																							<ScoreDistribution value="1" recordCount="12"/>
																						</Node>
																						<Node id="218">
																							<SimplePredicate field="Occupation" operator="equal" value="Transport"/>
																							<Node id="219">
																								<SimplePredicate field="Deductions" operator="notEqual" value="true"/>
																								<Node id="220" score="1" recordCount="1">
																									<SimplePredicate field="double(float(Income))" operator="lessOrEqual" value="22919.900390625"/>
																									<ScoreDistribution value="0" recordCount="0"/>
																									<ScoreDistribution value="1" recordCount="1"/>
																								</Node>
																								<Node id="221" score="0" recordCount="1">
																									<SimplePredicate field="double(float(Income))" operator="greaterThan" value="22919.900390625"/>
																									<ScoreDistribution value="0" recordCount="1"/>
																									<ScoreDistribution value="1" recordCount="0"/>
																								</Node>
																							</Node>
																							<Node id="222" score="1" recordCount="1">
																								<SimplePredicate field="Deductions" operator="equal" value="true"/>
																								<ScoreDistribution value="0" recordCount="0"/>
																								<ScoreDistribution value="1" recordCount="1"/>
																							</Node>
																						</Node>
																					</Node>
																					<Node id="223">
																						<SimplePredicate field="Employment" operator="equal" value="PSFederal"/>
																						<Node id="224">
																							<SimplePredicate field="Occupation" operator="notEqual" value="Support"/>
																							<Node id="225" score="1" recordCount="2">
																								<SimplePredicate field="Occupation" operator="notEqual" value="Repair"/>
																								<ScoreDistribution value="0" recordCount="0"/>
																								<ScoreDistribution value="1" recordCount="2"/>
																							</Node>
																							<Node id="226" score="0" recordCount="3">
																								<SimplePredicate field="Occupation" operator="equal" value="Repair"/>
																								<ScoreDistribution value="0" recordCount="3"/>
																								<ScoreDistribution value="1" recordCount="0"/>
																							</Node>
																						</Node>
																						<Node id="227" score="1" recordCount="2">
																							<SimplePredicate field="Occupation" operator="equal" value="Support"/>
																							<ScoreDistribution value="0" recordCount="0"/>
																							<ScoreDistribution value="1" recordCount="2"/>
																						</Node>
																					</Node>
																				</Node>
																				<Node id="228">
																					<SimplePredicate field="Employment" operator="equal" value="Private"/>
																					<Node id="229">
																						<SimplePredicate field="Occupation" operator="notEqual" value="Transport"/>
																						<Node id="230">
																							<SimplePredicate field="Occupation" operator="notEqual" value="Service"/>
																							<Node id="231" score="1" recordCount="3">
																								<SimplePredicate field="double(float(Age))" operator="lessOrEqual" value="40.5"/>
																								<ScoreDistribution value="0" recordCount="0"/>
																								<ScoreDistribution value="1" recordCount="3"/>
																							</Node>
																							<Node id="232">
																								<SimplePredicate field="double(float(Age))" operator="greaterThan" value="40.5"/>
																								<Node id="233">
																									<SimplePredicate field="Occupation" operator="notEqual" value="Sales"/>
																									<Node id="234">
																										<SimplePredicate field="Occupation" operator="notEqual" value="Protective"/>
																										<Node id="235">
																											<SimplePredicate field="Deductions" operator="notEqual" value="true"/>
																											<Node id="236">
																												<SimplePredicate field="double(float(Age))" operator="lessOrEqual" value="49.0"/>
																												<Node id="237" score="0" recordCount="3">
																													<SimplePredicate field="double(float(Age))" operator="lessOrEqual" value="43.0"/>
																													<ScoreDistribution value="0" recordCount="3"/>
																													<ScoreDistribution value="1" recordCount="0"/>
																												</Node>
																												<Node id="238">
																													<SimplePredicate field="double(float(Age))" operator="greaterThan" value="43.0"/>
																													<Node id="239">
																														<SimplePredicate field="double(float(Age))" operator="lessOrEqual" value="46.0"/>
																														<Node id="240" score="0" recordCount="5">
																															<SimplePredicate field="double(float(Income))" operator="lessOrEqual" value="26610.6455078125"/>
																															<ScoreDistribution value="0" recordCount="5"/>
																															<ScoreDistribution value="1" recordCount="0"/>
																														</Node>
																														<Node id="241" score="1" recordCount="2">
																															<SimplePredicate field="double(float(Income))" operator="greaterThan" value="26610.6455078125"/>
																															<ScoreDistribution value="0" recordCount="0"/>
																															<ScoreDistribution value="1" recordCount="2"/>
																														</Node>
																													</Node>
																													<Node id="242" score="0" recordCount="1">
																														<SimplePredicate field="double(float(Age))" operator="greaterThan" value="46.0"/>
																														<ScoreDistribution value="0" recordCount="1"/>
																														<ScoreDistribution value="1" recordCount="0"/>
																													</Node>
																												</Node>
																											</Node>
																											<Node id="243">
																												<SimplePredicate field="double(float(Age))" operator="greaterThan" value="49.0"/>
																												<Node id="244" score="0" recordCount="2">
																													<SimplePredicate field="double(float(Hours))" operator="lessOrEqual" value="44.0"/>
																													<ScoreDistribution value="0" recordCount="2"/>
																													<ScoreDistribution value="1" recordCount="0"/>
																												</Node>
																												<Node id="245" score="1" recordCount="3">
																													<SimplePredicate field="double(float(Hours))" operator="greaterThan" value="44.0"/>
																													<ScoreDistribution value="0" recordCount="0"/>
																													<ScoreDistribution value="1" recordCount="3"/>
																												</Node>
																											</Node>
																										</Node>
																										<Node id="246" score="0" recordCount="1">
																											<SimplePredicate field="Deductions" operator="equal" value="true"/>
																											<ScoreDistribution value="0" recordCount="1"/>
																											<ScoreDistribution value="1" recordCount="0"/>
																										</Node>
																									</Node>
																									<Node id="247">
																										<SimplePredicate field="Occupation" operator="equal" value="Protective"/>
																										<Node id="248" score="1" recordCount="1">
																											<SimplePredicate field="double(float(Income))" operator="lessOrEqual" value="26725.6689453125"/>
																											<ScoreDistribution value="0" recordCount="0"/>
																											<ScoreDistribution value="1" recordCount="1"/>
																										</Node>
																										<Node id="249" score="0" recordCount="3">
																											<SimplePredicate field="double(float(Income))" operator="greaterThan" value="26725.6689453125"/>
																											<ScoreDistribution value="0" recordCount="3"/>
																											<ScoreDistribution value="1" recordCount="0"/>
																										</Node>
																									</Node>
																								</Node>
																								<Node id="250">
																									<SimplePredicate field="Occupation" operator="equal" value="Sales"/>
																									<Node id="251" score="1" recordCount="1">
																										<SimplePredicate field="double(float(Hours))" operator="lessOrEqual" value="52.5"/>
																										<ScoreDistribution value="0" recordCount="0"/>
																										<ScoreDistribution value="1" recordCount="1"/>
																									</Node>
																									<Node id="252" score="0" recordCount="2">
																										<SimplePredicate field="double(float(Hours))" operator="greaterThan" value="52.5"/>
																										<ScoreDistribution value="0" recordCount="2"/>
																										<ScoreDistribution value="1" recordCount="0"/>
																									</Node>
																								</Node>
																							</Node>
																						</Node>
																						<Node id="253" score="0" recordCount="2">
																							<SimplePredicate field="Occupation" operator="equal" value="Service"/>
																							<ScoreDistribution value="0" recordCount="2"/>
																							<ScoreDistribution value="1" recordCount="0"/>
																						</Node>
																					</Node>
																					<Node id="254">
																						<SimplePredicate field="Occupation" operator="equal" value="Transport"/>
																						<Node id="255" score="1" recordCount="3">
																							<SimplePredicate field="double(float(Hours))" operator="lessOrEqual" value="50.0"/>
																							<ScoreDistribution value="0" recordCount="0"/>
																							<ScoreDistribution value="1" recordCount="3"/>
																						</Node>
																						<Node id="256" score="0" recordCount="2">
																							<SimplePredicate field="double(float(Hours))" operator="greaterThan" value="50.0"/>
																							<ScoreDistribution value="0" recordCount="2"/>
																							<ScoreDistribution value="1" recordCount="0"/>
																						</Node>
																					</Node>
																				</Node>
																			</Node>
																			<Node id="257" score="0" recordCount="2">
																				<SimplePredicate field="Occupation" operator="equal" value="Cleaner"/>
																				<ScoreDistribution value="0" recordCount="2"/>
																				<ScoreDistribution value="1" recordCount="0"/>
																			</Node>
																		</Node>
																		<Node id="258" score="0" recordCount="1">
																			<SimplePredicate field="Marital" operator="equal" value="Married-spouse-absent"/>
																			<ScoreDistribution value="0" recordCount="1"/>
																			<ScoreDistribution value="1" recordCount="0"/>
																		</Node>
																	</Node>
																</Node>
																<Node id="259">
																	<SimplePredicate field="double(float(Age))" operator="greaterThan" value="60.5"/>
																	<Node id="260">
																		<SimplePredicate field="Education" operator="notEqual" value="Yr7t8"/>
																		<Node id="261">
																			<SimplePredicate field="Education" operator="notEqual" value="HSgrad"/>
																			<Node id="262">
																				<SimplePredicate field="Occupation" operator="notEqual" value="Service"/>
																				<Node id="263">
																					<SimplePredicate field="Occupation" operator="notEqual" value="Sales"/>
																					<Node id="264">
																						<SimplePredicate field="Education" operator="notEqual" value="Vocational"/>
																						<Node id="265" score="0" recordCount="9">
																							<SimplePredicate field="Occupation" operator="notEqual" value="Farming"/>
																							<ScoreDistribution value="0" recordCount="9"/>
																							<ScoreDistribution value="1" recordCount="0"/>
																						</Node>
																						<Node id="266">
																							<SimplePredicate field="Occupation" operator="equal" value="Farming"/>
																							<Node id="267" score="0" recordCount="3">
																								<SimplePredicate field="Education" operator="notEqual" value="Yr9"/>
																								<ScoreDistribution value="0" recordCount="3"/>
																								<ScoreDistribution value="1" recordCount="0"/>
																							</Node>
																							<Node id="268" score="1" recordCount="1">
																								<SimplePredicate field="Education" operator="equal" value="Yr9"/>
																								<ScoreDistribution value="0" recordCount="0"/>
																								<ScoreDistribution value="1" recordCount="1"/>
																							</Node>
																						</Node>
																					</Node>
																					<Node id="269" score="0" recordCount="2">
																						<SimplePredicate field="Education" operator="equal" value="Vocational"/>
																						<ScoreDistribution value="0" recordCount="2"/>
																						<ScoreDistribution value="1" recordCount="0"/>
																					</Node>
																				</Node>
																				<Node id="270" score="0" recordCount="8">
																					<SimplePredicate field="Occupation" operator="equal" value="Sales"/>
																					<ScoreDistribution value="0" recordCount="8"/>
																					<ScoreDistribution value="1" recordCount="0"/>
																				</Node>
																			</Node>
																			<Node id="271" score="0" recordCount="3">
																				<SimplePredicate field="Occupation" operator="equal" value="Service"/>
																				<ScoreDistribution value="0" recordCount="3"/>
																				<ScoreDistribution value="1" recordCount="0"/>
																			</Node>
																		</Node>
																		<Node id="272">
																			<SimplePredicate field="Education" operator="equal" value="HSgrad"/>
																			<Node id="273">
																				<SimplePredicate field="Employment" operator="notEqual" value="Private"/>
																				<Node id="274" score="0" recordCount="2">
																					<SimplePredicate field="double(float(Income))" operator="lessOrEqual" value="36631.125"/>
																					<ScoreDistribution value="0" recordCount="2"/>
																					<ScoreDistribution value="1" recordCount="0"/>
																				</Node>
																				<Node id="275" score="1" recordCount="2">
																					<SimplePredicate field="double(float(Income))" operator="greaterThan" value="36631.125"/>
																					<ScoreDistribution value="0" recordCount="0"/>
																					<ScoreDistribution value="1" recordCount="2"/>
																				</Node>
																			</Node>
																			<Node id="276">
																				<SimplePredicate field="Employment" operator="equal" value="Private"/>
																				<Node id="277">
																					<SimplePredicate field="double(float(Income))" operator="lessOrEqual" value="20278.849609375"/>
																					<Node id="278" score="0" recordCount="1">
																						<SimplePredicate field="double(float(Hours))" operator="lessOrEqual" value="32.5"/>
																						<ScoreDistribution value="0" recordCount="1"/>
																						<ScoreDistribution value="1" recordCount="0"/>
																					</Node>
																					<Node id="279" score="1" recordCount="3">
																						<SimplePredicate field="double(float(Hours))" operator="greaterThan" value="32.5"/>
																						<ScoreDistribution value="0" recordCount="0"/>
																						<ScoreDistribution value="1" recordCount="3"/>
																					</Node>
																				</Node>
																				<Node id="280" score="0" recordCount="8">
																					<SimplePredicate field="double(float(Income))" operator="greaterThan" value="20278.849609375"/>
																					<ScoreDistribution value="0" recordCount="8"/>
																					<ScoreDistribution value="1" recordCount="0"/>
																				</Node>
																			</Node>
																		</Node>
																	</Node>
																	<Node id="281" score="0" recordCount="2">
																		<SimplePredicate field="Education" operator="equal" value="Yr7t8"/>
																		<ScoreDistribution value="0" recordCount="2"/>
																		<ScoreDistribution value="1" recordCount="0"/>
																	</Node>
																</Node>
															</Node>
															<Node id="282">
																<SimplePredicate field="Education" operator="equal" value="Associate"/>
																<Node id="283">
																	<SimplePredicate field="Occupation" operator="notEqual" value="Sales"/>
																	<Node id="284" score="0" recordCount="1">
																		<SimplePredicate field="double(float(Hours))" operator="lessOrEqual" value="38.0"/>
																		<ScoreDistribution value="0" recordCount="1"/>
																		<ScoreDistribution value="1" recordCount="0"/>
																	</Node>
																	<Node id="285" score="1" recordCount="7">
																		<SimplePredicate field="double(float(Hours))" operator="greaterThan" value="38.0"/>
																		<ScoreDistribution value="0" recordCount="0"/>
																		<ScoreDistribution value="1" recordCount="7"/>
																	</Node>
																</Node>
																<Node id="286" score="1" recordCount="1">
																	<SimplePredicate field="Occupation" operator="equal" value="Sales"/>
																	<ScoreDistribution value="0" recordCount="0"/>
																	<ScoreDistribution value="1" recordCount="1"/>
																</Node>
															</Node>
														</Node>
														<Node id="287" score="0" recordCount="10">
															<SimplePredicate field="Marital" operator="equal" value="Divorced"/>
															<ScoreDistribution value="0" recordCount="10"/>
															<ScoreDistribution value="1" recordCount="0"/>
														</Node>
													</Node>
													<Node id="288">
														<SimplePredicate field="Occupation" operator="equal" value="Machinist"/>
														<Node id="289" score="1" recordCount="2">
															<SimplePredicate field="double(float(Hours))" operator="lessOrEqual" value="37.5"/>
															<ScoreDistribution value="0" recordCount="0"/>
															<ScoreDistribution value="1" recordCount="2"/>
														</Node>
														<Node id="290">
															<SimplePredicate field="double(float(Hours))" operator="greaterThan" value="37.5"/>
															<Node id="291">
																<SimplePredicate field="Employment" operator="notEqual" value="PSLocal"/>
																<Node id="292" score="0" recordCount="3">
																	<SimplePredicate field="Gender" operator="notEqual" value="Male"/>
																	<ScoreDistribution value="0" recordCount="3"/>
																	<ScoreDistribution value="1" recordCount="0"/>
																</Node>
																<Node id="293">
																	<SimplePredicate field="Gender" operator="equal" value="Male"/>
																	<Node id="294">
																		<SimplePredicate field="Education" operator="notEqual" value="Yr10"/>
																		<Node id="295">
																			<SimplePredicate field="Education" operator="notEqual" value="Yr5t6"/>
																			<Node id="296">
																				<SimplePredicate field="double(float(Hours))" operator="lessOrEqual" value="42.5"/>
																				<Node id="297" score="0" recordCount="2">
																					<SimplePredicate field="Education" operator="notEqual" value="College"/>
																					<ScoreDistribution value="0" recordCount="2"/>
																					<ScoreDistribution value="1" recordCount="0"/>
																				</Node>
																				<Node id="298">
																					<SimplePredicate field="Education" operator="equal" value="College"/>
																					<Node id="299" score="0" recordCount="1">
																						<SimplePredicate field="double(float(Income))" operator="lessOrEqual" value="37355.5341796875"/>
																						<ScoreDistribution value="0" recordCount="1"/>
																						<ScoreDistribution value="1" recordCount="0"/>
																					</Node>
																					<Node id="300">
																						<SimplePredicate field="double(float(Income))" operator="greaterThan" value="37355.5341796875"/>
																						<Node id="301" score="1" recordCount="2">
																							<SimplePredicate field="double(float(Income))" operator="lessOrEqual" value="44513.1640625"/>
																							<ScoreDistribution value="0" recordCount="0"/>
																							<ScoreDistribution value="1" recordCount="2"/>
																						</Node>
																						<Node id="302" score="0" recordCount="1">
																							<SimplePredicate field="double(float(Income))" operator="greaterThan" value="44513.1640625"/>
																							<ScoreDistribution value="0" recordCount="1"/>
																							<ScoreDistribution value="1" recordCount="0"/>
																						</Node>
																					</Node>
																				</Node>
																			</Node>
																			<Node id="303" score="0" recordCount="7">
																				<SimplePredicate field="double(float(Hours))" operator="greaterThan" value="42.5"/>
																				<ScoreDistribution value="0" recordCount="7"/>
																				<ScoreDistribution value="1" recordCount="0"/>
																			</Node>
																		</Node>
																		<Node id="304" score="0" recordCount="2">
																			<SimplePredicate field="Education" operator="equal" value="Yr5t6"/>
																			<ScoreDistribution value="0" recordCount="2"/>
																			<ScoreDistribution value="1" recordCount="0"/>
																		</Node>
																	</Node>
																	<Node id="305" score="0" recordCount="1">
																		<SimplePredicate field="Education" operator="equal" value="Yr10"/>
																		<ScoreDistribution value="0" recordCount="1"/>
																		<ScoreDistribution value="1" recordCount="0"/>
																	</Node>
																</Node>
															</Node>
															<Node id="306" score="0" recordCount="1">
																<SimplePredicate field="Employment" operator="equal" value="PSLocal"/>
																<ScoreDistribution value="0" recordCount="1"/>
																<ScoreDistribution value="1" recordCount="0"/>
															</Node>
														</Node>
													</Node>
												</Node>
												<Node id="307">
													<SimplePredicate field="Occupation" operator="equal" value="Professional"/>
													<Node id="308">
														<SimplePredicate field="Education" operator="notEqual" value="College"/>
														<Node id="309">
															<SimplePredicate field="Employment" operator="notEqual" value="PSLocal"/>
															<Node id="310">
																<SimplePredicate field="Marital" operator="notEqual" value="Widowed"/>
																<Node id="311">
																	<SimplePredicate field="Marital" operator="notEqual" value="Married"/>
																	<Node id="312" score="1" recordCount="2">
																		<SimplePredicate field="Education" operator="notEqual" value="HSgrad"/>
																		<ScoreDistribution value="0" recordCount="0"/>
																		<ScoreDistribution value="1" recordCount="2"/>
																	</Node>
																	<Node id="313" score="0" recordCount="2">
																		<SimplePredicate field="Education" operator="equal" value="HSgrad"/>
																		<ScoreDistribution value="0" recordCount="2"/>
																		<ScoreDistribution value="1" recordCount="0"/>
																	</Node>
																</Node>
																<Node id="314">
																	<SimplePredicate field="Marital" operator="equal" value="Married"/>
																	<Node id="315">
																		<SimplePredicate field="double(float(Hours))" operator="lessOrEqual" value="47.5"/>
																		<Node id="316" score="1" recordCount="9">
																			<SimplePredicate field="Employment" operator="notEqual" value="PSState"/>
																			<ScoreDistribution value="0" recordCount="0"/>
																			<ScoreDistribution value="1" recordCount="9"/>
																		</Node>
																		<Node id="317">
																			<SimplePredicate field="Employment" operator="equal" value="PSState"/>
																			<Node id="318" score="0" recordCount="2">
																				<SimplePredicate field="double(float(Income))" operator="lessOrEqual" value="12590.555053710938"/>
																				<ScoreDistribution value="0" recordCount="2"/>
																				<ScoreDistribution value="1" recordCount="0"/>
																			</Node>
																			<Node id="319" score="1" recordCount="5">
																				<SimplePredicate field="double(float(Income))" operator="greaterThan" value="12590.555053710938"/>
																				<ScoreDistribution value="0" recordCount="0"/>
																				<ScoreDistribution value="1" recordCount="5"/>
																			</Node>
																		</Node>
																	</Node>
																	<Node id="320">
																		<SimplePredicate field="double(float(Hours))" operator="greaterThan" value="47.5"/>
																		<Node id="321">
																			<SimplePredicate field="Employment" operator="notEqual" value="Private"/>
																			<Node id="322" score="1" recordCount="2">
																				<SimplePredicate field="double(float(Income))" operator="lessOrEqual" value="29930.0302734375"/>
																				<ScoreDistribution value="0" recordCount="0"/>
																				<ScoreDistribution value="1" recordCount="2"/>
																			</Node>
																			<Node id="323" score="0" recordCount="1">
																				<SimplePredicate field="double(float(Income))" operator="greaterThan" value="29930.0302734375"/>
																				<ScoreDistribution value="0" recordCount="1"/>
																				<ScoreDistribution value="1" recordCount="0"/>
																			</Node>
																		</Node>
																		<Node id="324">
																			<SimplePredicate field="Employment" operator="equal" value="Private"/>
																			<Node id="325" score="1" recordCount="2">
																				<SimplePredicate field="double(float(Hours))" operator="lessOrEqual" value="55.0"/>
																				<ScoreDistribution value="0" recordCount="0"/>
																				<ScoreDistribution value="1" recordCount="2"/>
																			</Node>
																			<Node id="326" score="0" recordCount="2">
																				<SimplePredicate field="double(float(Hours))" operator="greaterThan" value="55.0"/>
																				<ScoreDistribution value="0" recordCount="2"/>
																				<ScoreDistribution value="1" recordCount="0"/>
																			</Node>
																		</Node>
																	</Node>
																</Node>
															</Node>
															<Node id="327" score="0" recordCount="1">
																<SimplePredicate field="Marital" operator="equal" value="Widowed"/>
																<ScoreDistribution value="0" recordCount="1"/>
																<ScoreDistribution value="1" recordCount="0"/>
															</Node>
														</Node>
														<Node id="328">
															<SimplePredicate field="Employment" operator="equal" value="PSLocal"/>
															<Node id="329" score="0" recordCount="1">
																<SimplePredicate field="Marital" operator="notEqual" value="Married"/>
																<ScoreDistribution value="0" recordCount="1"/>
																<ScoreDistribution value="1" recordCount="0"/>
															</Node>
															<Node id="330" score="1" recordCount="1">
																<SimplePredicate field="Marital" operator="equal" value="Married"/>
																<ScoreDistribution value="0" recordCount="0"/>
																<ScoreDistribution value="1" recordCount="1"/>
															</Node>
														</Node>
													</Node>
													<Node id="331">
														<SimplePredicate field="Education" operator="equal" value="College"/>
														<Node id="332">
															<SimplePredicate field="double(float(Hours))" operator="lessOrEqual" value="46.0"/>
															<Node id="333" score="0" recordCount="2">
																<SimplePredicate field="double(float(Income))" operator="lessOrEqual" value="33531.865234375"/>
																<ScoreDistribution value="0" recordCount="2"/>
																<ScoreDistribution value="1" recordCount="0"/>
															</Node>
															<Node id="334" score="1" recordCount="2">
																<SimplePredicate field="double(float(Income))" operator="greaterThan" value="33531.865234375"/>
																<ScoreDistribution value="0" recordCount="0"/>
																<ScoreDistribution value="1" recordCount="2"/>
															</Node>
														</Node>
														<Node id="335" score="0" recordCount="2">
															<SimplePredicate field="double(float(Hours))" operator="greaterThan" value="46.0"/>
															<ScoreDistribution value="0" recordCount="2"/>
															<ScoreDistribution value="1" recordCount="0"/>
														</Node>
													</Node>
												</Node>
											</Node>
											<Node id="336">
												<SimplePredicate field="Occupation" operator="equal" value="Executive"/>
												<Node id="337" score="0" recordCount="3">
													<SimplePredicate field="Marital" operator="notEqual" value="Married"/>
													<ScoreDistribution value="0" recordCount="3"/>
													<ScoreDistribution value="1" recordCount="0"/>
												</Node>
												<Node id="338">
													<SimplePredicate field="Marital" operator="equal" value="Married"/>
													<Node id="339">
														<SimplePredicate field="Deductions" operator="notEqual" value="true"/>
														<Node id="340">
															<SimplePredicate field="double(float(Hours))" operator="lessOrEqual" value="98.5"/>
															<Node id="341">
																<SimplePredicate field="Education" operator="notEqual" value="Professional"/>
																<Node id="342">
																	<SimplePredicate field="Education" operator="notEqual" value="Yr9"/>
																	<Node id="343">
																		<SimplePredicate field="double(float(Income))" operator="lessOrEqual" value="45140.474609375"/>
																		<Node id="344">
																			<SimplePredicate field="double(float(Income))" operator="lessOrEqual" value="23547.7548828125"/>
																			<Node id="345">
																				<SimplePredicate field="Employment" operator="notEqual" value="PSLocal"/>
																				<Node id="346">
																					<SimplePredicate field="Education" operator="notEqual" value="Vocational"/>
																					<Node id="347">
																						<SimplePredicate field="double(float(Age))" operator="lessOrEqual" value="55.0"/>
																						<Node id="348" score="1" recordCount="2">
																							<SimplePredicate field="Employment" operator="notEqual" value="Private"/>
																							<ScoreDistribution value="0" recordCount="0"/>
																							<ScoreDistribution value="1" recordCount="2"/>
																						</Node>
																						<Node id="349" score="0" recordCount="1">
																							<SimplePredicate field="Employment" operator="equal" value="Private"/>
																							<ScoreDistribution value="0" recordCount="1"/>
																							<ScoreDistribution value="1" recordCount="0"/>
																						</Node>
																					</Node>
																					<Node id="350" score="1" recordCount="4">
																						<SimplePredicate field="double(float(Age))" operator="greaterThan" value="55.0"/>
																						<ScoreDistribution value="0" recordCount="0"/>
																						<ScoreDistribution value="1" recordCount="4"/>
																					</Node>
																				</Node>
																				<Node id="351" score="1" recordCount="2">
																					<SimplePredicate field="Education" operator="equal" value="Vocational"/>
																					<ScoreDistribution value="0" recordCount="0"/>
																					<ScoreDistribution value="1" recordCount="2"/>
																				</Node>
																			</Node>
																			<Node id="352" score="1" recordCount="7">
																				<SimplePredicate field="Employment" operator="equal" value="PSLocal"/>
																				<ScoreDistribution value="0" recordCount="0"/>
																				<ScoreDistribution value="1" recordCount="7"/>
																			</Node>
																		</Node>
																		<Node id="353">
																			<SimplePredicate field="double(float(Income))" operator="greaterThan" value="23547.7548828125"/>
																			<Node id="354">
																				<SimplePredicate field="double(float(Age))" operator="lessOrEqual" value="56.5"/>
																				<Node id="355">
																					<SimplePredicate field="double(float(Hours))" operator="lessOrEqual" value="46.5"/>
																					<Node id="356">
																						<SimplePredicate field="double(float(Hours))" operator="lessOrEqual" value="42.5"/>
																						<Node id="357">
																							<SimplePredicate field="Employment" operator="notEqual" value="SelfEmp"/>
																							<Node id="358">
																								<SimplePredicate field="Education" operator="notEqual" value="Associate"/>
																								<Node id="359">
																									<SimplePredicate field="Employment" operator="notEqual" value="Consultant"/>
																									<Node id="360">
																										<SimplePredicate field="double(float(Age))" operator="lessOrEqual" value="46.5"/>
																										<Node id="361" score="0" recordCount="1">
																											<SimplePredicate field="double(float(Income))" operator="lessOrEqual" value="29338.9453125"/>
																											<ScoreDistribution value="0" recordCount="1"/>
																											<ScoreDistribution value="1" recordCount="0"/>
																										</Node>
																										<Node id="362" score="1" recordCount="1">
																											<SimplePredicate field="double(float(Income))" operator="greaterThan" value="29338.9453125"/>
																											<ScoreDistribution value="0" recordCount="0"/>
																											<ScoreDistribution value="1" recordCount="1"/>
																										</Node>
																									</Node>
																									<Node id="363" score="1" recordCount="4">
																										<SimplePredicate field="double(float(Age))" operator="greaterThan" value="46.5"/>
																										<ScoreDistribution value="0" recordCount="0"/>
																										<ScoreDistribution value="1" recordCount="4"/>
																									</Node>
																								</Node>
																								<Node id="364" score="0" recordCount="1">
																									<SimplePredicate field="Employment" operator="equal" value="Consultant"/>
																									<ScoreDistribution value="0" recordCount="1"/>
																									<ScoreDistribution value="1" recordCount="0"/>
																								</Node>
																							</Node>
																							<Node id="365" score="1" recordCount="1">
																								<SimplePredicate field="Education" operator="equal" value="Associate"/>
																								<ScoreDistribution value="0" recordCount="0"/>
																								<ScoreDistribution value="1" recordCount="1"/>
																							</Node>
																						</Node>
																						<Node id="366" score="1" recordCount="2">
																							<SimplePredicate field="Employment" operator="equal" value="SelfEmp"/>
																							<ScoreDistribution value="0" recordCount="0"/>
																							<ScoreDistribution value="1" recordCount="2"/>
																						</Node>
																					</Node>
																					<Node id="367" score="1" recordCount="4">
																						<SimplePredicate field="double(float(Hours))" operator="greaterThan" value="42.5"/>
																						<ScoreDistribution value="0" recordCount="0"/>
																						<ScoreDistribution value="1" recordCount="4"/>
																					</Node>
																				</Node>
																				<Node id="368">
																					<SimplePredicate field="double(float(Hours))" operator="greaterThan" value="46.5"/>
																					<Node id="369">
																						<SimplePredicate field="Education" operator="notEqual" value="HSgrad"/>
																						<Node id="370">
																							<SimplePredicate field="double(float(Income))" operator="lessOrEqual" value="36553.71484375"/>
																							<Node id="371">
																								<SimplePredicate field="double(float(Hours))" operator="lessOrEqual" value="75.0"/>
																								<Node id="372" score="1" recordCount="1">
																									<SimplePredicate field="Education" operator="notEqual" value="College"/>
																									<ScoreDistribution value="0" recordCount="0"/>
																									<ScoreDistribution value="1" recordCount="1"/>
																								</Node>
																								<Node id="373">
																									<SimplePredicate field="Education" operator="equal" value="College"/>
																									<Node id="374" score="0" recordCount="2">
																										<SimplePredicate field="double(float(Income))" operator="lessOrEqual" value="30477.2197265625"/>
																										<ScoreDistribution value="0" recordCount="2"/>
																										<ScoreDistribution value="1" recordCount="0"/>
																									</Node>
																									<Node id="375" score="1" recordCount="1">
																										<SimplePredicate field="double(float(Income))" operator="greaterThan" value="30477.2197265625"/>
																										<ScoreDistribution value="0" recordCount="0"/>
